=== Layer 5 Weights ===
[[ 3.44098449e-01 -8.92072141e-01  2.63659179e-01 -1.59307122e-01  2.64094528e-02 -9.06517863e-01 -1.06598683e-01  2.29982406e-01 -1.67716533e-01  5.59651434e-01]
 [-1.29270777e-01  1.32086575e+00 -3.77206534e-01  1.32907793e-01  7.53604412e-01  2.74216115e-01 -6.86307311e-01 -2.28447944e-01 -3.84848237e-01 -8.44133079e-01]
 [-7.70759165e-01 -1.38254300e-01  2.59374199e-03  6.68480039e-01 -3.54571342e-01 -8.40884894e-02 -1.11851966e+00  1.34831977e+00 -3.27618569e-01 -7.59119809e-01]
 [-5.90006053e-01 -1.03174627e+00  2.23699108e-01 -2.70032883e-02 -2.09183112e-01 -9.63531852e-01 -1.19988108e+00  8.62672865e-01  4.84502286e-01  7.99219429e-01]
 [ 2.26519227e-01 -1.36981308e-01  2.95307249e-01  5.92712522e-01 -7.53257036e-01 -5.85723877e-01 -4.52458709e-01  1.88528553e-01 -1.93308994e-01  4.35308725e-01]
 [-3.53427589e-01  1.08358991e+00  9.45423380e-04 -2.75339395e-01  1.66118026e+00 -1.32119572e+00  7.68074691e-01  1.13551962e+00 -8.09476256e-01 -3.76770616e+00]
 [-4.45237607e-01 -3.93337309e-01  1.38400748e-01  8.58074784e-01 -1.01114261e+00 -7.12612808e-01 -1.95640838e+00  5.03484428e-01  2.49697894e-01  1.19393855e-01]
 [ 4.43299413e-01 -1.23243701e+00 -8.35869133e-01 -5.37550032e-01  5.13086498e-01 -2.76867718e-01 -1.36104435e-01 -1.03394926e-01  1.35291126e-02  6.90212607e-01]
 [ 4.82529253e-01 -2.47386739e-01 -1.97661728e-01 -8.84606764e-02 -9.57869112e-01  1.32480785e-01 -1.42100561e+00  5.85536659e-01 -1.02524944e-01  1.70194507e-01]
 [-7.47620702e-01  4.85257395e-02  5.92419922e-01 -3.63152206e-01  1.78000569e+00 -1.57620394e+00 -4.02587473e-01  3.76950681e-01 -4.12667692e-01 -8.58351409e-01]
 [ 2.86821693e-01 -2.00382781e+00  7.09556878e-01  3.24661098e-02 -1.63323283e+00 -1.40416816e-01 -8.00458133e-01 -1.37860358e-01  7.40526378e-01  7.73186088e-01]
 [-1.60583213e-01 -3.49272400e-01 -4.13157165e-01  1.38268262e-01 -2.19365045e-01  2.32009724e-01 -8.29147875e-01  4.87256080e-01 -3.63865376e-01  3.42248529e-01]
 [ 1.81729272e-01 -2.78010035e+00 -7.46480465e-01 -6.68028533e-01 -1.36211932e+00  9.15450871e-01  3.96839201e-01  4.55496609e-01 -2.78914243e-01 -5.67992449e-01]
 [-2.48440914e-02  2.58021027e-01  1.05139041e+00  1.35116994e-01  2.20094353e-01 -1.16605413e+00 -1.13681996e+00  2.30676726e-01 -2.56376952e-01  8.13220069e-02]
 [ 6.21264994e-01 -6.65501058e-01  4.59306479e-01 -3.03801507e-01 -2.25870848e+00  8.93276334e-01 -2.86229402e-02 -5.94891131e-01  2.08629385e-01 -3.29933427e-02]
 [ 2.65100598e-01 -1.71316937e-02  2.44156823e-01 -2.06826553e-01 -9.02945757e-01 -7.23658502e-01 -1.31998444e+00  1.07591772e+00 -2.62689143e-01  8.23933542e-01]
 [-1.11574197e+00  4.86269385e-01 -1.33128238e+00 -1.89523077e+00 -3.48901391e-01  1.11139011e+00  1.30235171e+00 -3.58662792e-02 -2.72577584e-01 -9.78246033e-01]
 [ 8.51128399e-01 -2.83304393e-01 -2.53878027e-01  3.16327482e-01 -1.10969293e+00 -1.81443810e+00  1.40282258e-01  8.93952727e-01  4.45278585e-02  1.21819711e+00]
 [ 4.72302526e-01 -1.71611691e+00 -1.60790548e-01 -6.85971558e-01 -6.42911792e-01 -7.11361244e-02 -1.69014156e-01 -2.63669312e-01 -3.35469812e-01  5.47477841e-01]
 [ 9.61256385e-01 -1.00595772e+00  4.92007822e-01 -2.02508539e-01  5.69027781e-01 -6.74950063e-01 -1.57344627e+00  3.23620528e-01  8.95148516e-03  2.14184240e-01]
 [ 1.06080212e-02  1.66687980e-01  3.67980897e-01  1.06518149e+00  1.41391568e-02 -9.69501793e-01 -7.73282588e-01  3.67598802e-01 -7.70769238e-01 -6.71821773e-01]
 [-8.94073427e-01  1.04317474e+00 -1.36823460e-01  8.43640268e-01 -2.64087945e-01 -2.08358169e-01 -1.57675043e-01  1.52161703e-01 -1.30221033e+00 -5.76377451e-01]
 [-4.50549513e-01 -3.63552451e-01  4.30115312e-01  6.86424673e-01 -4.89124238e-01 -1.16616674e-01 -1.39720094e+00  4.70194012e-01  5.26310541e-02 -4.03550327e-01]
 [ 3.99733037e-02 -6.57293200e-01  9.31159675e-01 -7.67060369e-02  2.01512858e-01 -7.86322653e-01  2.99474120e-01 -2.83013225e-01 -3.85371655e-01 -5.36707714e-02]
 [-9.75062847e-01  3.91139150e-01  1.11599970e+00  8.79198372e-01 -2.82412243e+00 -7.88611889e-01 -1.09204018e+00  1.01348639e+00 -1.14631021e+00 -1.30779576e+00]
 [-1.58226997e-01 -6.69794738e-01  3.65316749e-01  7.21264184e-01  1.13830101e-02 -3.55497032e-01  7.99185157e-01  1.50819242e-01 -4.61729199e-01 -2.65750915e-01]
 [-1.89205438e-01  5.15554175e-02  3.04058194e-01  5.92805564e-01 -1.70239270e+00 -4.88898098e-01 -2.04975200e+00  6.02095664e-01  7.23484039e-01 -1.10065028e-01]
 [ 6.85112029e-02  4.84242797e-01  3.14284384e-01  2.64314890e-01  6.72571808e-02 -4.51468587e-01 -5.94150662e-01  2.59790450e-01 -1.35138810e-01  6.13023266e-02]
 [-5.32341838e-01 -4.03529614e-01  1.58283353e-01 -1.67863980e-01 -6.19034946e-01 -3.04074109e-01 -3.67948920e-01  6.29286110e-01 -7.56208897e-01 -2.38812566e-02]
 [-9.17863488e-01 -2.10453227e-01  4.24483776e-01 -1.12768106e-01  4.10849184e-01 -8.16092372e-01  3.05134088e-01  1.24278605e-01  9.38077718e-02  2.68763125e-01]
 [ 1.22524607e+00 -1.38099885e+00  4.17138845e-01 -2.79784501e-01 -1.79324269e+00  8.21564317e-01 -7.33761966e-01  1.01252770e+00 -2.36483023e-01 -3.64310831e-01]
 [-1.23511231e+00 -4.46200430e-01 -3.04443866e-01 -4.45055924e-02  4.53088224e-01  3.34567934e-01  5.57959199e-01 -2.05715463e-01 -3.32726631e-06 -2.90059239e-01]
 [ 8.34861219e-01 -1.23753798e+00 -7.11516857e-01 -1.52561271e+00 -1.13297772e+00  1.26367223e+00  8.05013359e-01 -1.08260989e+00 -4.22372401e-01  4.07845005e-02]
 [-1.98862642e-01 -3.76013011e-01  4.70511109e-01  8.44509900e-02 -7.87105739e-01 -3.49069357e-01 -2.02653795e-01 -1.04946278e-01  4.55684513e-01  5.26769459e-01]
 [ 4.19019997e-01 -5.15260816e-01 -2.62531132e-01  8.84336829e-02 -2.54715848e+00  1.12891793e+00  9.77385998e-01 -3.81797731e-01  3.60750020e-01 -3.77740860e-01]
 [-1.16853869e+00  2.57624611e-02 -4.33202125e-02 -9.53755304e-02 -6.41196012e-01  5.66816509e-01  1.08168519e+00  1.86549842e-01  3.75995070e-01 -1.09302364e-01]
 [-2.56333041e+00 -5.92143089e-02 -7.10722923e-01 -1.25404310e+00 -7.83828855e-01  1.79291570e+00  1.70181429e+00 -4.40400034e-01 -1.07605445e+00 -8.05697501e-01]
 [-3.75393540e-01  9.68524337e-01 -8.53632212e-01 -8.16489875e-01  6.01917088e-01 -5.34504473e-01  2.15699703e-01  1.47263005e-01 -2.96279997e-01  1.18465650e+00]
 [ 1.66952722e-02 -6.33814812e-01 -1.54030132e+00 -9.90608782e-02 -5.64260125e-01  1.18716693e+00  6.17019713e-01 -8.18138242e-01  3.92616317e-02 -3.03133041e-01]
 [-3.25653583e-01 -1.51433691e-01 -1.17218830e-01 -6.15039885e-01 -4.99902785e-01  6.28943026e-01  1.39568186e+00 -1.56210646e-01 -5.30272067e-01  8.60184655e-02]
 [-1.72943461e+00  2.21588206e-03  7.48615265e-01  8.19070101e-01 -7.51111925e-01  1.06925659e-01 -1.15586293e+00  2.29005322e-01  5.44595063e-01 -7.13876009e-01]
 [-1.00449212e-01  1.68869793e+00 -3.64167839e-02  1.09874880e+00 -1.06534421e+00 -4.38849241e-01 -8.36132050e-01  1.15659201e+00 -1.92467749e+00 -1.63955283e+00]
 [-6.66777611e-01 -1.83761016e-01 -3.47210877e-02  7.82072008e-01 -3.88356805e-01  7.82296717e-01 -6.61051631e-01  5.09217158e-02  3.71743381e-01 -4.71081316e-01]
 [-7.89546371e-01 -6.62327707e-01  1.49020934e+00  7.17660308e-01 -8.89969170e-01  1.51688188e-01 -1.22918546e+00  4.17502999e-01  1.23067021e-01 -1.58636868e+00]
 [-2.26759434e+00 -3.90747905e-01 -1.53872948e-02 -2.21088603e-02  2.16187343e-01 -8.13306049e-02 -4.09158230e+00  6.71796024e-01 -8.53373408e-01  6.28696620e-01]
 [ 1.27213702e-01  1.07250834e+00  5.34059703e-01  1.83989659e-01 -5.92463791e-01 -1.72110930e-01  3.99458826e-01  8.82331848e-01 -9.72812176e-01 -7.02015400e-01]
 [-1.52867496e+00 -6.61269307e-01 -4.35883284e-01  1.00280821e+00  1.27498254e-01  5.31094372e-01 -1.41694248e+00  2.24216804e-01  4.39617991e-01 -4.64509428e-01]
 [-1.32879174e+00 -1.64585307e-01  5.69435775e-01 -1.30864292e-01  6.10360056e-02 -9.18720439e-02 -1.13833833e+00  2.35149652e-01  4.36167449e-01  5.13848841e-01]
 [ 7.07628489e-01 -6.17612004e-01 -8.66039217e-01  7.03156665e-02  7.11817965e-02 -1.07368743e-02 -1.39805090e+00  1.59669593e-02 -1.62221432e+00  8.02719116e-01]
 [ 1.73217392e+00 -7.10720539e-01 -1.27015799e-01 -6.73249781e-01  3.58346105e-01  1.29882852e-02 -3.12753975e-01  1.15471296e-02 -2.06999838e-01  4.27776538e-02]
 [-1.19624838e-01 -1.71960795e+00 -9.26412642e-01  2.86755025e-01  5.87741852e-01  1.83240950e-01 -1.67157605e-01 -1.26413608e+00  3.13078016e-02  1.50483191e+00]
 [-3.91557842e-01 -1.31203270e+00  4.07023877e-01 -5.05722225e-01  1.05759430e+00  1.02694780e-01  2.61654675e-01 -6.77257001e-01 -3.91008765e-01  7.55943358e-02]
 [ 1.20468068e+00 -1.34447610e+00 -4.22829032e-01 -7.02244937e-01 -4.07817793e+00  6.46804571e-01  4.14660037e-01  4.48541939e-01 -1.36149693e+00 -1.32316709e+00]
 [-9.87609684e-01  2.45713282e+00 -1.16324747e+00  1.35768652e-01 -9.79361594e-01  9.57741201e-01  5.63353539e-01 -8.00768614e-01  7.26660043e-02 -2.20275313e-01]
 [-3.30553651e-01 -1.29786396e+00 -9.88991201e-01  7.42469847e-01 -2.00010419e-01  6.91763163e-01  1.05831599e+00 -3.27188879e-01  6.17330968e-01 -9.86366093e-01]
 [ 1.10889956e-01 -7.77887762e-01  2.49804750e-01 -1.77602425e-01  9.29217413e-03  3.57508421e-01  1.13818288e+00 -8.87276649e-01  7.14323744e-02 -7.30019510e-01]
 [-2.99890184e+00  1.96432263e-01  2.06613183e-01 -2.93100059e-01 -3.03152829e-01  6.87067568e-01 -6.56683624e-01 -2.73053318e-01  4.26160574e-01 -8.72572139e-03]
 [-1.61126041e+00  1.44477868e+00 -1.61999416e+00 -7.50610113e-01  7.83908188e-01  3.66798967e-01  3.42064321e-01 -4.79130715e-01  1.26765788e+00  1.01091698e-01]
 [-3.86110544e-01 -3.66318733e-01 -7.50653982e-01  4.46756780e-01 -2.87251323e-01  1.38393044e-01  4.59322304e-01 -7.00154722e-01  1.05205441e+00 -7.84019291e-01]
 [-1.95743418e+00 -6.01032972e-01 -2.37962976e-01  6.69659078e-01  3.34122144e-02  1.19498062e+00 -2.19880030e-01  4.19337511e-01 -3.73093903e-01 -7.73719430e-01]
 [-6.53184891e-01 -5.57677805e-01 -1.19413948e+00 -1.97049648e-01  1.24489653e+00 -1.34354621e-01 -4.23552752e-01  6.51460946e-01 -7.05984414e-01  5.25836289e-01]
 [-7.56291628e-01  1.23372197e+00  5.31092167e-01 -6.07879579e-01  4.49480504e-01 -3.71704876e-01 -9.41309512e-01  1.13845265e+00 -2.06620824e-02 -1.22569132e+00]
 [-3.57345283e-01 -1.51528871e+00 -8.90973210e-01 -1.75524384e-01  3.81748825e-01  3.55102509e-01  2.82574207e-01  9.78592575e-01 -3.86529654e-01  2.46846825e-01]
 [-2.07910275e+00  1.57703862e-01 -1.18649796e-01  1.08890128e+00 -3.29685211e-01  7.06363618e-01 -2.31130219e+00  5.66687346e-01  2.16439851e-02 -5.27663171e-01]
 [-1.39261234e+00  1.55262065e+00 -7.31707692e-01  1.09860694e+00  2.72181690e-01  7.20356822e-01 -1.95944214e+00 -3.73805761e-01 -2.14623523e+00  4.30512369e-01]
 [-3.22774202e-01 -5.97555935e-01 -1.51125446e-01 -1.01727834e-02 -1.27885535e-01  2.90192157e-01 -1.04029703e+00  7.38512874e-01 -3.61425877e-01 -2.45371889e-02]
 [-1.83255327e+00  1.25739723e-01 -9.14658368e-01  4.35052961e-01  8.94854248e-01 -5.11851907e-02 -8.06642532e-01 -1.59112617e-01 -1.36470692e-02  5.68045497e-01]
 [-1.92737356e-01 -3.10719669e-01 -8.98261428e-01  3.49180788e-01  2.03559041e-01  1.01455283e+00 -6.66924238e-01 -3.55918348e-01 -7.85887182e-01  8.32629442e-01]
 [-1.37890965e-01 -9.70836401e-01 -4.81229246e-01  6.01637125e-01  8.76400769e-01  3.31237555e-01 -6.19501948e-01 -1.32877994e+00 -4.34717715e-01  3.84140402e-01]
 [ 3.01499248e-01 -1.25705969e+00 -2.46851996e-01  2.06103802e-01  2.67532557e-01  3.78832459e-01 -2.79692918e-01 -1.11832380e+00  6.92004085e-01  5.97173929e-01]
 [-9.55370307e-01 -1.25827932e+00 -1.82231158e-01 -1.14727244e-01  1.24013007e+00 -4.21700925e-01 -6.28614604e-01 -4.80401129e-01  4.93572243e-02  1.13916624e+00]
 [ 4.47605222e-01 -2.48308741e-02 -3.02281559e-01  6.85071349e-01 -2.10446194e-01  5.39268672e-01 -2.13535830e-01 -5.56156099e-01 -1.11474276e+00  5.45228720e-01]
 [-9.95887995e-01  1.63639760e+00  6.23950422e-01 -4.49479580e-01  1.13243684e-01 -6.34161115e-01 -4.77680147e-01  3.09919059e-01 -1.47053257e-01 -1.38858402e+00]
 [-7.59787261e-01  5.66888571e-01 -1.48546755e-01  1.04580827e-01  4.53981161e-01 -2.29901269e-01  1.01122454e-01 -1.85126328e+00  1.01262617e+00  2.71137536e-01]
 [-5.69287479e-01 -4.43201661e-01 -1.78676620e-01 -1.94737986e-02  5.05878806e-01 -1.51059389e-01  2.36434802e-01  3.73349994e-01  3.33536208e-01 -1.03254151e+00]
 [ 1.14879690e-01  3.45255643e-01  2.56485492e-01  4.83540744e-01 -4.65443045e-01  3.74553531e-01 -1.54695123e-01 -8.24077487e-01  1.10272519e-01 -1.24423480e+00]
 [-9.56503227e-02 -2.33432546e-01  6.39460146e-01 -1.48157954e+00  9.88922954e-01 -1.87248552e+00 -1.30123651e+00  5.23900449e-01 -1.32549152e-01  1.78005517e-01]
 [-8.07769597e-01 -2.76911408e-01 -5.35016179e-01  1.20629251e-01  7.41984963e-01 -2.46245801e-01  1.81472793e-01 -2.26655424e-01  5.57848811e-01 -3.11141331e-02]
 [ 3.66158575e-01  1.92984700e-01  7.56281197e-01 -5.68648696e-01  4.54746366e-01 -9.66097474e-01  4.89567667e-02  2.93439388e-01 -1.36415496e-01 -9.84835565e-01]
 [-1.67121160e+00  3.96036774e-01  1.37075651e+00 -5.04018068e-01 -1.96349517e-01 -2.26075351e-01 -7.38028824e-01 -4.95928079e-01  2.99962878e-01 -5.75539887e-01]
 [ 4.21485573e-01 -8.85697186e-01 -2.44792327e-02  4.47730899e-01 -9.27750885e-01  9.04866397e-01  1.37170863e+00 -8.24521124e-01 -3.43167543e-01 -2.12512195e-01]
 [-1.00233829e+00  5.56029856e-01 -3.31844091e-01 -8.29009533e-01  1.38201976e+00 -9.03842211e-01 -1.08465421e+00  9.03828025e-01 -9.53690529e-01  4.02750790e-01]
 [ 1.03596759e+00 -8.18435490e-01  8.10394764e-01 -6.73961639e-02 -1.19543457e+00  1.14049339e+00  5.98341674e-02 -1.65348911e+00  6.20191336e-01 -1.18299162e+00]
 [-1.42973876e+00  3.95585299e-01 -5.50573826e-01  8.74527693e-01  3.30222815e-01  3.97268504e-01 -1.23297369e+00  6.08613789e-01 -1.54871786e+00  5.66927493e-01]
 [ 9.10602733e-02  4.58931834e-01 -3.43329728e-01  1.21208550e-02 -4.88102943e-01  5.62114656e-01  1.32496190e+00 -4.35772210e-01 -1.04433686e-01 -5.33828855e-01]
 [-1.82195735e+00 -3.31459224e-01  2.43486911e-01 -3.01921405e-02  1.06461048e+00 -4.95599329e-01 -1.10702479e+00  1.62371230e+00 -1.22183633e+00  4.53428537e-01]
 [ 9.63661671e-01  1.04514253e+00  7.13927567e-01 -9.47068512e-01 -8.48362148e-02 -2.05965713e-01  5.70681989e-01 -9.58878458e-01  5.42732179e-01 -9.15144086e-01]
 [-1.28887873e-02 -6.54294193e-01  5.59333086e-01  9.53411698e-01 -5.34977555e-01  1.02334011e+00 -1.12575662e+00 -6.68799520e-01 -5.35778821e-01 -9.99054462e-02]
 [ 1.43559635e-01  3.52318823e-01  6.32501125e-01 -1.47306591e-01 -4.06581968e-01  1.09324805e-01  9.22817767e-01 -1.89628279e+00 -8.14231560e-02 -4.35450017e-01]
 [-9.04034555e-01 -4.67571080e-01 -1.53509766e-01  8.15961361e-02  4.59364682e-01 -1.40461951e-01 -2.52999425e-01  5.42423248e-01 -3.58667225e-01  6.20710671e-01]
 [ 1.60782743e+00  9.68937799e-02  7.43697166e-01 -2.93383509e-01  3.12945247e-01 -3.23715210e-01  6.65414035e-01 -1.21826696e+00  4.35292363e-01 -6.45005107e-01]
 [ 1.32251608e+00 -2.18634978e-01 -3.95237915e-02  1.84492096e-01 -1.42183805e+00  6.61047995e-01  1.05283237e+00 -2.00709796e+00  3.91661912e-01 -2.57579178e-01]
 [ 1.08456004e+00  4.91222769e-01  4.74955618e-01 -7.07623184e-01  2.50042289e-01 -6.91596508e-01  9.08159137e-01 -5.43913424e-01 -9.10009742e-01 -1.19675294e-01]
 [ 4.15533125e-01  3.51197630e-01 -8.79844427e-01 -3.47499549e-02 -9.37885046e-03  2.04208121e-01  7.64515758e-01 -5.56336701e-01 -1.06649771e-01 -1.95099354e-01]
 [ 7.98104465e-01 -4.54512239e-01  8.86903286e-01  2.07831226e-02  1.22379370e-01 -2.21422300e-01  4.05554920e-01 -9.04669940e-01 -1.43414829e-02 -1.02886772e+00]
 [ 8.29863727e-01  3.64249200e-01 -3.40684727e-02 -2.88676977e-01 -1.05446172e+00  2.25868836e-01  2.00311482e-01 -1.16525874e-01  1.89873707e-02 -4.60964710e-01]
 [ 1.16292012e+00 -6.40179217e-01  2.65256912e-01 -3.69002879e-01  2.55316179e-02 -6.85793757e-01  6.63903892e-01 -1.46839139e-03 -5.21995485e-01 -8.79708529e-02]
 [ 1.24689353e+00 -8.59456897e-01 -2.74262905e-01  5.32166123e-01 -2.83329487e-01 -8.02266598e-02  1.73191726e+00 -2.66409144e-02 -9.64371637e-02 -9.69314158e-01]
 [-5.00551164e-01  8.60945821e-01  1.64687204e+00 -4.61841434e-01 -3.14621143e-02 -8.90193105e-01 -1.34706303e-01 -4.72086996e-01 -1.33200854e-01 -1.94036022e-01]
 [-3.60288858e-01  5.00501990e-01  5.49242616e-01 -7.14199543e-01  5.63735247e-01 -1.10651052e+00 -1.14255302e-01 -2.26875097e-01 -7.90553272e-01  5.26940525e-01]]

