=== Layer 2 Weights ===
[[[[ 0.5252921   0.21525627  0.01394696  0.11377501]
   [-0.35040775  0.1953599  -0.09553598 -0.70087576]]

  [[ 0.06402319  0.7487283   0.13308647  0.7442136 ]
   [-0.11849065  0.12074659 -0.02277775 -0.99681264]]

  [[ 0.25802377 -0.27242088 -0.03712544 -0.10594691]
   [-0.22607115 -0.45326582  0.37408465 -0.5818987 ]]]


 [[[-0.4798431  -0.02442982  0.24918267 -0.43393216]
   [-0.69330823  0.3989582  -0.35823765  0.31615782]]

  [[ 0.45938545 -0.04433746  0.80634797 -0.52144307]
   [-0.45068622 -0.6666385  -0.09632844  0.41645372]]

  [[ 0.26406625 -1.1535683   0.31599665 -0.22135694]
   [-0.5856436   0.0538994   0.35012975 -0.02662989]]]


 [[[-0.28313348 -0.22702429 -0.44251677  0.28913507]
   [-0.08830357  0.2258042   0.2552417   0.22860101]]

  [[-0.41335303 -0.2457336  -1.173485   -0.11396084]
   [ 0.13189897 -0.15234165 -0.25170112  0.12903607]]

  [[ 0.138484    0.09008805 -0.26378423  0.03041535]
   [ 0.16968079 -0.03306403 -0.7624028   0.01198633]]]]

