=== Layer 5 Weights ===
[[ 6.01514757e-01 -8.90730321e-02 -1.02944508e-01 -2.89020061e-01  2.35143840e-01  9.93810296e-02 -4.77269664e-02 -2.40426481e-01  3.43020171e-01  3.08484048e-01]
 [-1.00149834e+00  2.48834863e-02  3.61804336e-01  8.30672920e-01 -7.88784862e-01 -1.23338771e+00 -9.96257663e-01  7.91833222e-01 -4.23928291e-01 -1.05816102e+00]
 [ 2.35332325e-01 -4.68631163e-02  1.78423062e-01  4.00775485e-02  3.86689246e-01 -5.51612556e-01 -2.41906673e-01  4.12067980e-01 -3.01017463e-01  5.00225239e-02]
 [ 6.99307537e-04  2.59128481e-01 -1.53419049e-03 -1.62861168e-01  4.10284817e-01 -3.89992356e-01 -4.51054312e-02  8.26786160e-02  1.56332314e-01 -1.76420614e-01]
 [ 1.95318326e-01  3.20761025e-01  2.27198347e-01  2.32971087e-01 -4.46997881e-01 -3.83265495e-01 -7.69526139e-02 -2.32041568e-01 -4.64861169e-02  1.00413151e-01]
 [-5.94744347e-02 -6.54191732e-01  3.47085267e-01  8.16387594e-01 -9.65240896e-01 -7.02335536e-01 -9.12643194e-01  6.72315300e-01  1.16187580e-01  1.36245146e-01]
 [ 3.01706910e-01 -3.48923773e-01 -2.57156312e-01  2.84970969e-01 -1.88588873e-01  9.49996263e-02 -6.19484723e-01  4.51816648e-01 -1.26479343e-02  9.49576870e-02]
 [ 7.85761252e-02 -8.68903473e-02 -1.26591222e-02 -3.55463922e-01  7.72741437e-01 -3.78769934e-01  1.76382527e-01 -1.01039827e-01  6.43607005e-02 -4.68171053e-02]
 [-1.41404480e-01 -3.67960148e-02 -4.20728207e-01 -8.73552084e-01  4.88439739e-01  7.70263299e-02  9.21731472e-01  4.30253118e-01 -5.73979199e-01 -6.43674970e-01]
 [ 1.28574878e-01 -8.62460315e-01  5.47101200e-01  6.70346141e-01 -1.66212332e+00 -7.51619399e-01 -9.10374641e-01  3.56406152e-01  3.09542149e-01  6.33281708e-01]
 [ 1.07895985e-01 -7.15005815e-01 -3.14807504e-01  1.03600711e-01 -4.78267670e-01  2.45904475e-01 -9.60011601e-01  3.75404179e-01  7.84466639e-02  4.55379725e-01]
 [ 1.25782475e-01  7.01435804e-01 -2.27615967e-01 -9.11340594e-01  1.04821575e+00 -3.32175970e-01  4.10093963e-01 -2.30175212e-01 -1.50460199e-01 -5.05780399e-01]
 [-4.00488347e-01  3.90465617e-01  8.30404311e-02 -9.01856601e-01  1.85449809e-01  4.51016247e-01  5.22704840e-01  3.59043390e-01 -3.57304037e-01 -9.81663823e-01]
 [ 7.22327530e-01 -4.94853616e-01  2.28017688e-01  3.24618146e-02 -1.67227459e+00  2.54472733e-01 -7.80220866e-01 -9.96667966e-02  1.90917581e-01  1.13782048e+00]
 [ 3.21530849e-01 -1.35923541e+00 -5.45133352e-02 -6.13947883e-02 -5.97671330e-01  5.65248013e-01 -4.74848986e-01  3.95574719e-01  9.37459320e-02  4.50500757e-01]
 [ 1.37127843e-02  9.83510852e-01 -2.67353386e-01 -2.35695854e-01  9.70364630e-01 -9.78667557e-01 -3.20815444e-02  1.01753190e-01 -3.38249058e-01 -1.20344482e-01]
 [ 6.09185249e-02 -1.03053235e-01  1.97428197e-01 -5.34887791e-01 -6.59386694e-01  1.37779996e-01  7.15049505e-01  1.28776774e-01 -2.92847306e-01  3.93047690e-01]
 [ 3.03744286e-01 -8.15379202e-01 -1.26377150e-01 -1.82819039e-01 -5.27421355e-01  1.28072143e-01 -1.28072068e-01  4.93098795e-02 -8.66243914e-02  3.65192682e-01]
 [ 1.63827524e-01 -3.98668140e-01 -5.57462573e-01 -5.62332928e-01 -2.15021983e-01  4.19530362e-01 -1.41820282e-01  4.28994417e-01  3.27198744e-01 -7.29085952e-02]
 [ 5.05586326e-01 -1.67596653e-01  1.55838311e-01  1.59184843e-01  5.80286980e-01 -1.37069559e+00 -9.44480896e-01 -3.74818631e-02 -4.85666431e-02  4.27162915e-01]
 [-1.49131835e-01  3.83080304e-01  3.40818793e-01  5.73450029e-01 -1.34604409e-01 -2.77474821e-01 -3.51022899e-01 -7.42742717e-02 -4.09983486e-01 -3.00176620e-01]
 [-8.10815632e-01 -2.80556053e-01  7.24245548e-01  5.96053898e-01 -5.32741964e-01 -6.57678127e-01 -1.69125605e+00  6.90272629e-01 -1.31802440e-01 -3.95345688e-01]
 [-1.42465949e-01  4.64591473e-01  8.14973116e-01  3.67397338e-01 -2.57188886e-01 -6.15171850e-01 -9.51967061e-01  3.97001684e-01 -2.36489639e-01 -1.24755001e+00]
 [ 1.38328373e-01 -1.02112561e-01  6.82170242e-02 -4.99460340e-01  2.52394289e-01 -7.74016827e-02  1.16914017e-02 -3.59417260e-01  1.20502666e-01  2.85244972e-01]
 [-4.74485606e-01  3.66170436e-01  6.90545142e-01  1.35438430e+00 -1.23698032e+00 -7.09755003e-01 -2.93603420e-01 -1.46920413e-01 -9.00614500e-01 -7.09589005e-01]
 [ 2.80160755e-01  8.03085491e-02  4.01714742e-01 -1.89345986e-01 -1.46052875e-02 -2.06681207e-01 -6.28335118e-01  6.18071854e-01 -1.24776222e-01 -9.42081138e-02]
 [-6.98888361e-01  6.70639634e-01  6.73000276e-01  5.12363374e-01 -7.60574222e-01 -1.73526183e-01 -1.05396962e+00  3.33229482e-01  2.53435165e-01 -7.58069813e-01]
 [ 2.19237655e-01 -3.23583812e-01 -2.52343684e-01 -6.68709695e-01  6.32693589e-01 -4.31820937e-02  5.91174662e-01 -7.94909596e-01  1.15872316e-01  1.56246603e-01]
 [-6.62266314e-01 -8.98656398e-02  4.15104002e-01 -7.64995664e-02 -3.10917467e-01 -3.76207769e-01  2.19812199e-01  6.75301671e-01 -4.25689846e-01 -2.19655856e-01]
 [ 3.13951343e-01 -1.22105695e-01  4.79635596e-02 -4.69713271e-01  3.30438353e-02  2.57158935e-01 -3.73797536e-01 -7.18062446e-02  2.96048284e-01 -2.15371363e-02]
 [-9.18020010e-01 -1.27941358e+00  2.19536975e-01 -4.02410537e-01  3.03342223e-01  5.62542379e-01  5.60643077e-02 -1.22760862e-01  4.51386392e-01  2.45587483e-01]
 [ 2.52583861e-01  2.87871599e-01  2.20121354e-01 -4.20555145e-01  3.86732876e-01 -1.78250641e-01  4.43473250e-01 -8.35509717e-01 -1.25971958e-01 -3.36925149e-01]
 [ 1.83437914e-01 -7.87935913e-01 -4.61385310e-01 -1.60745394e+00 -7.75260448e-01  1.47756720e+00  1.26137412e+00 -1.06247473e+00 -3.45553100e-01 -5.82077384e-01]
 [ 1.80643171e-01  4.70433794e-02 -7.27074027e-01  8.64333585e-02 -3.23881537e-01  6.17754340e-01  2.35145465e-01 -8.08923021e-02 -1.43704802e-01 -1.07255220e-01]
 [-8.52489591e-01 -1.96001649e+00 -6.38440788e-01  9.08086076e-02 -5.65331876e-01  9.18369710e-01  8.38583171e-01  2.86484450e-01  3.78300607e-01 -3.04764658e-01]
 [-2.51318425e-01  2.06130788e-01  5.91309309e-01 -7.68839121e-02  5.28995275e-01 -4.75685924e-01  1.25978187e-01 -2.52016932e-01  3.34238261e-02 -9.16635320e-02]
 [-1.88619792e+00  7.07987309e-01 -1.09280908e+00 -2.15025023e-01 -4.88273650e-01  1.90659702e+00  1.10100734e+00 -7.44291604e-01 -5.89274585e-01 -9.19761509e-02]
 [-1.02866575e-01 -7.75010288e-01 -6.77182615e-01 -7.93126076e-02 -3.65097642e-01  6.72614455e-01  4.88922060e-01 -2.37711556e-02  3.67794968e-02  9.71843675e-02]
 [-3.54010075e-01  2.71911204e-01 -4.90245819e-01 -7.29165435e-01 -5.09577990e-01  5.63023210e-01  9.98866141e-01 -1.39196306e-01 -2.62416542e-01 -1.00203216e+00]
 [ 1.09209165e-01 -5.05031884e-01  4.44700181e-01 -2.49607682e-01  4.82566118e-01 -2.39793479e-01  3.90774459e-02 -2.34869510e-01 -2.14035466e-01  3.16409767e-01]
 [-8.60933065e-01  3.67408246e-01  8.39723229e-01  6.14891231e-01 -7.07606018e-01  1.92557037e-01 -7.45135128e-01  6.29678369e-02  3.58964391e-02 -5.76073170e-01]
 [-9.03987944e-01 -2.26178989e-01 -1.56192631e-01  5.62680185e-01  3.26357096e-01  6.00573778e-01 -7.71953940e-01 -4.44283560e-02 -1.88105166e-01  3.55802894e-01]
 [-2.14948130e+00  3.92146170e-01  5.49507201e-01  5.49097002e-01 -6.37432098e-01  4.75776166e-01 -2.17140841e+00  1.14186995e-01  5.86300492e-01 -4.97804135e-01]
 [ 2.57585019e-01 -2.69486308e-01 -1.94411218e-01  4.58810091e-01  1.41189516e-01 -9.55703929e-02 -4.41792645e-02 -1.16553091e-01 -1.03724748e-01  1.13753088e-01]
 [-1.04828691e+00  5.65370083e-01  3.36259604e-01  3.54039580e-01 -1.14685595e+00 -4.01849687e-01 -8.19673359e-01  6.92192316e-01 -4.45760965e-01 -3.31624985e-01]
 [-3.38093817e-01 -6.63341641e-01 -6.24646246e-01  4.23182875e-01  2.72641212e-01  2.90787190e-01 -6.29172027e-01 -7.29614854e-01 -7.07521588e-02  7.27734625e-01]
 [-1.15668404e+00 -8.21019590e-01  2.25316152e-01 -1.35140773e-02  9.24732983e-02  2.37129051e-02 -9.83980060e-01 -6.44757301e-02  6.65415078e-03  8.41085792e-01]
 [ 2.23373115e-01  4.27291662e-01 -5.07924676e-01 -1.99536029e-02 -5.06731033e-01 -2.04900175e-01  1.71800956e-01  2.75254905e-01 -6.29856214e-02 -4.06778902e-01]
 [ 8.08238685e-01 -1.05518341e+00 -2.96035241e-02  1.28585566e-03 -7.87281692e-02  3.82766128e-02 -6.48810863e-01  8.04849863e-01 -2.01837277e+00  2.50732064e-01]
 [-4.54206914e-01 -6.42690778e-01 -3.10704231e-01 -2.14478120e-01  3.72105837e-01  1.31859183e-01  4.45189029e-02 -1.07332909e+00  6.18213415e-01  9.19354081e-01]
 [ 1.65056437e-01 -2.13702607e+00  1.94737166e-01 -8.38895559e-01  7.28734195e-01 -1.52170241e-01  2.04358533e-01 -7.39163101e-01  3.16927552e-01  2.52325684e-01]
 [ 4.08666641e-01  3.78351659e-01  2.76256762e-02 -5.40941417e-01 -3.84760529e-01 -2.16455638e-01 -4.84995902e-01  8.52973461e-01 -2.13922724e-01 -7.40142584e-01]
 [ 1.17471659e+00 -9.37586725e-01  2.04734623e-01 -2.13976696e-01 -1.61234415e+00  9.80979919e-01  3.31607223e-01 -1.25658810e+00 -1.76714301e-01 -9.44059014e-01]
 [-7.54086196e-01 -1.17456689e-01 -4.14031833e-01  2.97801226e-01  3.48751098e-01  1.70598760e-01  5.47224522e-01 -6.46705151e-01  7.47702718e-01 -1.51811793e-01]
 [ 3.40620309e-01 -1.42964923e+00  2.26114541e-01 -1.75888330e-01 -3.65586691e-02  2.52988487e-01  5.45743108e-01 -8.82555917e-02 -1.53951654e-02 -9.11563218e-01]
 [ 7.90138662e-01 -5.12768686e-01  1.51447281e-01 -4.69932348e-01 -2.15628475e-01  5.74772298e-01  2.42306814e-01  8.65508258e-01 -6.51900709e-01 -5.45359373e-01]
 [-2.31755042e+00  4.95953918e-01 -2.54390061e-01  7.06639111e-01 -6.87437713e-01  8.77568603e-01 -5.36468744e-01 -1.04689932e+00  1.19079745e+00 -3.43411148e-01]
 [-2.97571033e-01 -8.21156502e-01 -3.23605895e-01  4.05196249e-01  3.59060317e-01  2.87523985e-01  4.84823227e-01  2.67263770e-01  4.47910935e-01 -7.21367419e-01]
 [-1.32294858e+00  3.86891901e-01  4.44491595e-01 -9.37888250e-02  3.01415443e-01  1.17597580e-01  1.50329340e-02  1.03563762e+00 -2.27843463e-01 -1.64477301e+00]
 [ 6.26598448e-02 -1.65697619e-01 -5.67543685e-01  1.98136881e-01 -4.21956889e-02  6.69530153e-01  4.11051780e-01 -1.11033820e-01 -1.05723143e-01 -5.43481290e-01]
 [-7.43447602e-01  7.32327640e-01 -7.41820812e-01  1.49423942e-01  8.29124525e-02  1.10482164e-01 -3.25091243e-01  1.03065431e-01  2.75975853e-01  2.89263457e-01]
 [-7.50835538e-02 -8.49748373e-01 -6.68857932e-01  3.44159305e-01  4.32481676e-01 -8.34688619e-02  1.80526912e-01  6.69509232e-01 -4.45577651e-01  7.37254322e-02]
 [-1.21380949e+00  3.19452643e-01 -1.24797928e+00  1.29303658e+00 -2.57578641e-01  8.98996890e-01 -1.05676401e+00  4.00036424e-01 -9.28272128e-01  6.13860011e-01]
 [-1.75133105e-02 -2.43000649e-02 -1.71449944e-01 -1.67470083e-01 -5.29745936e-01 -4.18432295e-01  1.40680358e-01  6.22904003e-01  2.12639883e-01 -3.89285237e-01]
 [-1.15433669e+00  3.72985601e-01 -4.68988776e-01  5.34974873e-01  3.44117224e-01  3.06267917e-01 -1.90905809e+00  2.17350990e-01 -9.96948183e-01  3.07844222e-01]
 [-3.38552117e-01  1.82770975e-02 -3.89759749e-01  4.09186631e-01  3.44850332e-01  1.23385713e-01 -3.26855272e-01 -1.52435362e-01 -2.69362628e-01  3.73028666e-01]
 [-3.10041249e-01  5.21635078e-02 -1.04482484e+00  8.71460319e-01 -4.40573543e-01  7.78688729e-01 -4.90910292e-01 -6.85588777e-01 -1.33249927e+00  5.39257586e-01]
 [-7.75368959e-02  4.49342638e-01 -3.96735340e-01 -1.71019081e-02 -2.75590777e-01 -6.20505773e-03  7.21373707e-02 -2.31802255e-01  7.42797792e-01 -5.03664672e-01]
 [-5.05508445e-02 -6.70416236e-01 -2.18222216e-01  6.66698456e-01 -2.70876735e-01  2.27183715e-01 -6.60447836e-01  8.14514086e-02 -8.05258572e-01  7.37453625e-02]
 [-4.23189579e-03 -4.08333868e-01  1.88084289e-01 -3.16032708e-01  1.15094960e-01 -1.56261846e-01  2.78723896e-01 -3.59954178e-01  2.25710526e-01 -3.17076570e-03]
 [ 5.90560079e-01 -8.90372157e-01 -5.12891054e-01  2.29221001e-01  9.06883404e-02  3.30155224e-01  3.59582365e-01 -6.40929937e-01 -6.97829187e-01  2.24742979e-01]
 [ 5.26030898e-01  2.25441918e-01 -4.81179863e-01 -3.78924787e-01  1.15852974e-01 -1.14277400e-01 -4.04931813e-01  8.91169310e-02 -1.00876540e-01  1.72723457e-01]
 [ 2.13972125e-02  2.67967701e-01  4.89854179e-02 -2.34858319e-01  1.35830343e-01 -4.28844392e-01 -9.73511755e-01  2.91894436e-01  1.77053392e-01  2.06793338e-01]
 [-1.11189499e-01 -5.34384698e-02  3.43775660e-01 -4.86018471e-02  2.15326436e-02 -3.08787018e-01  5.10348491e-02  6.21649325e-02  4.32021260e-01 -6.39935374e-01]
 [ 1.65498972e-01  6.10023797e-01 -1.11972854e-01  2.60520905e-01 -1.09322734e-01 -1.53501377e-01  4.68581676e-01 -4.80780333e-01 -2.18273908e-01 -6.99490488e-01]
 [ 3.80200833e-01 -7.35079944e-01 -2.68990189e-01  3.95277053e-01 -2.96656579e-01  5.29644370e-01 -3.75300020e-01 -1.00657198e-05  3.36204499e-01  6.86601028e-02]
 [-1.29834875e-01  1.09675050e-01  6.08132958e-01 -6.29932225e-01  3.18893403e-01 -8.15764964e-01 -6.30260706e-01  4.32008862e-01  5.75588226e-01  1.04688411e-03]
 [-3.41513082e-02  1.84858114e-01  1.35319364e+00 -3.97341341e-01  3.22650164e-01 -6.03263259e-01 -9.65519100e-02  9.35778779e-04 -3.85967880e-01 -1.11723232e+00]
 [-4.24342513e-01  7.15372980e-01  1.25353503e+00 -1.18672144e+00  2.61657238e-01 -4.31172282e-01 -5.92859745e-01 -1.88809946e-01 -8.78184810e-02 -9.61761177e-02]
 [-5.71873188e-01  3.91543657e-01 -1.94277629e-01  1.73068672e-01 -1.93095222e-01 -1.03057310e-01  3.08318716e-03 -5.44423103e-01  8.21478903e-01 -4.29958791e-01]
 [-1.59443811e-01 -1.62481174e-01 -5.83772004e-01 -1.90098137e-01  3.80042702e-01  1.10645063e-01  2.79406428e-01 -1.19844005e-01 -3.26700479e-01  2.96779513e-01]
 [ 6.47610068e-01 -1.24782018e-01  5.81896663e-01 -4.27788585e-01 -2.89438486e-01  6.98816925e-02  6.27512708e-02 -9.85738873e-01  2.93423265e-01 -4.55319166e-01]
 [-3.90103042e-01 -8.43141437e-01 -8.79727900e-01  1.27118587e-01 -4.43719357e-01  3.78424764e-01  5.42526305e-01 -1.99342385e-01 -6.91920578e-01  3.23217928e-01]
 [-1.35743707e-01 -2.61686862e-01 -2.06511691e-01 -3.85283142e-01  1.84672046e-02 -2.70584282e-02  5.36017716e-01  2.58696139e-01 -1.48565814e-01  2.29960591e-01]
 [-8.81640613e-01  5.89592755e-01  2.40649521e-01  6.60430193e-02  1.51448816e-01 -6.57367334e-02 -5.60291290e-01 -1.94264408e-02 -3.83572638e-01  5.18315807e-02]
 [ 6.22467518e-01  3.34724188e-01  2.41576433e-01 -2.18354568e-01 -5.09702444e-01 -1.82999685e-01  3.22712749e-01 -8.20463300e-01  5.72041631e-01 -5.83272278e-01]
 [ 1.84703376e-02 -3.41487229e-01 -4.44790334e-01  6.37245178e-01 -7.52496481e-01  3.00579756e-01  3.07649106e-01 -1.07684243e+00  4.21291739e-02 -1.02944233e-01]
 [-3.55900973e-01  5.74928463e-01 -6.35879636e-01 -7.93027163e-01  6.35090768e-01 -9.09529150e-01 -5.75080188e-03  6.34884059e-01 -3.15837003e-03  1.55864760e-01]
 [-1.84612095e-01  3.04300338e-01  8.31894279e-01 -1.37499824e-01 -8.29108059e-02 -2.84945756e-01  2.01115832e-01 -9.84487608e-02 -1.09572995e+00 -2.66353544e-02]
 [ 5.56811154e-01  2.40790639e-02  3.60918999e-01  3.67826549e-03 -1.92390189e-01 -1.11999802e-01  2.51038104e-01 -8.96227777e-01  4.25051272e-01 -8.39865983e-01]
 [ 6.70838952e-01 -1.14007843e+00 -9.82218236e-02  2.54693240e-01 -1.26528597e+00  3.47515613e-01  1.27083495e-01 -1.73703265e+00  6.58592165e-01 -6.30158365e-01]
 [-1.73975658e+00  1.31739870e-01 -8.14829230e-01 -5.35925508e-01  1.01977968e+00 -6.61609948e-01 -1.90238702e+00  5.99028587e-01 -6.96960032e-01  6.57429755e-01]
 [ 6.60528362e-01 -2.96573371e-01  3.80500823e-01 -5.46951853e-02 -1.51985377e-01 -4.74275380e-01  3.89937907e-01 -4.98010740e-02 -4.88133639e-01  2.98649698e-01]
 [ 1.93967685e-01  4.43871170e-01  7.28785932e-01 -4.23421234e-01 -4.02942486e-03 -3.37736785e-01  5.58525503e-01 -2.76245475e-01  3.16688687e-01 -4.34775561e-01]
 [ 3.08585584e-01 -1.92679003e-01  1.37446776e-01 -2.52535701e-01 -5.79097807e-01  1.72631908e-02 -4.93784994e-02 -4.10186619e-01  4.14220899e-01 -5.10450564e-02]
 [-5.67272604e-01  1.36469722e-01 -5.55341601e-01 -4.49708849e-01  5.83755851e-01 -1.73743069e-01 -1.02409756e+00  6.85654700e-01 -3.15894932e-01  6.28958583e-01]
 [ 7.07009196e-01  1.16085202e-01 -1.22247219e-01  2.15156451e-01 -2.98982263e-01 -4.61361259e-01  4.60339755e-01  3.26298088e-01 -1.95297360e-01 -2.94371843e-01]
 [-7.84372985e-02  3.74600202e-01  1.04676676e+00 -7.01989830e-01  4.30152863e-01 -6.86058640e-01 -1.87184796e-01 -3.99312615e-01 -1.77218854e-01  1.71008855e-01]
 [ 2.90469885e-01 -1.23969823e-01  8.53867054e-01 -8.48040700e-01  1.28964886e-01 -4.41355109e-01 -4.97103274e-01 -1.60922587e-01 -3.16546917e-01  5.70899785e-01]
 [-9.52102304e-01  5.25075018e-01  7.12120757e-02 -4.14913684e-01  6.23486400e-01 -4.06180650e-01 -3.99045050e-01  3.77109170e-01 -9.38998386e-02  2.05505475e-01]]

