=== Layer 5 Weights ===
[[ 3.40721726e-01  1.06264532e-01  1.08717036e+00  4.44921732e-01 -1.31215143e+00 -9.73772705e-01 -1.19520140e+00 -3.01267684e-01  1.95268154e-01  1.33755338e+00]
 [-2.16366708e-01  7.82886446e-01  2.39194974e-01  1.22463249e-01  7.73742139e-01 -4.00699675e-02 -9.83022332e-01  6.25532806e-01 -8.49943042e-01 -1.40845883e+00]
 [-8.51961374e-01 -1.60712051e+00  4.83154133e-02 -5.41520119e-02  1.89272404e-01  2.94898003e-01  1.73294589e-01  1.65703282e-01  5.78224361e-01  3.45756151e-02]
 [-1.63274944e-01  4.82375920e-02 -9.84980524e-01  5.92578873e-02  1.16521072e+00 -3.77603412e-01 -6.20380044e-01  1.10669231e+00 -2.34446764e-01 -2.64734775e-01]
 [ 1.05101399e-01 -8.61910105e-01  8.94276500e-02 -2.03166902e-01 -1.34331179e+00 -3.11613590e-01  4.25327986e-01 -2.09459275e-01 -5.17540157e-01  8.03739130e-01]
 [ 5.49958684e-02  1.03174734e+00  2.68022954e-01  4.13095236e-01 -1.25497663e+00 -3.80249500e-01 -1.86745477e+00  1.68587923e-01 -5.44056475e-01 -1.87111175e+00]
 [-4.81677502e-01 -4.90537494e-01  5.29753983e-01  6.52964473e-01 -1.75477996e-01  1.81103759e-02  8.83368179e-02 -8.85408819e-01  5.59930921e-01  1.07496224e-01]
 [-8.11121613e-02 -1.10969234e+00 -5.40668368e-01  3.24905962e-01  7.91317761e-01 -1.67327851e-01 -1.80395782e+00  1.02139652e+00 -4.48624402e-01 -4.55507189e-01]
 [ 5.75914457e-02  7.25140750e-01 -2.59408563e-01 -1.33220637e+00  1.35640812e+00  2.85600483e-01  2.82151270e+00 -1.81373978e+00 -6.17722571e-01 -2.57730126e+00]
 [-1.68310598e-01 -3.50634754e-01  5.91420591e-01  6.28675103e-01  3.56090441e-02 -1.47180486e+00 -1.12724721e+00  4.46879834e-01 -6.26554191e-01 -3.17809916e+00]
 [ 2.48328224e-02  1.04052913e+00  1.82395548e-01  1.74029201e-01 -1.26035111e-02 -5.40777564e-01 -1.50335833e-01 -9.56028521e-01 -3.14284533e-01  5.64209044e-01]
 [ 1.09130450e-01 -8.25643301e-01 -8.13072860e-01 -4.17497456e-01 -5.78366518e-01 -2.65791982e-01 -1.40281296e+00  9.40988600e-01 -7.48064294e-02  6.90481305e-01]
 [-1.82148504e+00  1.07148337e+00 -2.28580341e-01 -3.96934628e-01  2.17910385e+00 -3.24060798e-01  3.68140191e-01 -1.38866043e+00 -4.93926734e-01 -1.41601241e+00]
 [ 7.42829502e-01 -3.69409978e-01  1.52114975e+00 -2.49497499e-03 -1.55169070e+00 -1.59401906e+00  5.86242080e-02  7.22008273e-02 -8.79888296e-01 -1.57364354e-01]
 [-2.46864036e-01  5.43221831e-01 -1.46636531e-01  1.84697941e-01  8.49599719e-01 -5.10581076e-01  5.80956340e-01 -7.79129982e-01 -8.55590701e-02 -1.60815656e-01]
 [-3.27070653e-01 -2.88804084e-01 -9.38969731e-01 -7.64165342e-01 -4.51906115e-01  2.46299222e-01 -3.62494618e-01  1.07012618e+00 -1.49416566e-01  8.83823693e-01]
 [-3.46984148e-01  3.55680555e-01  5.74269831e-01  5.26814871e-02  4.23838466e-01 -8.40070963e-01 -1.01111531e+00  1.28004938e-01 -1.35008961e-01 -1.78754777e-01]
 [ 8.31367493e-01  7.84305930e-01  9.33513045e-01 -2.40124181e-01 -7.28941441e-01 -2.68755531e+00 -8.60586315e-02  3.29652220e-01 -3.82232845e-01  4.43837732e-01]
 [-5.71188331e-01  5.60826957e-01 -5.48288882e-01 -3.60389233e-01  1.48006749e+00  7.79242516e-01  4.07926023e-01 -5.73083520e-01 -1.44295156e-01 -1.09311414e+00]
 [ 4.04495031e-01 -3.23742539e-01 -2.44240165e-01 -5.30083060e-01  2.53064069e-03  1.70778662e-01 -8.98373961e-01  3.58895451e-01  1.21312261e-01  6.28498554e-01]
 [-3.87773782e-01 -1.14462388e+00  1.25101721e+00  1.50211358e+00  2.19838426e-01 -8.51296782e-01 -3.08308542e-01  5.38485289e-01 -1.14345300e+00 -1.63322341e+00]
 [-1.36754298e+00  7.96019793e-01  8.60493839e-01  3.71517271e-01 -9.35560048e-01 -2.30806902e-01 -1.21385503e+00  4.99288946e-01  4.12295431e-01 -1.04574573e+00]
 [ 1.34323061e+00 -4.07050222e-01 -1.22105575e+00 -1.06797862e+00  5.83959401e-01  4.21652913e-01  4.42366809e-01 -4.83183742e-01  6.76953048e-02  3.87883037e-01]
 [-2.26115376e-01  2.31249183e-01  9.77513313e-01  1.00468099e+00 -1.32006550e+00 -5.15998125e-01 -1.55223000e+00 -8.82158518e-01 -2.99766827e-02 -2.74715126e-01]
 [-6.06067479e-01  2.58375973e-01  2.75545120e-01  1.33881795e+00 -1.72395205e+00 -1.33665144e+00  9.15504098e-02 -4.60738204e-02 -1.81092286e+00 -3.91551375e-01]
 [-1.12617123e+00 -2.91833013e-01  3.64358276e-01  3.62931728e-01 -9.41894591e-01 -2.00192079e-01 -2.92737269e+00  7.46237412e-02  1.87295705e-01 -1.93007991e-01]
 [ 8.14683974e-01 -7.61412457e-02 -1.06825519e+00 -2.50847340e-01 -1.06738992e-01  3.97355020e-01 -3.62629533e-01 -6.49724722e-01 -1.92375034e-01  5.80846608e-01]
 [-4.61460114e-01 -9.46124375e-01  4.77627844e-01  3.15960735e-01 -6.08469307e-01 -2.73908079e-01 -1.12454081e+00 -5.77050075e-02  4.30424333e-01  1.05223693e-01]
 [-6.11285925e-01 -3.75081211e-01  6.22186959e-01 -9.75101665e-02 -1.83626485e+00 -4.53806430e-01 -2.05398183e-02  6.17334425e-01 -5.49447834e-01 -1.53606171e-02]
 [-6.29011393e-01 -1.47150373e+00  6.53009892e-01 -1.09012462e-01  9.87321138e-01 -6.13372862e-01 -1.08785760e+00 -2.73221582e-01 -5.20700693e-01 -5.50559282e-01]
 [ 3.23336013e-02  7.49989152e-01 -4.50872600e-01  1.70222864e-01  3.12372118e-01 -8.08718681e-01  3.86107378e-02  1.20794602e-01 -4.41772640e-01  2.82680094e-01]
 [-1.61458522e-01 -1.18258643e+00 -2.13748515e-01 -2.81412065e-01 -2.63063580e-01  9.10321236e-01  6.32544756e-01 -8.69270086e-01  3.24263722e-01 -1.32903263e-01]
 [ 2.31982484e-01 -4.29121822e-01  1.99390650e-02 -1.35094440e+00 -1.61642694e+00  6.65039599e-01  3.57002854e-01 -1.19302869e+00  1.24845728e-01 -3.43220383e-02]
 [ 1.10149562e+00  9.43843484e-01  5.46259999e-01 -1.41294205e+00 -5.07686317e-01 -1.67257622e-01  4.42507416e-01 -7.98316240e-01 -1.47493827e+00 -6.40238285e-01]
 [ 3.17210168e-01 -1.23612380e+00  1.20893598e-01  7.08023190e-01  6.92640543e-01 -1.70936799e+00 -1.00806797e+00  3.15559924e-01 -2.59269979e-02 -1.44824445e-01]
 [-1.17483139e+00 -5.24030738e-02 -1.31690180e+00 -7.95186937e-01 -1.24381125e+00  1.31649864e+00  1.80319095e+00 -5.93367398e-01  1.28875598e-01 -6.66707397e-01]
 [ 7.06063092e-01 -1.18414772e+00 -3.97458404e-01 -3.61964792e-01 -2.39035919e-01  4.83985662e-01  1.11586414e-01 -5.25596738e-01 -1.78760998e-02  4.38564658e-01]
 [-5.65527618e-01  4.88221467e-01 -3.02668244e-01 -3.45150232e-01 -8.02155972e-01 -9.23674181e-02  1.12027562e+00 -2.91196108e-01 -1.52478051e+00 -3.29165757e-01]
 [ 1.09902911e-01 -4.88386750e-01  4.88334030e-01  7.11839318e-01  1.91047668e-01 -1.72787154e+00 -1.55635417e+00  1.85396597e-01  9.09512341e-01  2.80663781e-02]
 [-8.82419884e-01 -8.31529871e-02 -7.28282452e-01 -3.92271668e-01  6.17044091e-01  9.81758296e-01  8.56111109e-01 -5.44497550e-01 -2.68446475e-01  9.26203057e-02]
 [-1.10459721e+00  2.27283686e-02  8.46525490e-01  8.29381168e-01 -1.27053308e+00 -5.48693597e-01 -2.38187861e+00  7.32948720e-01  5.85542917e-01 -1.63038707e+00]
 [-9.17180061e-01  1.31465197e+00 -1.06936407e+00  2.31802806e-01 -1.22590393e-01  1.84366912e-01 -3.42364907e-01  3.75264019e-01 -5.49011767e-01 -1.88464709e-02]
 [ 1.05084741e+00 -7.19910026e-01 -4.42720622e-01 -6.69717610e-01 -2.49981657e-02 -3.31168398e-02  3.01479340e-01 -3.87303531e-01  3.01018953e-01 -1.47068024e-01]
 [-8.62666965e-01 -2.69944698e-01  7.24927604e-01  1.00026143e+00 -7.85181642e-01  8.13402057e-01 -9.60825801e-01 -3.38709772e-01  4.49704677e-01 -6.43655241e-01]
 [-4.81229842e-01 -1.89690456e-01  5.56428134e-01  1.18924275e-01 -1.37097919e+00 -9.11501646e-01 -9.20434415e-01  1.52111292e+00 -1.33288598e+00 -1.00423610e+00]
 [-1.86063111e+00 -2.80083358e-01 -2.24028349e+00  9.26683128e-01  2.84885794e-01  4.96656597e-01 -9.06068504e-01 -6.63670361e-01 -6.34996295e-01  5.83844721e-01]
 [ 7.33500957e-01 -7.08677471e-02 -4.77123320e-01  2.74639070e-01 -1.32606803e-02 -2.41849229e-01 -3.96109581e-01 -4.79278803e-01  1.01150203e+00 -7.38174319e-01]
 [-1.03841305e+00 -7.85927534e-01  3.65147829e-01  1.20993048e-01 -2.78411200e-03 -2.54852682e-01 -6.28715456e-01  3.34133148e-01  1.23561576e-01  1.15129612e-01]
 [ 1.09317422e+00  1.13082178e-01 -3.03781360e-01 -2.00239256e-01 -1.61142361e+00  4.67628054e-02 -1.68160534e+00  1.10186946e+00 -1.39529824e+00 -4.78264689e-01]
 [ 1.09785557e+00  4.61754315e-02 -1.70422804e+00  2.62943029e-01 -1.07127237e+00  1.03384994e-01  2.85373747e-01 -4.36641186e-01 -2.64574981e+00  2.08532587e-01]
 [-9.01543438e-01  9.94794548e-01 -4.27250385e-01  1.10260379e-02 -9.62577581e-01  2.39812672e-01  1.37638402e+00 -4.89575826e-02  3.42552722e-01  2.17320368e-04]
 [ 1.93421111e-01 -1.80861223e+00 -4.60440129e-01 -1.27487198e-01 -2.90392995e-01  6.30837381e-01  3.88925299e-02 -1.32220939e-01 -2.22644582e-01 -2.58192420e-01]
 [ 2.38734990e-01 -1.04645669e+00 -1.27905920e-01 -3.55242044e-01 -3.15225267e+00  1.00427067e+00 -1.47127450e-01 -2.27888346e-01 -6.12004995e-01 -5.15293479e-01]
 [ 2.14877844e+00 -1.14446568e+00 -2.93696344e-01 -1.21353996e+00 -1.48221815e+00  6.60124600e-01  6.87939048e-01 -1.35050690e+00 -1.82425487e+00 -1.91392255e+00]
 [ 9.81753394e-02 -4.55737948e-01 -7.26521239e-02 -6.70001090e-01  7.13729978e-01 -1.27966964e+00 -1.07247531e+00  8.41560602e-01 -7.72824809e-02  2.49014556e-01]
 [ 1.58636212e-01  4.33677763e-01 -1.97298869e-01 -7.05173239e-02 -4.79472160e-01 -2.92569458e-01 -1.17547877e-01 -4.41859722e-01  3.30979675e-01 -1.36699045e+00]
 [-8.92807662e-01 -1.08670163e+00 -1.30266452e+00  6.77320123e-01 -2.94662625e-01  1.33229896e-01 -2.39640195e-02 -1.01431131e+00  1.00933230e+00  2.37651929e-01]
 [-2.52007365e+00  1.21796381e+00 -8.01359057e-01 -2.42033079e-01 -9.59930241e-01  6.67757869e-01  7.31623530e-01 -6.43738270e-01 -2.07286552e-01 -3.61111164e-01]
 [ 1.64017498e+00 -1.00726891e+00  5.35475969e-01 -5.97315311e-01 -2.47573212e-01 -1.03770840e+00  1.19437337e+00 -2.85521120e-01 -6.08243383e-02 -3.94334942e-01]
 [-5.78044116e-01 -2.22365320e-01  2.26569191e-01  2.25219107e-03  1.46883607e-01  3.78106356e-01 -8.53256881e-01  6.48191035e-01 -9.38372016e-02 -8.33572090e-01]
 [-2.71203589e+00  3.53749871e-01 -1.75175592e-01 -3.29862311e-02  5.41999161e-01 -4.86369342e-01 -1.94654179e+00  4.28070366e-01  4.28051263e-01 -7.13210404e-02]
 [-2.70210952e-01 -1.11544991e+00 -1.02409756e+00  1.79649852e-02  4.66757715e-01  1.41540691e-01  1.17167854e+00  1.22889407e-01 -7.30242491e-01  8.15283597e-01]
 [ 1.05307186e+00 -1.07959306e+00  5.02538204e-01 -4.37143654e-01 -6.65937662e-01 -1.99138299e-02  5.36653280e-01 -1.27527535e-01  1.11041203e-01 -1.63591038e-02]
 [-8.84040892e-01 -1.07934453e-01 -6.67843044e-01  6.71137452e-01  4.77063000e-01  6.78572953e-01 -4.71838206e-01  6.59264922e-02 -5.92155039e-01  3.63207161e-01]
 [-1.88506448e+00 -9.96585548e-01  6.64351583e-02  3.80214483e-01  5.02383232e-01  4.25482035e-01 -3.10226393e+00  8.79764199e-01 -4.52130914e-01 -4.88705793e-03]
 [ 1.99621730e-02 -1.88619506e+00 -1.62576330e+00  7.58209825e-01  1.08629398e-01 -1.45242706e-01  5.66963665e-02  4.19726968e-02 -8.54226470e-01  9.25490201e-01]
 [-4.10882682e-01 -4.08039391e-01  6.87038481e-01 -7.22561181e-01 -2.60408372e-01 -9.77031231e-01  6.25993788e-01 -6.62597597e-01  2.03546453e+00 -2.93068618e-01]
 [-8.60372841e-01 -6.40191436e-02 -9.91743267e-01  1.02026820e+00  2.14296892e-01  4.79458988e-01 -9.08605278e-01 -1.65013111e+00 -5.50384462e-01  1.35302484e+00]
 [-2.10792279e+00 -1.12837768e+00 -6.20213985e-01  7.24489033e-01  6.51638746e-01  2.24761277e-01 -1.04853857e+00 -1.11932468e+00 -7.08487511e-01  1.25589252e+00]
 [ 3.95011425e-01  1.14981979e-01 -1.30071306e+00  3.81475270e-01 -7.84518003e-01 -2.99267191e-02 -6.05344951e-01  3.42353702e-01 -1.04950047e+00 -5.62591612e-01]
 [-7.52410769e-01  1.22092199e+00  6.98848009e-01 -5.98216891e-01 -1.40079006e-03 -4.11483109e-01 -3.34228575e-02  1.06416285e+00  1.30967468e-01 -6.75675035e-01]
 [ 3.74418974e-01 -9.89817500e-01  6.60047457e-02  1.34779900e-01 -1.40848801e-01 -1.62851587e-01 -2.88074594e-02 -1.86257392e-01 -1.29490942e-01 -2.49160796e-01]
 [-1.27807271e+00 -5.61720133e-01 -9.67688203e-01 -1.48301437e-01  5.48847854e-01  8.74780957e-03 -1.54054657e-01 -4.31607701e-02  7.72452414e-01 -2.75200784e-01]
 [-1.22244751e+00  1.37484181e+00 -7.88250685e-01 -1.32069206e+00 -7.05093682e-01  3.58687639e-01 -1.75719273e+00 -1.24977261e-01 -1.07848537e+00 -2.71279097e-01]
 [ 1.39388669e+00 -1.03937447e+00 -4.44290578e-01 -5.93004286e-01 -1.27508968e-01 -3.79628956e-01  5.63148201e-01 -6.44192696e-02 -5.27493767e-02  3.95463914e-01]
 [-1.74545139e-01  4.54875857e-01  1.04197919e+00 -5.79882264e-01  5.16358390e-02 -7.69224286e-01 -3.87402445e-01 -3.45262438e-01 -5.99136483e-03 -1.25024542e-01]
 [-1.15833175e+00 -5.83425581e-01 -5.87338090e-01 -2.07832322e-01  4.98611689e-01 -4.55172479e-01  4.17391419e-01 -7.74210095e-02  1.11284316e+00 -6.05177164e-01]
 [-1.16343939e+00  1.33008957e+00 -4.04307395e-01  7.71953084e-04 -1.02788472e+00  2.28906691e-01 -6.73288763e-01 -1.32832956e+00  5.15151143e-01  4.20807183e-01]
 [ 2.76210129e-01 -5.29281259e-01 -6.29701614e-01  9.38269198e-01 -1.18747127e+00  3.52268219e-01  1.32118607e+00 -1.06122386e+00  3.99400532e-01 -7.21759915e-01]
 [-3.22261542e-01  9.49450135e-01  1.26350617e+00 -7.50946760e-01 -3.34191889e-01 -5.16298354e-01 -2.80689508e-01 -6.56477690e-01 -3.24651390e-01  1.02814138e-01]
 [-1.29459667e+00 -5.17194495e-02 -1.17141259e+00 -9.47197620e-03  6.92960918e-01  3.27677011e-01 -7.99848020e-01  1.30795133e+00 -1.42754269e+00  7.40516007e-01]
 [ 7.97630608e-01  4.24930513e-01 -1.69684872e-01 -9.71614003e-01 -1.34214103e-01  4.87794876e-01  5.01603365e-01 -1.05661857e+00  5.95538497e-01 -6.92924559e-01]
 [ 1.01067686e+00 -4.29473191e-01  2.17824101e-01  4.59619820e-01 -1.00744247e+00  9.89203930e-01  3.98433983e-01 -9.71676052e-01 -1.30008698e-01 -1.39664724e-01]
 [ 9.52167213e-01 -3.96236360e-01  5.40569544e-01  2.41673470e-01 -1.35175753e+00  1.14031172e+00  1.72305748e-01 -1.19974685e+00 -2.01563865e-01 -6.01666331e-01]
 [-1.83406031e+00 -3.03793371e-01  2.06736729e-01  6.77066669e-02  3.22735131e-01  1.64132774e-01 -2.21381590e-01  9.02363539e-01 -9.67451215e-01  5.63403554e-02]
 [ 1.76066101e-01  7.76814893e-02 -2.83225495e-02 -1.44554520e+00  9.40883279e-01 -9.64267015e-01  1.03466010e+00 -4.08764064e-01  3.00228477e-01 -6.73122227e-01]
 [ 4.91096675e-02  5.65829277e-01 -8.29118311e-01 -5.25321901e-01 -1.83356833e-02 -1.49330199e-02  4.94810313e-01  7.75856495e-01 -2.82517582e-01 -1.85882002e-01]
 [ 1.39849126e+00  1.68796331e-02  8.67035985e-01  1.73589662e-01 -4.58005399e-01 -7.49078542e-02  7.73945928e-01 -2.23041272e+00  5.77478230e-01 -8.83900344e-01]
 [-1.06403792e+00 -3.79355729e-01 -2.59767532e-01  4.91456062e-01  6.07478261e-01  1.99785098e-01  4.89790052e-01 -2.84181088e-01 -1.13062525e+00  5.01872189e-02]
 [ 3.77679393e-02  2.16376409e-01  3.22530955e-01 -1.64900565e+00  7.00333834e-01 -1.40092146e+00  3.20804596e-01  6.57236800e-02  2.92351544e-01 -5.48194587e-01]
 [-6.05473876e-01 -3.09398919e-01 -6.82504833e-01 -1.50685802e-01  9.58019853e-01 -2.70251364e-01 -1.12148118e+00  1.18899739e+00 -8.38973522e-01  5.17366886e-01]
 [-8.90021026e-02  6.44998074e-01  2.85335839e-01 -6.28355443e-01  7.06914812e-02 -5.13190031e-01  6.85036242e-01 -1.13137877e+00  1.44733787e-01 -7.41190255e-01]
 [-2.68295437e-01  2.59755641e-01  1.23072192e-01  9.47829783e-02 -1.25179917e-01 -1.78022996e-01  8.00551653e-01 -2.28915423e-01 -5.59440196e-01 -3.36829185e-01]
 [-1.12939548e+00  3.23746383e-01 -3.14311534e-02 -2.41592407e+00  1.68325675e+00 -1.28561997e+00 -1.95397472e+00  3.17361534e-01 -1.67329168e+00  1.03043652e+00]
 [-2.10744947e-01 -4.79645818e-01 -6.25080056e-03  7.16068983e-01 -5.24727345e-01  3.57938081e-01 -6.74199045e-01 -4.83794421e-01  8.77656460e-01 -2.87894279e-01]
 [-9.16510463e-01  4.52089190e-01  6.36350870e-01 -1.02936685e+00  9.96096671e-01 -1.28227103e+00 -7.15123653e-01 -8.52511264e-03 -1.54697776e-01  3.02508585e-02]
 [ 4.64040220e-01  4.09381576e-02  1.25433505e+00  1.40421569e-01 -3.33670735e-01 -4.01211947e-01  4.62678313e-01  2.16748342e-01 -3.59852791e-01 -8.82771134e-01]
 [ 2.84529924e-01 -3.42363238e-01 -8.52527261e-01 -1.09418845e+00  1.30907381e+00 -6.78793192e-01 -7.92993605e-01  6.95869505e-01 -3.83082658e-01  4.62960899e-01]
 [-5.02732217e-01 -7.65672445e-01 -4.94659781e-01  3.18439603e-01 -1.56018400e+00  3.43162268e-01  4.00937468e-01 -1.26555157e+00  1.00453055e+00 -2.07859039e-01]
 [-1.04276860e+00  3.93846750e-01  1.51652825e+00 -9.54089046e-01  4.94525790e-01 -1.13880873e+00 -1.17377996e+00 -5.05522937e-02 -6.18045986e-01  6.93155468e-01]]

