=== Layer 2 Weights ===
[[[[-8.03514063e-01  3.13549712e-02  1.28245652e-01 -6.68594167e-02]
   [ 1.71722902e-03  5.32184988e-02 -5.76501667e-01 -1.04322203e-01]]

  [[-4.11163568e-01  1.01580448e-01  2.18858525e-01 -3.18914615e-02]
   [ 1.85806721e-01  1.27890363e-01 -2.63430864e-01 -1.98660165e-01]]

  [[-1.61906913e-01 -8.13643515e-01  4.46653754e-01 -5.36205657e-02]
   [ 7.44023100e-02 -3.67075466e-02 -4.11525846e-01  4.65958029e-01]]]


 [[[-5.65393090e-01  2.70408869e-01 -2.46184766e-01  1.35515541e-01]
   [-9.38928127e-02  1.91397116e-01 -6.88400492e-02 -4.19060700e-03]]

  [[-2.70757675e-01 -3.02854776e-01 -1.20115779e-01  2.34112948e-01]
   [ 2.61233330e-01  3.91202480e-01  2.11969137e-01 -7.97742382e-02]]

  [[-2.56072849e-01 -3.04951310e-01 -1.04654916e-01  1.20863445e-01]
   [ 3.72570574e-01 -6.65718981e-05 -5.56300990e-02 -6.30216241e-01]]]


 [[[ 1.64035067e-01 -1.03207685e-01 -2.22285260e-02 -4.07408595e-01]
   [ 1.86434761e-01  1.82374433e-01  3.76474969e-02 -9.63850319e-02]]

  [[ 7.80861601e-02 -7.25071877e-02 -2.64445487e-02  1.33826574e-02]
   [-1.88029364e-01  3.16649415e-02 -7.42592709e-03  8.20732474e-01]]

  [[ 3.77427787e-01 -3.42436731e-01  3.42940204e-02  2.58830845e-01]
   [-2.77800769e-01  3.48566622e-02  2.31919680e-02 -4.18503433e-01]]]]

