=== Layer 5 Weights ===
[[-5.18200636e-01 -1.19032681e-01  9.09255445e-02  3.93475443e-01  2.46802587e-02 -9.53857005e-01 -5.69629848e-01  8.84677470e-01  2.35464554e-02 -2.96583295e-01]
 [-3.63044381e-01 -2.62923390e-01 -1.40231118e-01 -5.14082074e-01  3.26224953e-01  4.26848799e-01  5.54810643e-01  2.90170223e-01  2.88873404e-01 -5.75165153e-01]
 [-3.57811034e-01 -2.33255565e-01  3.51262271e-01 -6.22166514e-01 -4.21472453e-02 -2.41367146e-01  9.20863599e-02 -3.38325724e-02  5.60411930e-01  6.99614465e-01]
 [-5.59309661e-01 -2.47117549e-01  4.00185227e-01  1.07509649e+00  1.69404939e-01 -7.00891435e-01 -7.00968146e-01  4.62281197e-01 -4.79466587e-01 -2.92660054e-02]
 [ 2.88409054e-01 -6.78555548e-01 -7.48236358e-01 -3.90188843e-01  6.65753841e-01 -2.30198532e-01 -5.82916617e-01  2.79572159e-01  1.41466558e-01  3.36775720e-01]
 [-5.27180694e-02 -1.42953143e-01 -2.15590194e-01 -9.44323391e-02  7.92013526e-01  2.16481954e-01  1.02360547e+00 -2.37453282e-01  7.93045983e-02 -1.04590774e+00]
 [ 2.72227675e-01  5.02638280e-01 -5.32763720e-01 -1.19193447e+00  7.97176719e-01  4.15844887e-01  1.32546759e+00 -1.50033808e+00  1.91982463e-01  5.54632962e-01]
 [ 6.48830771e-01 -1.62946105e+00  6.29905999e-01  1.15318097e-01 -1.42090154e+00 -3.90857756e-01 -3.95707130e-01  2.14718387e-01  1.46342769e-01  1.16842675e+00]
 [ 2.13570997e-01  5.40144265e-01 -2.48067990e-01 -2.28881493e-01  2.01302901e-01 -1.12540461e-01 -5.43764472e-01  2.10438102e-01  7.03116953e-02  5.82683347e-02]
 [-2.32558280e-01  1.04172671e+00 -2.45039575e-02 -2.93196827e-01  1.06396639e+00 -5.03759325e-01  6.39016509e-01 -1.44611800e+00  2.26308540e-01 -1.04275966e+00]
 [-1.82341009e-01 -1.54501610e-02 -1.02934384e+00 -1.42210543e+00  1.84584880e+00 -8.47355351e-02  1.53026199e+00 -1.46606719e+00 -4.51754600e-01 -5.24469018e-01]
 [ 7.08098590e-01 -4.34176326e-02 -2.10583046e-01 -2.64219850e-01 -1.27896190e+00  1.00708127e-01 -8.98858681e-02  2.50040174e-01  3.01224798e-01  3.25705916e-01]
 [ 1.41468614e-01  4.39504564e-01 -1.84300750e-01  1.78480864e-01  1.03116110e-01 -1.32996604e-01 -1.02215528e+00  1.55296907e-01 -2.43653521e-01  2.75294811e-01]
 [-7.54257338e-03  7.77954221e-01  4.31748092e-01  6.30432218e-02  4.84445572e-01 -6.41063809e-01  3.35981488e-01 -8.23729813e-01  5.29632568e-01 -6.65800273e-01]
 [-1.56592929e+00  2.83433050e-01 -1.47332740e+00 -2.70475030e-01  9.44353640e-01  6.97046220e-01  9.83317673e-01  2.37131104e-01 -4.11678076e-01 -4.20399249e-01]
 [-2.39545062e-01 -3.14464927e-01 -7.31727123e-01 -6.09449625e-01 -4.97187257e-01  1.12326038e+00  8.86780679e-01  5.49168527e-01  3.71940404e-01 -2.54058570e-01]
 [ 2.81043798e-01 -2.46375799e-01 -4.29189980e-01 -4.19933528e-01 -1.48981418e-02  5.81507266e-01 -6.60548985e-01  5.66449940e-01  3.16176832e-01  3.47022861e-01]
 [-2.79068202e-01 -2.90311158e-01  9.54570528e-03  3.47065449e-01  6.93902731e-01 -2.17809975e-01  1.85722500e-01 -4.51321229e-02 -4.89019440e-04 -4.30250645e-01]
 [-1.69895458e+00  4.60439622e-01 -1.01876521e+00  1.02917552e-01  7.62268782e-01  8.14207077e-01  3.88923496e-01  5.53078830e-01 -3.59886676e-01 -4.72564697e-01]
 [-8.39551091e-02 -9.21008885e-01 -1.07299602e+00 -1.81864738e+00 -1.07744755e-02  1.52692819e+00  1.12230659e+00 -3.61311257e-01  5.84475517e-01 -1.45119488e+00]
 [ 5.67449272e-01 -8.70013416e-01  1.36682957e-01 -4.83848274e-01 -5.88106997e-02 -6.50479972e-01 -4.80876952e-01  5.33507951e-03 -2.45493770e-01  6.86326206e-01]
 [ 3.79777819e-01 -1.09099293e+00 -7.34882414e-01 -4.07730862e-02  5.68426967e-01  2.73353100e-01  4.06724930e-01 -3.11630517e-01 -4.39110287e-02  6.32241011e-01]
 [ 5.71626246e-01  3.41419913e-02 -2.13128015e-01 -3.11226189e-01  2.73661911e-01  2.10251436e-01  3.59457850e-01 -5.85314095e-01 -4.64184612e-01  6.26210034e-01]
 [-1.40210584e-01 -2.94180006e-01  8.98490608e-01  8.55239779e-02  2.59570271e-01 -6.66417897e-01 -7.82736182e-01  1.05576038e+00 -2.08331883e-01 -5.35854876e-01]
 [ 8.01872611e-02  3.54974568e-01  2.44434744e-01  2.64968812e-01  5.38836777e-01 -6.18122101e-01  2.38389984e-01  4.37883884e-01 -8.46304834e-01 -8.10625330e-02]
 [-1.15401717e-03  2.06607476e-01 -4.16896701e-01 -1.60890982e-01 -3.35555039e-02  1.18950814e-01  1.09273709e-01 -4.76023376e-01  3.72947335e-01  2.96673328e-01]
 [-7.11200982e-02  5.91006696e-01 -3.73448730e-01  4.63151097e-01 -1.23541653e-01 -1.79640070e-01  6.33226514e-01 -1.11081529e+00 -5.70599556e-01  2.93513298e-01]
 [-1.32429153e-01  5.07573962e-01  6.31837785e-01 -2.30924208e-02 -8.40532005e-01  2.21456662e-01 -9.08709228e-01  9.37484950e-02  2.27723867e-01 -1.75521731e-01]
 [-8.87192369e-01 -5.09007759e-02 -7.04986751e-01 -3.16863984e-01  7.75651515e-01  2.61638105e-01 -4.36083302e-02  1.26601577e+00 -8.52046430e-01 -4.91504759e-01]
 [ 6.06013462e-02 -5.08001983e-01  2.98162341e-01 -5.44907674e-02  3.82448584e-01 -2.11409405e-01 -1.01611383e-01 -6.47929072e-01  3.90427947e-01  5.67766666e-01]
 [-1.96090899e-02 -6.65962338e-01  5.23401856e-01 -6.12127244e-01  7.04589605e-01 -5.58190227e-01  4.81379569e-01  8.92305896e-02 -6.44299090e-01 -2.95131654e-01]
 [-5.09690940e-01  1.50957927e-01 -1.56343758e-01  2.36283973e-01 -3.75978321e-01  2.50804335e-01 -8.08180049e-02 -4.13020328e-02  2.80788541e-01  6.83863088e-02]
 [-7.91252792e-01  3.45304012e-01 -3.08566242e-01  4.89328578e-02  2.34385401e-01  4.93528098e-01  5.07509932e-02  5.98553360e-01 -6.43659413e-01  3.90289389e-02]
 [ 3.45981866e-01  3.25558037e-01 -2.55217820e-01  3.34638357e-02  2.89435834e-01 -3.73745590e-01 -1.01183367e+00 -5.01383066e-01  2.86774963e-01  4.60485548e-01]
 [-3.67264673e-02 -2.61621207e-01  4.12091255e-01  6.34259522e-01  2.00373799e-01 -1.93379843e+00 -4.91530448e-01 -2.22720832e-01  6.28375709e-01  1.32452652e-01]
 [-4.14020628e-01 -1.45775175e+00 -5.40762603e-01  7.55585253e-01 -8.34387958e-01  1.03621483e+00  8.86164546e-01 -4.39720243e-01  5.62622428e-01 -1.16329134e-01]
 [ 1.01271071e-01 -8.87489676e-01 -7.35525340e-02 -6.68193027e-02 -5.28572619e-01 -1.97065726e-01 -2.78760880e-01  9.77972925e-01 -3.85447711e-01  6.17890954e-01]
 [ 2.10965037e-01 -5.17220557e-01 -2.03624234e-01 -6.97420359e-01  2.91781068e-01  5.66567600e-01 -6.55260026e-01 -4.45072770e-01  4.13389474e-01  6.20124698e-01]
 [-8.09164941e-01 -8.95879567e-02  8.42045844e-01  7.99552381e-01  3.96246850e-01 -1.89241672e+00 -1.67969406e+00  7.58272290e-01  4.68261361e-01  7.62363374e-02]
 [-1.05474973e+00 -1.07794106e+00 -1.46633804e+00 -2.97956169e-01 -9.56909359e-01  2.11397910e+00  1.31666803e+00 -7.56704867e-01  7.70979095e-03 -1.16067147e+00]
 [-6.93418086e-01  1.45873219e-01  8.74756873e-01  1.13226414e+00  6.21483147e-01 -4.89329964e-01 -6.75551414e-01  5.52586257e-01 -1.05387580e+00 -7.96849608e-01]
 [ 7.75820374e-01  1.99238528e-02 -1.06370819e+00 -1.37942597e-01 -7.23019242e-03  1.47189036e-01  6.31647408e-01 -3.17272961e-01 -2.17903808e-01  3.12957197e-01]
 [ 6.35262653e-02 -5.64906150e-02  5.97517490e-01  9.62073982e-01 -2.32977614e-01 -3.96417648e-01  5.74498892e-01 -2.41355032e-01 -4.71120566e-01 -4.86333609e-01]
 [ 3.74442488e-02 -2.36862928e-01  2.65351862e-01 -4.39005047e-01  2.75182694e-01 -6.45902380e-02 -5.73488593e-01 -8.54946226e-02  8.40342045e-02 -1.09300390e-01]
 [-5.37770152e-01 -5.67137823e-02  1.42289495e+00  1.14793515e+00 -1.19252336e+00 -7.49644756e-01 -4.50872928e-01  6.63293242e-01 -5.73865950e-01 -7.59185612e-01]
 [ 6.79691195e-01  2.12078050e-01 -1.44200766e+00  1.67479545e-01 -5.89910485e-02  6.90027058e-01  1.75645292e-01 -4.67231661e-01 -1.62710890e-01  7.32470155e-01]
 [ 2.68298894e-01  1.12058365e+00 -3.14274337e-03  8.24855924e-01 -1.36719060e+00 -9.40499067e-01  3.40644836e-01  1.20304084e+00 -3.97039235e-01 -1.58377492e+00]
 [-7.53765881e-01  2.34325916e-01  1.60110310e-01  2.24704593e-01 -1.85298726e-01  3.64094377e-01 -6.21153891e-01 -1.05793798e+00  2.83290911e-02  5.80514967e-01]
 [-1.17791462e+00  1.22334517e-04  7.74790704e-01 -4.79485214e-01 -4.66301680e-01  4.75639284e-01 -1.83240891e-01 -3.35248441e-01 -3.85903925e-01  3.26320082e-01]
 [-1.01263924e-02  6.75473869e-01 -3.37259769e-01 -1.35192111e-01 -3.12644720e-01  8.32439736e-02  2.42456734e-01 -2.92122811e-01  2.82708287e-01 -4.83452119e-02]
 [ 1.13314915e+00 -2.67743587e-01  4.74394113e-01 -1.27541006e+00 -6.78046465e-01 -6.38762832e-01 -9.41383615e-02  1.84010684e+00 -1.46096945e+00 -6.78278267e-01]
 [ 1.88281327e-01  2.99535155e-01 -5.91020584e-01  4.10174787e-01  3.02812278e-01 -1.35709554e-01 -6.09019957e-02  9.61043686e-02 -1.21102564e-01 -6.55832589e-02]
 [-7.30418980e-01  4.44875538e-01  3.13402042e-02 -9.93356884e-01 -8.28537881e-01  1.19565594e+00  1.71563804e+00 -7.11429656e-01 -5.41006327e-01 -2.84529686e-01]
 [ 3.87795269e-01  8.76865506e-01 -2.22875684e-01  3.82659912e-01  6.99986368e-02 -7.18402147e-01 -8.35107267e-01  7.62726590e-02  3.79909486e-01  1.31858259e-01]
 [ 1.08693886e+00  2.70321339e-01  8.73072624e-01 -4.20315057e-01 -4.28417832e-01 -6.30604327e-01 -3.62303376e-01 -6.17737733e-02 -3.21077590e-04  3.13380212e-02]
 [-1.44547708e-02 -1.59095120e+00  6.45634532e-02  7.20591545e-01 -7.62822032e-02 -2.02158406e-01  4.49342251e-01  4.45716321e-01  6.68160141e-01 -8.08157742e-01]
 [-6.52390599e-01  6.30794466e-02 -2.88138874e-02  1.27484193e-02  1.31795527e-02  9.46907163e-01  1.00420225e+00 -1.06409647e-01 -1.17837524e+00  1.14448272e-01]
 [ 7.50212431e-01 -3.53620470e-01 -2.57755727e-01 -1.01372875e-01  3.37596178e-01 -4.66177940e-01 -4.27677572e-01  2.42573291e-01  4.00115326e-02  2.52792805e-01]
 [ 5.94906628e-01 -8.91551450e-02  2.37034902e-01 -5.11793733e-01  1.63444296e-01 -9.39324319e-01 -1.35663956e-01  4.76280451e-01 -5.92213333e-01  6.72188818e-01]
 [-4.09308285e-01  1.90183837e-02  5.87806106e-01  4.45202321e-01 -6.37332380e-01 -1.71306103e-01 -3.08411300e-01 -7.17826366e-01  1.39648402e+00 -1.27236295e+00]
 [-2.16475010e+00  1.19561923e+00  1.27275634e+00  9.75690007e-01 -1.28523970e+00  4.42660600e-01 -2.52979732e+00  3.62333804e-01  5.69869757e-01 -1.93789017e+00]
 [ 5.21401465e-01 -8.22513461e-01 -1.17284007e-01 -9.41495121e-01  6.00924134e-01 -2.76169091e-01  6.45682991e-01  1.61812261e-01  1.83147252e-01  3.12529355e-01]
 [-4.23384368e-01 -2.04533249e-01  5.31430840e-01 -3.43080521e-01 -8.53526413e-01  6.13755286e-02  5.07136643e-01  5.72104216e-01  8.26174557e-01 -9.74250436e-01]
 [ 2.51855887e-02 -6.91316783e-01 -9.61271942e-01 -3.59325171e-01  1.72796771e-01  1.92001909e-01 -1.49481252e-01  4.57366928e-02 -2.91844979e-02  5.86372137e-01]
 [-1.40827072e+00 -2.79845268e-01  4.60448533e-01  2.41198599e-01 -6.91321671e-01 -1.58248603e-01 -1.85138440e+00  1.68746924e+00 -6.72904730e-01  5.32396257e-01]
 [ 5.04460573e-01  3.67061824e-01 -4.30986166e-01 -6.44832492e-01  9.41945463e-02 -2.36159377e-02  2.56095201e-01 -1.47879556e-01  3.52150172e-01 -6.87711984e-02]
 [ 2.98639953e-01  9.54138160e-01  2.53110975e-01 -5.39655983e-01 -7.20733643e-01 -6.19604290e-01 -5.77478290e-01  7.73456335e-01  1.01878715e+00 -1.43293607e+00]
 [-1.62579134e-01  4.36597228e-01 -1.17750443e-03 -6.64155632e-02 -4.80312198e-01 -1.12122998e-01 -1.29846618e-01 -6.52705848e-01 -7.58965909e-02  4.21545476e-01]
 [ 9.35066223e-01 -5.98414183e-01 -9.01370123e-02  1.83605105e-01  1.38034225e-01  3.31041247e-01 -8.82905304e-01  5.81715405e-01 -2.07391667e+00  1.01318233e-01]
 [-1.20882285e+00  9.48091298e-02  1.28954947e-01  4.38528866e-01  3.03685684e-02  2.58275896e-01  1.35238264e-02  2.03964666e-01  2.33857885e-01 -2.12629303e-01]
 [ 1.01212728e+00 -8.31408322e-01  1.77200779e-01 -8.15087616e-01 -4.29687768e-01 -3.41414094e-01 -8.04006040e-01  7.15647578e-01 -5.13919592e-01  4.98584718e-01]
 [-2.52488051e-02 -3.06339532e-01  3.73408645e-01  4.62956429e-01 -3.18292290e-01  2.66828691e-03  2.13427961e-01 -2.37088457e-01 -4.04781640e-01 -1.92670435e-01]
 [ 1.11302710e+00  7.09971309e-01  6.57841116e-02 -2.90354460e-01 -1.25765872e+00  7.35335708e-01  5.47456622e-01 -6.82623446e-01 -3.21219623e-01 -4.55530941e-01]
 [-9.81191576e-01  6.09053671e-01 -5.63042879e-01 -7.57719949e-02 -2.90590316e-01 -8.01800489e-02 -5.67491800e-02 -9.06625018e-03  2.91426063e-01  4.15651277e-02]
 [ 8.78127933e-01 -8.74964893e-01 -8.03514004e-01  2.36057818e-01 -9.89269853e-01  5.21171987e-01 -1.16292909e-02 -2.64973998e-01  2.69644316e-02  2.12840393e-01]
 [ 1.30331263e-01  6.21805847e-01  8.52383375e-01  1.57155260e-01  3.59288417e-03 -4.00856525e-01 -4.60585095e-02 -2.82149076e-01  5.54363849e-03 -3.65582228e-01]
 [-1.10841525e+00  2.11310774e-01  3.06302875e-01  7.04704463e-01 -6.47715092e-01  1.10685587e+00 -6.07583880e-01 -6.29671276e-01  4.30761158e-01  4.09623794e-02]
 [ 1.56781867e-01 -4.09876794e-01 -3.49496335e-01  4.06079382e-01  6.61605597e-01 -7.46038616e-01  2.01817989e-01  2.51984060e-01  7.07441270e-01 -2.45115548e-01]
 [ 6.13027036e-01 -3.63049924e-01 -6.86652601e-01  3.92027259e-01 -6.34744167e-01  2.30911165e-01  8.80815327e-01 -3.98473561e-01 -4.01160866e-01 -1.37362376e-01]
 [ 4.23387438e-01 -3.18535268e-01  9.81775105e-01 -8.16548109e-01  5.01686513e-01 -1.46724582e+00 -3.74266535e-01  5.16720593e-01 -3.01580161e-01 -1.61772519e-01]
 [-3.18880749e+00  5.30482769e-01 -4.55478013e-01  1.25385988e+00  1.74296007e-01  6.23470366e-01 -2.80281353e+00  6.68963432e-01 -7.64772058e-01  2.45758504e-01]
 [ 7.42816925e-01  2.08010271e-01  9.53642309e-01 -5.88606119e-01 -1.97648332e-01  1.32852882e-01  5.04439056e-01 -1.33649731e+00  3.38364542e-01 -6.97846293e-01]
 [ 1.56812087e-01 -8.97409692e-02 -2.33256474e-01 -7.39712298e-01 -5.72753906e-01 -8.68864954e-02  1.12563407e+00 -1.68575004e-01  5.06212413e-01 -1.70114994e-01]
 [ 1.27200410e-01 -1.74479067e-01 -4.41985088e-04  3.59370798e-01 -8.32183100e-03  2.49703169e-01  2.67603308e-01 -6.42895460e-01 -5.43799162e-01  3.59348655e-01]
 [-3.15395296e-01 -4.70714837e-01 -9.63684916e-01  1.93812597e+00 -2.77593225e-01  1.50865650e+00 -2.33583808e+00 -2.37868145e-01 -2.13723278e+00  3.14967126e-01]
 [ 1.27718281e-02  4.39615220e-01  3.03242058e-01 -8.89239550e-01 -4.81517054e-02 -5.41929007e-01  9.07306075e-02  1.60356760e-01  4.42370594e-01  2.21330017e-01]
 [-3.19271088e+00  2.49407634e-01 -1.08202684e+00 -3.58564615e-01  1.13006926e+00 -1.10573381e-01 -1.71362519e+00  1.50677454e+00 -1.01780319e+00  6.00348890e-01]
 [-1.55331761e-01 -2.00044259e-01  5.07757664e-01  1.97288871e-01 -1.02989554e-01  1.26189500e-01  1.45175427e-01 -9.01626348e-01  1.76479399e-01  2.41833590e-02]
 [ 3.54789644e-01  1.56039223e-01 -1.19253874e+00  6.39934003e-01 -1.69786668e+00  8.04193974e-01 -8.12334120e-01 -6.88529849e-01 -1.03548570e-02 -1.06999151e-01]
 [ 1.53538898e-01  6.14760101e-01  3.58591616e-01 -8.78864676e-02  2.11352140e-01 -3.41762900e-01  1.99998692e-01  1.92297444e-01 -4.06825781e-01 -2.50593334e-01]
 [-1.53802693e+00 -8.30175579e-01 -1.21630526e+00 -2.52836615e-01  1.35629404e+00 -7.25075901e-01 -1.49523234e+00  1.01989961e+00 -6.88776910e-01  1.12606418e+00]
 [ 2.52860963e-01 -2.86408812e-01  1.02190542e+00  6.45520866e-01 -6.59182549e-01  4.75286096e-01  1.76636055e-01 -1.20454514e+00 -8.55548866e-03 -7.66799033e-01]
 [-4.65367079e-01  2.36651897e-01 -3.15034151e-01 -4.29011673e-01  1.97486565e-01 -2.45766059e-01 -5.84537625e-01  4.07237232e-01  2.32413158e-01  4.18434590e-02]
 [ 8.34411103e-03  1.95718016e-02  2.45880708e-01  3.86723548e-01  7.20866723e-03 -3.02345157e-01  3.54341954e-01  1.13027073e-01  8.56454670e-02 -1.15830682e-01]
 [-4.78596598e-01 -5.54600775e-01 -6.69450283e-01  9.57914740e-02  2.78347194e-01 -5.22362217e-02 -5.18796742e-01  2.07012728e-01  8.48584950e-01 -7.22228810e-02]
 [ 3.87012392e-01 -1.23530403e-01  7.97924757e-01 -2.94653848e-02 -3.77420753e-01 -1.75950915e-01  5.06448627e-01 -9.87287164e-01 -3.39878559e-01 -2.41495803e-01]
 [ 8.72828588e-02 -1.11181013e-01 -4.37883139e-02  4.90599312e-02 -1.63631067e-01  2.10777387e-01 -1.97907597e-01  2.44041368e-01 -1.06759079e-01  2.20232215e-02]
 [-2.83392280e-01  1.23388872e-01  1.61682761e+00 -5.18628955e-01  1.99101910e-01 -4.21618879e-01 -1.87334329e-01 -8.06075409e-02 -6.26261592e-01 -5.19819677e-01]
 [-5.87940753e-01  1.89346801e-02 -4.78391014e-02  3.51295322e-02  5.05496919e-01  4.31227684e-01 -6.47886693e-01 -5.22520900e-01  9.61678267e-01 -5.29314101e-01]
 [ 1.46914101e+00 -9.31028903e-01  5.64807713e-01 -2.33150981e-02 -4.95094091e-01 -5.55144191e-01  4.70568448e-01  1.13400966e-01 -8.19601238e-01 -7.31760442e-01]]

