=== Layer 5 Weights ===
[[-6.55103266e-01 -8.54596421e-02 -2.19332993e-01  3.25222522e-01 -1.09358527e-01 -7.93441832e-02 -4.46584493e-01  6.05083823e-01  1.79836944e-01 -5.47470510e-01]
 [ 1.35724708e-01 -8.15046251e-01 -5.71603298e-01 -8.19005847e-01  5.52417815e-01 -4.96822178e-01  7.79842734e-01 -6.57417700e-02  1.58854827e-01  8.06339502e-01]
 [ 1.12679996e-01  7.58908242e-02 -2.74742961e-01 -1.93013027e-02  7.06721023e-02 -8.96551013e-01 -3.97644281e-01  2.19611734e-01  1.05649615e-02  2.40282074e-01]
 [ 8.98633376e-02 -6.27573550e-01 -5.29216707e-01 -8.07900205e-02 -6.07335120e-02 -2.30714738e-01  2.84667343e-01  4.27141577e-01  1.90863982e-01  8.63565728e-02]
 [-9.19068277e-01 -2.88070053e-01 -5.14178677e-03  3.13794136e-01  2.33117953e-01 -9.23520565e-01 -5.64287245e-01  1.26039520e-01  4.74748045e-01  1.24123424e-01]
 [ 8.88203025e-01  3.46746981e-01 -1.25245559e+00 -1.37269485e+00  7.77057290e-01  5.37324309e-01  9.63657260e-01 -5.24081826e-01  2.79779583e-01  2.73943961e-01]
 [ 1.91871762e-01 -9.11309838e-01  1.60315290e-01  3.32658380e-01 -9.40615833e-02 -1.47098958e-01 -1.10502660e+00  8.13760936e-01  1.33897543e-01  3.58367592e-01]
 [-7.04749823e-01 -1.17597973e+00  4.70851749e-01  2.06868440e-01 -1.04629569e-01 -2.65163124e-01 -9.19494390e-01  2.47655556e-01  5.45776665e-01  2.89578617e-01]
 [ 5.74647486e-01 -7.30923414e-02 -2.69135773e-01  7.72356540e-02  5.48098460e-02 -2.54291803e-01 -9.18998837e-01 -1.58110902e-01 -1.07578292e-01  5.74498653e-01]
 [-1.42011747e-01  9.39609170e-01 -2.26664156e-01 -6.45257533e-02  4.47050065e-01 -6.63737059e-01  2.26691276e-01  1.60686016e-01 -1.14211917e-01 -2.96131253e-01]
 [-2.36095801e-01 -1.29725623e+00 -4.58397940e-02  1.86098635e-01 -1.04230797e+00  2.20565468e-01 -9.74949479e-01  1.00978673e+00 -2.11620167e-01  7.35244274e-01]
 [ 3.62518668e-01 -1.04303963e-01  2.99108386e-01 -8.47071409e-02 -1.46924853e+00  4.75088507e-01 -1.14661956e+00  1.43659011e-01  4.53257620e-01  1.11406803e+00]
 [ 4.47232217e-01  1.27669021e-01  7.61770308e-02  1.72594726e-01  1.07404970e-01 -3.13686550e-01 -8.78519595e-01 -1.34720087e-01 -2.07298920e-01  4.17700142e-01]
 [ 1.60738692e-01  8.06171834e-01 -7.11344853e-02  2.18378708e-01  2.46381164e-01 -1.01472926e+00 -8.45587790e-01  2.86223739e-01 -7.92420506e-02  3.09891254e-01]
 [-2.56834507e-01 -9.28553760e-01 -6.34128213e-01 -4.65561062e-01 -7.80179918e-01  3.62544984e-01 -1.59713238e-01  1.41447878e+00 -6.32368386e-01  3.69893849e-01]
 [ 2.99240768e-01 -1.01409495e+00  1.75376296e-01 -5.25834024e-01 -5.33446729e-01  8.40079367e-01  5.16875684e-02  7.11287856e-02  3.06543797e-01  6.03529632e-01]
 [ 5.53850651e-01 -3.98963064e-01  2.23593697e-01  2.09207088e-01  7.37179756e-01 -1.09813607e+00 -1.22093141e+00  4.63096291e-01  2.19312832e-01  2.48769045e-01]
 [ 6.08515382e-01 -3.48958701e-01 -7.07018614e-01 -3.87194097e-01  1.18538737e-01  1.16519623e-01 -1.72460258e-01  1.82606801e-02  2.43608817e-01  2.44015098e-01]
 [-2.49585256e-01  2.14278102e-01 -1.05849898e+00 -9.37410295e-01  3.39856476e-01  7.21386313e-01  8.17766070e-01  7.88296103e-01  4.84271012e-02 -6.57695293e-01]
 [ 9.63075757e-01 -6.53217793e-01 -2.42648855e-01 -4.57095027e-01 -6.90113783e-01  4.43638444e-01  7.03440309e-02 -3.44311327e-01  2.58927941e-01  2.30598167e-01]
 [-1.47203892e-01 -1.45830780e-01 -1.59916818e-01 -4.81481045e-01  2.85501592e-02  4.06229943e-01 -2.33649626e-01 -4.98006225e-01  7.28622556e-01  6.08614028e-01]
 [ 9.02195275e-01  1.20331971e-02 -5.33845961e-01 -1.70735443e+00  5.49133539e-01 -2.73712248e-01  1.12175214e+00 -7.02984869e-01 -4.01858360e-01  3.04167330e-01]
 [ 5.43646738e-02 -1.20870948e-01  1.27557349e+00  1.28105748e+00 -1.61981478e-01 -1.31935000e+00 -6.87974036e-01  8.35922718e-01 -8.37848723e-01 -1.11748040e+00]
 [-1.75095275e-01  2.02133536e-01  8.54977727e-01 -2.00885653e-01 -3.36141959e-02 -4.33324546e-01 -1.78464472e-01  5.87415993e-01  8.67229104e-02  1.11999042e-01]
 [ 1.76375702e-01  2.96346247e-02  3.47138286e-01 -2.03791827e-01  4.98095304e-01 -8.02993923e-02  3.47966375e-03 -4.87284213e-01  1.47210985e-01  7.59151280e-02]
 [ 2.22445697e-01  6.04584038e-01 -3.98814827e-01 -9.11245167e-01  1.62794828e+00 -1.22532569e-01  9.59218740e-01 -7.18637407e-01 -4.00955409e-01 -6.36071980e-01]
 [-5.27460873e-02  3.20565701e-01  4.17608202e-01  1.26996791e+00 -1.20608377e+00 -1.84094653e-01 -1.06696784e+00  6.31996334e-01 -6.98526204e-01 -4.42820221e-01]
 [ 1.94714695e-01 -2.82712996e-01  4.21296835e-01 -2.09101677e-01  9.62147787e-02 -3.00219171e-02 -2.87380189e-01  1.45091251e-01  2.04068571e-01  5.22902608e-02]
 [-5.40357471e-01  2.69373268e-01 -4.87724207e-02 -2.30884388e-01  1.39693177e+00 -4.84297693e-01  6.10898495e-01 -9.96017605e-02  2.26416029e-02 -7.18474627e-01]
 [-4.96705711e-01  9.12016511e-01 -6.55813932e-01 -4.08051699e-01  1.41549492e+00 -8.49829614e-01  4.51363683e-01 -9.73863244e-01 -3.74828398e-01 -6.82234019e-02]
 [-3.87867153e-01 -5.38731098e-01 -2.72335380e-01 -1.40197799e-01 -1.18641937e+00  7.84071267e-01  4.74118948e-01 -6.89387262e-01  3.32489133e-01  2.73509920e-01]
 [-1.57760441e-01  7.82348037e-01  7.98561126e-02  6.49335701e-03 -9.08555329e-01  3.98952186e-01  4.42234725e-01  1.98147565e-01  1.26042380e-03  2.60057449e-01]
 [-9.46562350e-01  5.93732953e-01 -1.74785499e-02 -4.86262828e-01  1.57737708e+00 -1.79524347e-01  4.85514313e-01  3.88283730e-01 -2.10478529e-01 -9.16133225e-01]
 [-1.11681938e+00 -5.87964766e-02  9.44671780e-02  2.04389691e-01  8.31084251e-01 -1.13724744e+00 -4.46570605e-01  2.40734562e-01 -7.59776831e-02  4.15694833e-01]
 [-8.68235767e-01 -4.77007210e-01 -9.57272232e-01 -4.67383474e-01 -1.58541167e+00  1.55466592e+00  2.00159478e+00 -1.02423692e+00  1.15555443e-01  3.02992798e-02]
 [ 1.22795582e-01 -1.12346268e+00 -5.62442660e-01  3.53571206e-01  3.15221362e-02  6.00579500e-01  6.19620569e-02  1.57728970e-01  1.43218711e-01 -2.87937164e-01]
 [ 2.91576274e-02 -7.00620830e-01  4.45685461e-02 -1.49390310e-01 -2.57133543e-01  2.29143277e-01  4.48975235e-01  2.32393011e-01 -5.45164585e-01  2.29732171e-01]
 [ 3.93638909e-01 -1.77582324e-01  1.53344437e-01  2.01802906e-02 -1.99642241e-01 -1.71907628e+00  4.70836997e-01  2.72777915e-01  4.35371578e-01  5.62602043e-01]
 [-1.83323145e+00  7.90606216e-02 -1.68394744e+00 -2.72813916e-01  2.82093614e-01  1.46264410e+00  1.36346292e+00 -3.87858629e-01 -2.02377558e-01 -4.67621833e-01]
 [ 1.59113303e-01 -8.66647303e-01 -8.17790568e-01  3.04989908e-02 -3.98719281e-01  1.20307100e+00  8.45919847e-01 -6.40361845e-01  4.01015043e-01 -3.68952274e-01]
 [ 3.70171309e-01 -1.17630422e+00 -2.21868426e-01 -2.10036099e-01  3.72265190e-01  5.15258491e-01  4.97457743e-01 -2.19897509e-01 -5.50109625e-01 -1.58724248e-01]
 [ 9.04856026e-01 -5.33564508e-01  4.09814894e-01 -8.43624532e-01  5.76990426e-01 -5.92005074e-01  4.46613044e-01 -7.56401479e-01  1.02436468e-02 -3.30512226e-02]
 [-2.86873507e+00  4.34875935e-01  1.96430349e+00  1.86175597e+00 -2.38229322e+00  3.72545779e-01 -3.55691457e+00  8.93134117e-01 -1.60195604e-01 -2.40232158e+00]
 [-2.87822280e-02 -3.02334458e-01  3.09938975e-02  4.39131148e-02  8.69792029e-02  3.54625732e-01 -5.31424165e-01 -5.00081360e-01  4.18125868e-01  3.27702761e-01]
 [-6.37400329e-01  4.12040889e-01  2.62667298e-01  6.02216303e-01  4.57297534e-01 -1.36016086e-01 -2.98560947e-01  3.95530432e-01 -5.96785367e-01  6.72600940e-02]
 [ 7.94048846e-01 -3.50792140e-01  7.56253183e-01 -9.83102381e-01  3.30744535e-01 -5.26900172e-01  1.00779283e+00 -3.62113900e-02 -2.05503270e-01 -8.42837572e-01]
 [-3.85483950e-01  6.69195279e-02  9.57895875e-01  2.25883871e-01 -7.43665323e-02 -3.84881526e-01 -1.49391985e+00  1.13618922e+00 -1.50330269e+00  2.93637097e-01]
 [-1.77322239e-01 -1.30491182e-01  3.10892552e-01 -1.19391821e-01  5.59140816e-02  4.58453804e-01 -3.49044025e-01 -4.77335632e-01  3.68140191e-01  6.40089363e-02]
 [-1.94299483e+00 -1.87022641e-01  6.41159832e-01 -1.97014555e-01  7.83773541e-01 -4.32028562e-01  3.28355193e-01  1.46127082e-02  3.52560788e-01 -5.81911504e-02]
 [ 1.87650360e-02  7.18950152e-01  3.26696455e-01 -9.30345774e-01  2.02345282e-01 -8.86596739e-01 -1.23906665e-01  6.75688684e-01  2.34932639e-02 -5.98026097e-01]
 [ 3.09904635e-01 -6.90298438e-01  2.71975905e-01  3.49783123e-01 -1.35610580e-01  4.58162785e-01  6.49589598e-02  1.41930982e-01 -4.99608934e-01 -1.70386299e-01]
 [-1.09007406e+00  9.83587742e-01 -2.27287754e-01  1.61318511e-01 -4.19226944e-01  2.27965578e-01  5.44261158e-01 -6.06890097e-02  2.78371364e-01  1.77980095e-01]
 [-1.78899631e-01 -6.65161431e-01  6.64438963e-01 -1.05785739e+00  1.48051476e+00 -4.38093454e-01  4.19030227e-02 -2.60450751e-01 -6.17290854e-01 -5.29395163e-01]
 [-1.62619188e-01  1.55356422e-01  5.50309181e-01 -5.07152021e-01  1.49208695e-01 -1.06955722e-01 -4.01172817e-01  3.45015496e-01 -6.63670540e-01 -6.79533482e-02]
 [-1.49653405e-01 -7.48574555e-01 -2.92939920e-04  4.35358256e-01 -1.14221776e+00  6.72940493e-01  9.03490782e-01 -6.00953519e-01  5.01482248e-01 -5.32495439e-01]
 [ 3.66240710e-01 -1.62487042e+00 -4.39850837e-01  5.41881323e-01 -5.24322176e-03 -1.26262292e-01  1.82877183e-01 -5.48345186e-02  4.70266432e-01 -2.46438503e-01]
 [-7.29570985e-02 -2.49104545e-01  2.82399245e-02 -3.07359010e-01 -2.66426116e-01  8.58088315e-01  6.70039713e-01  1.91699281e-01 -6.41974211e-01 -4.30862874e-01]
 [ 3.95831764e-01  1.45929977e-01 -3.34505022e-01  2.91005999e-01  1.33742616e-02 -1.02412271e+00  4.68520045e-01  4.21650857e-01 -4.33459550e-01  4.82481629e-01]
 [-2.88385987e+00  1.72004655e-01  9.72624123e-02  1.11628008e+00  4.20636803e-01 -4.69134562e-03 -6.29150629e-01  1.36782294e-02  1.03144860e+00 -5.76678038e-01]
 [-1.34774996e-02 -5.12898505e-01 -8.86393711e-02  2.44937718e-01 -3.67082238e-01  1.70879424e-01  1.48912370e-01 -3.05763751e-01  5.99201083e-01 -9.05741215e-01]
 [ 4.75776285e-01 -2.25642934e-01  3.35073501e-01  2.28135407e-01 -1.35966623e+00 -7.23254979e-02  5.55073798e-01  2.08433822e-01  2.13928893e-02 -6.48022234e-01]
 [ 9.35363621e-02  5.36860824e-01  6.47748232e-01  9.51967776e-01 -1.80901217e+00  1.36048198e-01 -9.75987315e-01 -1.12448967e+00  6.25612140e-02 -2.24683553e-01]
 [-4.21560049e+00  8.19290102e-01 -5.78988254e-01  1.13807309e+00  6.06093884e-01  8.26425135e-01 -2.98921514e+00  9.54361081e-01 -6.40632093e-01 -2.80209988e-01]
 [ 9.19669867e-02 -5.74974120e-01 -5.66358685e-01  3.27360332e-02 -1.70369465e-02  3.82453889e-01 -3.03318463e-02 -3.80595103e-02  2.46096030e-02  3.91723096e-01]
 [ 2.04669274e-02  1.29983974e+00 -3.64445373e-02  3.94169748e-01 -7.43531108e-01  4.46942657e-01  2.76802808e-01 -4.13146615e-01  1.24855608e-01 -3.64356726e-01]
 [ 6.71850324e-01  5.83144985e-02  3.50419730e-01 -9.11687315e-01 -7.09687948e-01 -4.65700805e-01  6.63004160e-01  1.10344851e+00 -8.94589052e-02 -1.18132806e+00]
 [-1.40675321e-01 -4.34804522e-02 -4.25145149e-01  1.08478522e+00  4.70599115e-01  8.72866988e-01 -1.82417238e+00  9.96338874e-02 -1.81124938e+00  4.21946257e-01]
 [ 5.73146045e-02  6.67289495e-01 -1.44619182e-01 -1.78097099e-01  9.91581678e-02  7.14051127e-02  2.70467222e-01 -5.73568761e-01 -8.38066544e-03  3.33169550e-01]
 [ 5.61222315e-01 -3.47070694e-02 -2.82045335e-01  1.00021839e-01 -3.89655828e-01  3.53158936e-02  4.27813902e-02  1.21698260e+00 -1.05355966e+00 -3.49875569e-01]
 [ 1.17542338e+00  3.32757920e-01  3.18271577e-01 -2.74962872e-01 -5.73131204e-01  3.34409297e-01  1.32569596e-01  2.77245432e-01  3.23486477e-02 -4.44833487e-01]
 [ 3.04291129e-01 -2.82642841e-01  3.74848284e-02  7.58126616e-01 -5.43605745e-01  2.29507044e-01 -1.05126560e-01 -9.89884496e-01  1.64445236e-01 -6.20814502e-01]
 [-4.86480892e-02 -3.68883133e-01 -5.18692918e-02  3.80991697e-02  8.39113370e-02  1.75327078e-01  1.47228897e-01 -4.20227975e-01  5.21689117e-01  7.56770447e-02]
 [ 1.09977913e+00  4.62905228e-01 -5.78713641e-02  7.86826853e-03 -6.93662390e-02  2.64380097e-01  2.86747247e-01  5.84142268e-01 -1.03707278e+00 -8.80941093e-01]
 [-2.58317441e-01  6.94939971e-01 -1.93609804e-01  2.08901599e-01 -4.75436598e-01  6.59310043e-01 -2.74561256e-01 -4.66820121e-01 -1.66259542e-01  9.83209386e-02]
 [-7.78045416e-01  1.91534102e-01  2.43821189e-01  4.27793562e-01  1.51568940e-02 -2.58845568e-01 -2.35788226e-01 -4.55293059e-02  6.73463047e-01 -5.79184949e-01]
 [-6.01458736e-02 -5.90178311e-01  8.72456908e-01 -6.48068488e-02  1.28565326e-01 -6.68013871e-01 -2.63100136e-02 -2.91591167e-01  3.32870543e-01 -4.93756801e-01]
 [ 9.37855005e-01  5.06141186e-01  3.20454508e-01 -2.31589004e-01 -1.38750422e+00  4.24065500e-01  9.53660488e-01 -9.18743610e-01  1.24312960e-01 -1.12100816e+00]
 [-7.42477417e-01 -2.01495290e-01 -1.03841972e+00  1.81736648e-01  2.02011734e-01 -1.06135026e-01 -2.71338701e-01  2.78222620e-01  3.07726890e-01  4.45912719e-01]
 [-1.14238106e-01  3.71430993e-01  1.87645698e+00 -9.68928277e-01  2.24495798e-01 -3.13721108e+00 -1.07518995e+00  1.11710519e-01  2.06341743e-01 -1.73495889e-01]
 [ 1.11096829e-01  3.96786690e-01  9.91694987e-01 -8.64482939e-01  7.95886934e-01 -3.46368253e-01 -2.33865798e-01  7.73983240e-01 -3.08721066e-01 -7.62885273e-01]
 [ 2.74550557e-01 -2.98848480e-01  4.00086701e-01  2.67834038e-01 -1.07622731e+00  6.81040883e-01  1.97116420e-01 -1.19003487e+00  5.27563274e-01 -4.45873141e-01]
 [-4.48403716e-01 -1.02949595e+00 -1.08644950e+00  9.22821581e-01  1.85019121e-01  4.16181386e-02 -1.73021924e+00  7.37526059e-01 -8.78672302e-01  7.72989631e-01]
 [-1.56260204e+00 -7.09536895e-02 -9.72145915e-01  3.61520648e-01  1.07732463e+00  5.16978323e-01 -1.20842445e+00  5.81514955e-01 -1.96607053e+00  1.11356425e+00]
 [ 4.52271402e-01 -6.30103350e-01 -5.29497825e-02 -1.93726406e-01 -4.13181394e-01  2.51244664e-01  3.57632160e-01 -2.67827272e-01 -1.21747646e-04 -3.34499002e-01]
 [-6.80782437e-01  6.22793615e-01 -3.50608826e-01  4.54839468e-01  2.32761800e-02  2.12628543e-01 -1.16335011e+00  2.68757701e-01 -1.42736931e-03 -1.24544993e-01]
 [-4.12080616e-01 -4.12222743e-01 -3.34272325e-01 -3.18550989e-02 -3.30529869e-01  1.27066985e-01 -1.23125052e+00  9.43537116e-01 -7.19379783e-01  4.62193966e-01]
 [-7.22715497e-01  2.15424702e-01  2.90300906e-01  6.80605769e-01 -3.30546964e-03  5.54909766e-01 -1.05851150e+00 -1.75347090e-01 -9.05626714e-01  3.80829662e-01]
 [ 4.06058252e-01  3.08607280e-01 -2.35176817e-01  8.12304839e-02 -6.80084050e-01  5.44983029e-01  4.63935494e-01 -1.53198123e+00  3.92854720e-01 -3.31225507e-02]
 [ 4.81576383e-01  8.03863108e-02 -6.94587171e-01  4.13577110e-01 -8.69283080e-02  2.65120238e-01 -9.92289722e-01  4.44239587e-01 -1.57737777e-01  8.25280696e-03]
 [-1.55303502e+00  1.15474749e+00 -3.90264779e-01 -1.78840026e-01 -1.66152760e-01 -7.46228769e-02 -2.04062462e+00  6.24844790e-01 -3.60057056e-01  3.90905768e-01]
 [ 5.58550596e-01  5.07722378e-01  4.81733471e-01  9.93633717e-02 -3.10727626e-01  7.00578168e-02  3.56545836e-01 -7.94881284e-01 -1.09835520e-01 -3.23446244e-01]
 [ 3.86693984e-01 -2.40159810e-01  1.15384912e+00  7.45062649e-01 -9.63099837e-01  5.82203627e-01  8.46655846e-01 -1.21751511e+00  8.79896224e-01 -8.61892760e-01]
 [ 1.11851847e+00 -1.06957960e+00 -5.91633618e-01  5.22389598e-02 -7.16131628e-01  4.24439549e-01  4.94819760e-01  1.41404718e-01  1.40192658e-01 -5.46244308e-02]
 [-4.75997567e-01 -1.45619661e-01 -9.91523564e-01 -1.50638804e-01  2.24478200e-01  2.38909855e-01 -7.85428882e-01  5.60200393e-01  1.12226948e-01  5.30317783e-01]
 [ 7.32150435e-01 -2.11257443e-01  2.64614254e-01 -2.88769603e-01  7.27069527e-02 -3.69198114e-01  7.76125491e-01  4.57427382e-01 -7.81802535e-01  7.35118613e-02]
 [-3.94443810e-01  8.02754879e-01  1.16313231e+00  9.82816294e-02 -6.76739439e-02 -1.60841510e-01  4.23370510e-01 -5.01978338e-01 -4.38621938e-01 -6.88677371e-01]
 [ 2.95712560e-01  3.92604619e-01  1.08801615e+00 -6.19548112e-02 -5.21037161e-01  6.01597905e-01 -7.56798387e-01 -9.35784519e-01 -3.68533544e-02  1.47726506e-01]
 [-2.64772236e-01 -4.47623044e-01 -5.52191019e-01  7.01256454e-01 -3.11990250e-02 -1.88777208e-01  4.09372091e-01 -1.21746495e-01  9.82222930e-02 -1.35393694e-01]
 [ 9.29496050e-01 -5.13836861e-01  7.87071958e-02 -1.38323262e-01 -4.35327291e-02 -8.50248754e-01  3.50136995e-01  5.23807704e-01 -6.56144738e-01 -1.99878011e-02]
 [-5.94644666e-01  1.17786622e+00  1.08397961e+00 -4.58694875e-01  2.57355005e-01 -4.15241629e-01 -8.81158933e-02 -5.43338537e-01 -4.56674308e-01  4.58376631e-02]]

