=== Layer 5 Weights ===
[[-2.46087864e-01 -3.09985548e-01  4.22792360e-02  2.10505173e-01 -6.99645281e-02 -6.15867615e-01 -4.26623642e-01  3.69324028e-01  1.56866372e-01  6.49555981e-01]
 [ 6.11073732e-01  9.54286277e-01 -2.53235489e-01 -5.96925795e-01 -5.98219931e-01 -2.41222754e-01  6.80698603e-02 -9.84343231e-01  3.53276799e-03  1.13363802e+00]
 [ 2.14482963e-01  2.84307718e-01 -1.04667686e-01  1.04415111e-01  1.75775573e-01 -6.35156751e-01  3.26109342e-02  9.22593117e-01 -2.63062954e-01 -5.44766545e-01]
 [ 3.01838428e-01 -6.85273767e-01 -6.00219846e-01 -1.01491344e+00  4.59028363e-01 -3.03398907e-01  1.85256064e-01  1.56783774e-01  8.21652293e-01  4.31725144e-01]
 [-7.79078826e-02 -1.30762589e+00 -7.20715299e-02  1.94097161e-01  9.33233202e-02 -1.94804221e-01 -6.81968510e-01  8.53561997e-01 -9.58309323e-02  5.13024211e-01]
 [ 4.57893074e-01  6.86318874e-02 -6.12236083e-01 -1.30991542e+00  3.57639849e-01 -1.85002580e-01  1.52955306e+00 -1.07662678e+00 -1.18923117e-03  1.40137538e-01]
 [-4.25198227e-01  9.42516848e-02 -2.40534116e-02  6.38904691e-01  5.11687756e-01  1.29671499e-01 -6.29655659e-01  6.67257786e-01  6.82850778e-02 -5.57536185e-01]
 [ 6.81244135e-01  5.24042010e-01 -1.31219471e+00 -7.50559449e-01  2.82271653e-01  5.00638366e-01 -4.28207815e-01 -3.19045961e-01  6.81367040e-01  3.30319047e-01]
 [-5.48590012e-02 -8.99581075e-01  2.56259799e-01  2.61025459e-01 -8.56500268e-01 -3.06189865e-01 -9.33559537e-01  6.31484210e-01 -2.32857212e-01  9.35348749e-01]
 [-1.99864790e-01  1.51813877e+00 -6.44022465e-01 -8.93926263e-01  9.51633990e-01 -5.41281343e-01  8.45624328e-01 -1.68410823e-01 -9.44903851e-01 -1.74811912e+00]
 [-2.48170897e-01 -4.31841999e-01  4.63506728e-01  1.54232845e-01  3.52221519e-01 -4.13904816e-01 -1.41988933e+00 -1.94391593e-01  3.47373158e-01  5.14893353e-01]
 [ 8.57111573e-01  1.01315625e-01 -5.89499831e-01 -6.15115285e-01  5.89649737e-01 -3.12332958e-02 -3.15551639e-01  7.70883486e-02  5.48706278e-02  1.17563032e-01]
 [ 4.33654249e-01 -1.03263688e+00 -2.91753143e-01 -3.32894027e-01 -6.85439348e-01 -1.66101381e-01 -2.63302118e-01  3.73600960e-01  1.43774271e-01  7.48344123e-01]
 [-1.49672240e-01  1.17974496e+00  3.30951393e-01 -2.47424409e-01  7.35374272e-01 -9.14871514e-01 -2.30274796e-01 -4.64667708e-01 -2.52860755e-01 -3.56437176e-01]
 [ 4.59512919e-01 -2.23044738e-01  4.15554762e-01  5.81047721e-02 -5.25655627e-01 -1.68479875e-01 -4.44257349e-01  1.60294138e-02  7.02297747e-01  5.21705687e-01]
 [ 7.35920548e-01 -3.52268606e-01  9.16009471e-02  2.18421936e-01  2.28858575e-01 -8.56943846e-01 -8.57122123e-01  4.62007344e-01 -2.07061693e-01  3.47053945e-01]
 [-2.00862691e-01 -7.32600510e-01 -7.68837333e-01 -6.09752059e-01 -5.72921753e-01  1.35652268e+00  6.35348558e-01 -4.49371785e-01  6.44900501e-01 -1.33678600e-01]
 [ 4.88766879e-02  7.32599556e-01  6.13890290e-01  5.65892383e-02 -5.61411381e-01 -1.33024049e+00 -1.20317683e-01 -1.18162557e-01 -3.17494631e-01  8.65444243e-01]
 [ 1.34717211e-01 -1.15940356e+00 -1.11482501e+00 -7.66324043e-01  1.00689220e+00  1.22458339e+00  5.51326096e-01 -8.15096796e-02  9.97227490e-01 -3.61548603e-01]
 [ 1.19446743e+00  7.22114593e-02  6.07353628e-01  1.57160938e-01  6.54178083e-01 -1.16477609e+00 -1.98403955e+00  2.12777406e-02  9.78911296e-02 -2.55733281e-01]
 [ 1.23369426e-01  1.57275379e-01  1.06627631e+00  8.02444875e-01 -1.94343030e-01 -7.24169195e-01 -5.37544906e-01  3.16388518e-01 -3.84248108e-01 -1.21869719e+00]
 [ 2.24484969e-03  1.05642092e+00 -3.98437753e-02 -7.34770671e-02  9.72390473e-02 -4.16442305e-01 -1.93730757e-01 -3.97202522e-01 -8.25573683e-01 -5.07550001e-01]
 [-3.44585538e-01  1.07727778e+00  6.59425557e-01  6.63211942e-01 -7.56610811e-01 -3.43477428e-01 -2.75112450e-01  4.96029317e-01 -3.84364307e-01 -5.06361485e-01]
 [ 7.69323945e-01 -5.96715868e-01 -7.38288686e-02 -7.17181325e-01 -7.99225494e-02 -9.07148197e-02  5.28922584e-03 -4.90861624e-01  1.66261733e-01  9.28255141e-01]
 [-1.05676442e-01  1.05626680e-01  9.20371354e-01  1.19503129e+00 -1.62080348e+00 -7.18889594e-01 -9.74510014e-01  1.24811314e-01 -4.36563998e-01 -7.71568060e-01]
 [ 2.77380109e-01  1.00355589e+00 -4.37664181e-01 -1.09062445e+00  8.97389054e-02  1.38156444e-01  1.11891139e+00 -1.21437299e+00  1.99649066e-01 -6.05082273e-01]
 [-7.84230754e-02  3.58285040e-01  2.68840820e-01 -6.94975406e-02  9.02269185e-01 -3.29381019e-01 -7.87832677e-01  2.76876967e-02 -3.90683353e-01 -4.88848537e-01]
 [-1.49442209e-02 -2.96305511e-02 -9.94013920e-02 -2.79926866e-01  1.18719089e+00 -4.13491368e-01  7.49581456e-01 -4.95035261e-01 -4.86006767e-01 -5.04987240e-01]
 [-2.85853356e-01 -1.93847314e-01  7.60568142e-01 -5.57239987e-02 -1.73295569e+00 -1.75612718e-01 -5.90849400e-01  1.03050220e+00  1.01886503e-01  1.04208447e-01]
 [-1.33972391e-01 -7.66293585e-01 -8.63875970e-02 -1.31181383e+00  9.08278108e-01 -9.51310620e-02  8.90492439e-01 -8.24697852e-01  6.84012249e-02 -2.36717924e-01]
 [-6.70773208e-01  1.96548998e-01 -5.19709766e-01  1.18427509e-02 -2.91662306e-01  3.86164397e-01 -6.97905898e-01  8.43342960e-01  9.04255547e-03 -1.11357056e-01]
 [-4.37707156e-01  2.27047220e-01 -6.07527256e-01 -9.11859155e-01  8.23105156e-01 -1.30562067e-01  1.44096768e+00 -2.66305238e-01 -5.77708662e-01 -1.06118333e+00]
 [ 6.22826695e-01 -8.38425457e-01 -6.51114583e-02 -2.65397936e-01 -1.80371475e+00  1.64273405e+00  9.99405086e-01 -4.28904831e-01  1.51499122e-01 -1.70880053e-02]
 [-1.28626779e-01  9.82110500e-01 -6.30125165e-01 -5.33980250e-01  6.06105924e-01  7.88508654e-02  1.41425893e-01 -5.62651992e-01 -2.14556336e-01 -5.72897159e-02]
 [ 5.14369570e-02  6.15553558e-01  9.70661789e-02  8.64555091e-02 -5.99885523e-01  3.58539820e-01 -2.26509392e-01  6.99815571e-01 -2.50626892e-01 -1.96337372e-01]
 [-1.26921856e+00 -6.20265119e-02 -5.22185862e-01 -6.59469604e-01  1.01065195e+00  3.64325568e-02  1.15554619e+00 -2.58790612e-01 -3.26048493e-01 -7.20019937e-01]
 [-3.60577166e-01 -1.52443126e-01 -1.20575583e+00 -1.04528081e+00 -9.32469010e-01  1.89781618e+00  1.91519403e+00 -6.26973629e-01  2.36486290e-02  1.20864660e-01]
 [-4.14343834e-01 -1.72787055e-01 -2.37089306e-01  4.99898046e-01  2.24158019e-01 -1.02174461e+00 -4.97933775e-01  2.46235669e-01 -5.95877826e-01  7.92411566e-01]
 [-1.14713274e-02 -1.23399878e+00  3.71637076e-01  5.10838866e-01 -6.51452661e-01 -5.36856413e-01 -7.01284170e-01  7.47690916e-01  3.59707832e-01  5.16629755e-01]
 [ 2.81781673e-01 -2.10041270e-01  3.90497655e-01 -5.77024639e-01 -6.69986784e-01 -1.86021686e-01  1.37539983e+00  2.05354095e-01 -2.94189572e-01  2.73600996e-01]
 [-1.73646760e+00 -1.04092443e+00  9.33606207e-01  4.96836513e-01 -5.69306672e-01  1.64880529e-01 -2.11193156e+00  3.41842532e-01  1.08035028e+00 -4.92576838e-01]
 [-4.43617702e-01  5.71600735e-01 -2.71369636e-01 -1.86080754e-01 -2.93754041e-01 -6.91814780e-01 -3.84128720e-01 -4.43525374e-01  9.13497955e-02  2.42975563e-01]
 [-6.01444304e-01  1.12751484e+00  2.47921795e-01  4.61747229e-01  5.86080372e-01  2.09885031e-01 -4.54801500e-01  9.34100244e-03 -2.68164277e-01 -8.21448505e-01]
 [-1.96736723e-01 -4.65390354e-01  8.97124052e-01  5.56584060e-01 -1.48011670e-02 -1.18921079e-01 -2.35274106e-01  3.99426281e-01 -6.69616044e-01 -5.26402950e-01]
 [-7.07690656e-01 -7.74730325e-01  9.42210197e-01 -1.03705533e-01 -3.18878740e-01 -6.22658394e-02 -1.85704958e+00  1.03214896e+00 -8.32013190e-02 -1.17176376e-01]
 [ 5.99542439e-01 -4.88389373e-01 -8.35639536e-01 -1.40046549e+00  8.18849027e-01 -6.89953744e-01  6.13403380e-01 -8.02191436e-01 -4.08558428e-01  8.00606489e-01]
 [-7.26230562e-01 -6.27826631e-01 -6.29506856e-02 -2.89322287e-01  4.60436165e-01  7.90970623e-02 -1.11411202e+00  3.87353599e-01  5.03344908e-02  3.12258124e-01]
 [-1.23465799e-01  7.72550926e-02  5.97289741e-01 -2.73917586e-01  1.56191111e-01 -9.44169462e-01  2.93414682e-01  3.33716609e-02 -7.25698054e-01 -6.45693302e-01]
 [-4.61846069e-02 -1.30119812e+00  1.52475074e-01  6.61720708e-03  4.46118444e-01  6.19933307e-01 -9.14968699e-02 -5.79072237e-01 -4.24501836e-01  6.14746928e-01]
 [ 1.35395789e+00 -8.32222164e-01 -5.99741518e-01 -9.45800006e-01  2.72551835e-01  7.24978149e-02  7.80588865e-01 -2.76394904e-01 -4.70073074e-01 -9.56704497e-01]
 [-9.17562306e-01 -1.34231484e+00 -2.60683119e-01  4.48403835e-01  8.03747773e-01  2.89078087e-01  1.96413755e-01 -2.45163584e+00  1.98840484e-01  6.82562470e-01]
 [-1.29040539e+00  1.52785107e-01  1.34824264e+00 -5.95715404e-01  6.94313288e-01 -1.44372177e+00  5.70587397e-01  8.83221269e-01 -2.61469811e-01 -6.79377377e-01]
 [ 1.84167862e-01 -1.24489844e+00 -1.03282440e+00  7.05450714e-01 -1.50164783e+00  1.07494795e+00  1.17711484e+00 -6.68024898e-01  3.46877724e-01 -6.11498892e-01]
 [-4.92844999e-01  1.07499754e+00 -8.10731471e-01  5.11898518e-01 -2.18435094e-01 -2.23638877e-01 -2.40618959e-01  2.27177754e-01 -1.30352244e-01  3.06868881e-01]
 [-2.01544118e+00  1.26775160e-01 -6.69764519e-01 -2.39094570e-01  6.85809255e-01  2.41039600e-02  9.92034018e-01 -2.63585180e-01  3.21794152e-01  7.20256567e-02]
 [ 3.32663208e-02 -1.74693644e-01  9.55749393e-01 -8.01711261e-01  9.67393443e-02 -2.72893161e-01 -5.65619953e-03 -5.27616382e-01 -2.19638959e-01 -6.05069816e-01]
 [-1.58921456e+00 -4.91357744e-01 -2.78678358e-01  1.43629685e-01  5.35649061e-01  7.33582377e-01 -1.56018481e-01 -1.14269659e-01  5.96681535e-01 -9.16139424e-01]
 [-2.17972946e+00  1.53497402e-02 -7.65768945e-01  2.64820069e-01  9.34503734e-01  7.36867130e-01 -6.30822361e-01  5.53000748e-01 -2.24461362e-01  2.55507380e-01]
 [-4.82476465e-02 -1.25594699e+00 -6.68260753e-02  8.64470378e-02  3.17722470e-01  5.00905633e-01  3.06090891e-01 -6.69711232e-01  1.14723191e-01  2.73956269e-01]
 [-7.45833278e-01  8.80714655e-01 -4.89926994e-01 -1.09678827e-01 -6.82779372e-01  1.67637646e+00  1.16978633e+00 -1.49108395e-01 -8.81274462e-01 -5.42568982e-01]
 [-1.25605094e+00 -3.75816077e-01 -9.63604152e-01  7.43497014e-01  5.55745900e-01  9.68040168e-01 -6.39394701e-01  9.42166448e-01 -5.84613323e-01  2.95810401e-01]
 [-2.19430011e-02  7.31330693e-01 -7.42504671e-02 -8.26723203e-02 -6.15223885e-01 -8.27921093e-01 -5.49455822e-01  5.08270383e-01 -7.46139228e-01 -2.56091595e-01]
 [-4.47309524e-01  1.36561537e+00 -5.45720398e-01  5.96943438e-01 -5.80230504e-02  3.99913609e-01 -3.77656132e-01 -6.20613337e-01 -6.08938694e-01 -3.89353156e-01]
 [-7.38676906e-01  7.15761483e-02  9.56981421e-01  8.12054753e-01 -2.71427423e-01  4.53543991e-01 -8.09219480e-01 -3.47612232e-01 -6.66102991e-02 -6.17671847e-01]
 [-1.10055542e+00  5.88121749e-02 -7.38944829e-01  9.47021067e-01  5.15798390e-01  7.18648970e-01 -1.73382175e+00  1.03607647e-01 -1.02617359e+00  1.10105097e+00]
 [ 7.78106570e-01 -1.41158068e+00 -9.50961336e-02 -5.93639135e-01 -2.15925038e-01 -3.08609277e-01  2.19396695e-01  4.25001204e-01 -1.76771626e-01  8.15940201e-02]
 [-9.37546492e-01  7.22251087e-02 -1.57976061e-01 -1.74963251e-01  6.26654685e-01  1.21879272e-01 -8.83048058e-01  5.06697118e-01 -8.73652756e-01  1.29981780e+00]
 [ 3.02808195e-01  7.25041986e-01  2.13200510e-01  1.37527466e-01 -5.27468801e-01 -6.62299395e-01 -1.02751777e-02 -1.00941751e-02 -1.40350550e-01 -3.61422628e-01]
 [ 3.12945336e-01 -2.17986369e+00 -3.77921522e-01  7.31623650e-01  3.64697456e-01 -8.02801736e-03 -7.36820757e-01 -2.88285106e-01 -7.25156248e-01  1.04292190e+00]
 [ 8.04113626e-01 -3.70349914e-01 -3.95740032e-01 -4.82816458e-01 -1.14103056e-01 -9.97413620e-02 -4.09894884e-02  2.69128799e-01  1.80261746e-01 -8.82450104e-01]
 [ 1.80197105e-01 -1.23372686e+00  1.13836955e-02 -1.14283375e-01  3.18774521e-01 -1.59675568e-01  7.67984465e-02  4.46172766e-02 -7.49774992e-01  6.24231473e-02]
 [ 1.33290744e+00 -2.81248778e-01 -2.97186553e-01 -8.39127183e-01 -6.51183724e-01 -1.69848606e-01 -2.89940357e-01  1.15477145e+00 -1.77902448e+00 -6.85549796e-01]
 [ 3.81109774e-01 -2.78314382e-01 -2.07791850e-01  3.16446394e-01  1.28169090e-01 -7.91449696e-02  6.99903071e-01 -2.88399518e-01  5.43634176e-01 -1.06693089e+00]
 [-1.00948644e+00  9.96911347e-01  2.13623732e-01 -8.59676182e-01  1.46992385e-01 -2.46843606e-01  3.58187497e-01  1.89519256e-01  3.17821831e-01 -1.28097683e-01]
 [-4.50102597e-01 -1.57101139e-01  1.41032770e-01  2.65655518e-01  1.51764825e-01  3.81057709e-01  4.00231481e-01 -6.63067460e-01  4.35320467e-01 -1.08724713e+00]
 [ 6.49758577e-01 -9.29699559e-03  5.48096836e-01 -1.86152011e-01 -8.15772116e-01  4.53996137e-02 -4.59796607e-01  2.67293811e-01 -8.52298498e-01 -4.79856968e-01]
 [-9.01607752e-01  7.44251311e-01  1.42455959e+00 -1.92902565e+00  1.31946564e+00 -1.29466248e+00 -6.30872071e-01  1.77922881e+00 -8.20764840e-01 -1.23765433e+00]
 [-1.11492240e+00 -1.19432643e-01 -6.35834694e-01  1.47971123e-01  1.38531283e-01 -2.93968856e-01  3.59608591e-01  2.42639706e-01  1.78164244e-01  6.92301273e-01]
 [ 7.07536936e-02 -1.62919128e+00 -9.55119133e-02  5.89187264e-01 -6.68741941e-01  1.10375583e+00  7.77180612e-01 -3.54777843e-01  3.88205379e-01 -8.86980355e-01]
 [-1.48289812e+00  1.57863724e+00  4.26693201e-01  1.55273989e-01 -1.29740226e+00  1.07128215e+00  2.67030716e-01 -1.55956924e+00  4.45637494e-01 -5.30699730e-01]
 [-2.67005146e-01 -1.08963215e+00 -5.18151969e-02  5.67388050e-02 -5.42446375e-01  1.70823961e-01  4.58922654e-01  4.41214859e-01 -3.37227225e-01 -6.73680305e-02]
 [-1.51636672e+00  7.16291785e-01 -9.26302522e-02 -4.06154692e-01  4.71575618e-01 -1.30340576e+00 -1.01369329e-01  1.66110420e+00 -6.26611173e-01 -4.32735890e-01]
 [-2.63792723e-01  6.82767808e-01 -1.91327348e-01  6.51534140e-01 -5.89571595e-01 -2.41896123e-01 -1.65287030e+00 -1.05783783e-01 -5.05011380e-01  2.24349961e-01]
 [-7.07551718e-01  9.78741348e-01 -3.82793754e-01  2.99440950e-01 -4.05180722e-01  3.40543449e-01 -1.27372015e+00 -9.44514349e-02  8.88039917e-03  2.53737718e-02]
 [-1.27956778e-01 -1.29907414e-01  4.37991172e-01  4.82486337e-01 -3.90765846e-01  4.43134815e-01  4.59074944e-01 -9.39669371e-01 -3.80269140e-01 -2.81630188e-01]
 [-2.17556566e-01  1.98588997e-01  8.72873306e-01 -5.86332023e-01 -2.78211385e-01 -7.06453621e-01 -1.70759833e+00  6.52416885e-01  8.20095778e-01 -4.57456440e-01]
 [-6.59852177e-02 -9.31756318e-01  1.88922584e-01  1.10392416e+00 -9.13586676e-01  7.49275267e-01 -5.53329468e-01 -9.54105318e-01 -1.92985132e-01 -6.35093451e-01]
 [-1.11266840e+00  2.83974320e-01 -4.70719248e-01 -5.80984121e-03  6.01106346e-01 -1.07072197e-01 -2.46922922e+00  8.51906776e-01 -9.78420913e-01  5.57713687e-01]
 [ 1.05681896e+00 -2.21696824e-01  6.99425220e-01  1.70256197e-01 -8.76585364e-01  6.88254163e-02  1.07982183e+00 -1.52838898e+00  1.08380392e-01 -4.64998215e-01]
 [ 4.20194417e-01 -4.94416803e-01  2.74516135e-01 -9.67209637e-01 -3.99677426e-01 -5.42067230e-01 -1.70703366e-01 -3.24546725e-01  8.01606536e-01 -1.56605616e-02]
 [ 1.52768099e+00 -5.51223338e-01 -3.72441500e-01  6.02977097e-01 -1.44398487e+00  8.76734614e-01  9.79084790e-01 -1.42334938e+00  1.07081485e+00 -1.47626877e+00]
 [ 4.48900044e-01 -5.50528765e-01 -1.12671173e+00  4.05609697e-01 -1.57812268e-01  6.17893517e-01 -2.43726343e-01 -1.48180306e-01 -9.25653696e-01  4.10896122e-01]
 [ 5.90457499e-01  6.24146163e-01  1.03442776e+00 -2.39087552e-01 -5.64027548e-01 -5.27325332e-01  8.99704695e-01 -6.76637113e-01 -2.48195827e-01 -9.80946779e-01]
 [ 3.72668475e-01  2.95454443e-01 -3.10683046e-02 -2.02469692e-01 -7.29336321e-01  1.94142312e-01 -1.15978055e-01  3.31893638e-02  2.46251628e-01 -4.22533214e-01]
 [-2.15250067e-02 -5.75829716e-03 -7.31179953e-01 -1.50297821e-01 -1.73514038e-01  2.90615022e-01  1.02436475e-01 -4.42129880e-01  1.65236008e+00 -7.70538509e-01]
 [-4.83294398e-01  9.03764188e-01  6.13356709e-01  3.13497722e-01 -1.34486747e+00  6.65308237e-01 -1.62951338e+00 -2.75057048e-01 -3.70998681e-01 -5.92273831e-01]
 [-6.72194269e-03  1.58105266e+00  2.13641477e+00 -1.12326252e+00  5.96383452e-01 -1.73260260e+00 -4.00744945e-01 -3.53517801e-01 -7.61643827e-01  1.60931237e-02]
 [ 6.27834141e-01 -4.36855972e-01 -2.81980902e-01  3.13228101e-01 -9.34253782e-02 -5.96443772e-01  1.15601254e+00  7.20530748e-02  2.26036742e-01 -4.77684706e-01]
 [-1.03232360e+00  5.79740666e-02  4.99718994e-01  1.60965413e-01 -5.90054505e-02  5.97765088e-01 -6.00748539e-01 -1.32421827e+00  1.01191437e+00 -2.22321048e-01]
 [-5.20868480e-01  3.21652859e-01  7.04849541e-01 -2.50393361e-01  6.37041390e-01 -2.52574801e-01 -2.25579143e+00 -4.09622826e-02  1.08165249e-01  4.61240411e-01]]

