=== Layer 2 Weights ===
[[[[-2.9308417e-01 -2.3234987e-01 -9.9317264e-03 -8.7676775e-03]
   [-1.3254476e-01 -4.1089171e-01  1.9444803e-02 -1.0489285e-01]]

  [[-1.4146843e+00 -3.6318988e-01 -2.4112435e-01  1.0689384e-01]
   [ 3.5622776e-01  5.9381390e-01  1.4058465e-01 -4.3315437e-01]]

  [[-2.2272551e-01  5.2142140e-02  4.3989682e-01 -3.1993651e-01]
   [-2.0196812e-02  2.2739980e-01  2.4154659e-02 -3.8417032e-01]]]


 [[[ 3.1060040e-01 -4.8493132e-01 -3.6529955e-01  3.3834958e-03]
   [-6.6856045e-01  1.8198521e-01  3.8949442e-01 -5.5427593e-01]]

  [[ 2.9588011e-01  2.2967084e-01 -6.3910317e-01 -5.7263678e-01]
   [-1.1190720e-01  1.5464308e-02  1.9539416e-01 -2.3787411e-02]]

  [[-2.7511477e-01  2.4057683e-01 -6.4854223e-01 -1.4865735e-01]
   [-4.6644861e-01 -6.7624581e-01 -3.4416604e-01  1.0272225e-01]]]


 [[[ 1.7269105e-02 -4.9905673e-02 -1.1928715e-03  4.9794331e-01]
   [ 1.9136763e-01 -2.2344308e-01 -7.1024768e-02  2.3749448e-02]]

  [[-1.5712158e-01  2.7749422e-01 -5.8610318e-03  4.3319535e-02]
   [ 1.4759348e-01 -2.7429290e-02  3.5297981e-01  1.4742316e-01]]

  [[ 1.2202859e-01 -2.7865800e-01 -2.6409793e-01  1.5030414e-01]
   [ 1.6604554e-03  6.4576343e-02  1.7976959e-01  2.0379348e-01]]]]

