=== Layer 2 Weights ===
[[[[ 5.64107522e-02 -7.95685872e-03 -2.55270749e-01 -3.14163566e-01]
   [ 1.03546217e-01 -2.51910035e-02 -1.83950052e-01  9.81051102e-02]]

  [[ 2.23754011e-02 -4.17123102e-02 -3.00266087e-01 -1.69252381e-01]
   [ 2.86656041e-02  1.36717469e-01  8.27046260e-02 -1.22781225e-01]]

  [[ 5.82899749e-02  1.72065496e-01  1.22181326e-01 -9.82525200e-02]
   [-9.40478221e-03  1.36649832e-01  1.47545546e-01  1.79775164e-01]]]


 [[[-5.04579782e-01 -1.95631534e-01 -1.37712911e-01  1.30965831e-02]
   [-2.23446056e-01 -3.92239511e-01 -3.81175816e-01  4.60545123e-01]]

  [[-1.36082947e-01  1.72072679e-01 -8.76095593e-02 -2.74529934e-01]
   [-5.54255068e-01 -4.08857942e-01 -3.11730802e-01 -5.01069836e-02]]

  [[-4.48193610e-01  3.46036404e-01  2.07978010e-05 -2.78628767e-01]
   [-1.54904619e-01 -2.82275788e-02 -3.55395108e-01  2.92030632e-01]]]


 [[[-7.02021364e-03  4.68773805e-02 -6.40569441e-03  1.49052426e-01]
   [ 3.23237702e-02 -1.17599882e-01 -2.39838287e-02  1.61564052e-01]]

  [[-1.22621961e-01  7.80459940e-02  3.45414490e-01 -1.15096621e-01]
   [ 1.25734523e-01 -2.78765559e-01 -2.99075171e-02  2.39188716e-01]]

  [[ 1.70223668e-01  1.55345947e-01  2.45622799e-01 -4.82863158e-01]
   [ 2.62325227e-01 -3.51410747e-01 -2.41820794e-02 -3.18218321e-02]]]]

