=== Layer 2 Weights ===
[[[[-0.01272457 -0.5751222  -0.19025417 -0.07396574]
   [ 0.08877698 -0.02928416 -0.20033318 -0.19330625]]

  [[ 0.05864742 -0.04990351  0.34234115 -0.17967723]
   [ 0.0585261  -0.03510869  0.25349084 -0.26762933]]

  [[-0.03029062  0.03425978  0.21917854 -0.06368618]
   [ 0.05140872  0.04250345 -0.61707574  0.66954875]]]


 [[[-0.00551244 -0.49227697 -0.33800572  0.03586508]
   [ 0.09250007 -0.05416578 -0.29985753 -0.11484107]]

  [[-0.08846314  0.01064756  0.20693637 -0.21574137]
   [ 0.09513889 -0.03468402 -0.14438564 -0.01602412]]

  [[-0.17650278  0.2514198   0.23330124  0.01868943]
   [-0.09322307  0.25450963 -0.19610709  0.5229532 ]]]


 [[[ 0.00201503  0.21781537  0.33779672  0.16885324]
   [ 0.08103461  0.1692936  -0.36719415  0.07051399]]

  [[-0.15962787 -0.42312327 -0.41846386 -0.07447891]
   [-0.15245877  0.07619064 -0.40557274  0.35775632]]

  [[ 0.14001417 -0.2636336   0.08358559 -0.00278676]
   [-0.07628591  0.03230925  0.28331074  0.24714814]]]]

