=== Layer 5 Weights ===
[[ -42933   -5601  -14374   21314   -7167   -5200  -29267   39655   11786  -35879]
 [   8895  -53415  -37461  -53674   36203  -32560   51108   -4308   10411   52844]
 [   7385    4974  -18006   -1265    4632  -58756  -26060   14392     692   15747]
 [   5889  -41129  -34683   -5295   -3980  -15120   18656   27993   12508    5659]
 [ -60232  -18879    -337   20565   15278  -60524  -36981    8260   31113    8135]
 [  58209   22724  -82081  -89961   50925   35214   63154  -34346   18336   17953]
 [  12575  -59724   10506   21801   -6164   -9640  -72419   53331    8775   23486]
 [ -46186  -77069   30858   13557   -6857  -17378  -60260   16230   35768   18978]
 [  37660   -4790  -17638    5062    3592  -16665  -60228  -10362   -7050   37650]
 [  -9307   61578  -14855   -4229   29298  -43499   14856   10531   -7485  -19407]
 [ -15473  -85017   -3004   12196  -68309   14455  -63894   66177  -13869   48185]
 [  23758   -6836   19602   -5551  -96289   31135  -75145    9415   29705   73012]
 [  29310    8367    4992   11311    7039  -20558  -57575   -8829  -13586   27374]
 [  10534   52833   -4662   14312   16147  -66501  -55416   18758   -5193   20309]
 [ -16832  -60854  -41558  -30511  -51130   23760  -10467   92699  -41443   24241]
 [  19611  -66460   11493  -34461  -34960   55055    3387    4661   20090   39553]
 [  36297  -26146   14653   13711   48312  -71967  -80015   30349   14373   16303]
 [  39880  -22869  -46335  -25375    7769    7636  -11302    1197   15965   15992]
 [ -16357   14043  -69370  -61434   22273   47277   53593   51662    3174  -43103]
 [  63116  -42809  -15902  -29956  -45227   29074    4610  -22565   16969   15112]
 [  -9647   -9557  -10480  -31554    1871   26623  -15312  -32637   47751   39886]
 [  59126     789  -34986 -111893   35988  -17938   73515  -46071  -26336   19934]
 [   3563   -7921   83596   83955  -10616  -86465  -45087   54783  -54909  -73235]
 [ -11475   13247   56032  -13165   -2203  -28398  -11696   38497    5683    7340]
 [  11559    1942   22750  -13356   32643   -5263     228  -31935    9648    4975]
 [  14578   39622  -26137  -59719  106689   -8030   62863  -47097  -26277  -41686]
 [  -3457   21009   27368   83229  -79042  -12065  -69925   41419  -45779  -29021]
 [  12761  -18528   27610  -13704    6306   -1968  -18834    9509   13374    3427]
 [ -35413   17654   -3196  -15131   91549  -31739   40036   -6528    1484  -47086]
 [ -32552   59770  -42979  -26742   92766  -55694   29581  -63823  -24565   -4471]
 [ -25419  -35306  -17848   -9188  -77753   51385   31072  -45180   21790   17925]
 [ -10339   51272    5233     426  -59543   26146   28982   12986      83   17043]
 [ -62034   38911   -1145  -31868  103375  -11765   31819   25447  -13794  -60040]
 [ -73192   -3853    6191   13395   54466  -74531  -29266   15777   -4979   27243]
 [ -56901  -31261  -62736  -30630 -103902  101887  131177  -67124    7573    1986]
 [   8048  -73627  -36860   23172    2066   39360    4061   10337    9386  -18870]
 [   1911  -45916    2921   -9790  -16852   15017   29424   15230  -35728   15056]
 [  25798  -11638   10050    1323  -13084 -112661   30857   17877   28533   36871]
 [-120143    5181 -110359  -17879   18487   95856   89356  -25419  -13263  -30646]
 [  10428  -56797  -53595    1999  -26130   78844   55438  -41967   26281  -24180]
 [  24260  -77090  -14540  -13765   24397   33768   32601  -14411  -36052  -10402]
 [  59301  -34968   26858  -55288   37814  -38798   29269  -49572     671   -2166]
 [-188005   28500  128733  122012 -156126   24415 -233106   58532  -10499 -157439]
 [  -1886  -19814    2031    2878    5700   23241  -34827  -32773   27402   21476]
 [ -41773   27004   17214   39467   29969   -8914  -19566   25921  -39111    4408]
 [  52039  -22990   49562  -64429   21676  -34531   66047   -2373  -13468  -55236]
 [ -25263    4386   62777   14804   -4874  -25224  -97906   74461  -98520   19244]
 [ -11621   -8552   20375   -7824    3664   30045  -22875  -31283   24126    4195]
 [-127336  -12257   42019  -12912   51365  -28313   21519     958   23105   -3814]
 [   1230   47117   21410  -60971   13261  -58104   -8120   44282    1540  -39192]
 [  20310  -45239   17824   22923   -8887   30026    4257    9302  -32742  -11166]
 [ -71439   64460  -14896   10572  -27474   14940   35669   -3977   18243   11664]
 [ -11724  -43592   43545  -69328   97027  -28711    2746  -17069  -40455  -34694]
 [ -10657   10181   36065  -33237    9779   -7009  -26291   22611  -43494   -4453]
 [  -9808  -49059     -19   28532  -74856   44102   59211  -39384   32865  -34898]
 [  24002 -106488  -28826   35513    -344   -8275   11985   -3594   30819  -16151]
 [  -4781  -16325    1851  -20143  -17461   56236   43912   12563  -42072  -28237]
 [  25941    9564  -21922   19071     876  -67117   30705   27633  -28407   31620]
 [-188997   11272    6374   73157   27567    -307  -41232     896   67597  -37793]
 [   -883  -33613   -5809   16052  -24057   11199    9759  -20039   39269  -59359]
 [  31180  -14788   21959   14951  -89107   -4740   36377   13660    1402  -42469]
 [   6130   35184   42451   62388 -118555    8916  -63962  -73695    4100  -14725]
 [-276274   53693  -37945   74585   39721   54161 -195901   62545  -41984  -18364]
 [   6027  -37682  -37117    2145   -1117   25064   -1988   -2494    1613   25672]
 [   1341   85186   -2388   25832  -48728   29291   18141  -27076    8183  -23878]
 [  44030    3822   22965  -59748  -46510  -30520   43451   72316   -5863  -77420]
 [  -9219   -2850  -27862   71092   30841   57204 -119549    6530 -118702   27653]
 [   3756   43731   -9478  -11672    6498    4680   17725  -37589    -549   21835]
 [  36780   -2275  -18484    6555  -25536    2314    2804   79756  -69046  -22929]
 [  77033   21808   20858  -18020  -37561   21916    8688   18170    2120  -29153]
 [  19942  -18523    2457   49685  -35626   15041   -6890  -64873   10777  -40686]
 [  -3188  -24175   -3399    2497    5499   11490    9649  -27540   34189    4960]
 [  72075   30337   -3793     516   -4546   17326   18792   38282  -67966  -57733]
 [ -16929   45544  -12688   13691  -31158   43209  -17994  -30594  -10896    6444]
 [ -50990   12552   15979   28036     993  -16964  -15453   -2984   44136  -37957]
 [  -3942  -38678   57177   -4247    8426  -43779   -1724  -19110   21815  -32359]
 [  61463   33170   21001  -15177  -90931   27792   62499  -60211    8147  -73466]
 [ -48659  -13205  -68054   11910   13239   -6956  -17782   18234   20167   29223]
 [  -7487   24342  122975  -63500   14713 -205600  -70464    7321   13523  -11370]
 [   7281   26004   64992  -56655   52159  -22700  -15327   50724  -20232  -49996]
 [  17993  -19585   26220   17553  -70532   44633   12918  -77990   34574  -29221]
 [ -29387  -67469  -71202   60478   12125    2727 -113392   48335  -57585   50659]
 [-102407   -4650  -63711   23693   70604   33881  -79195   38110 -128848   72979]
 [  29640  -41294   -3470  -12696  -27078   16466   23438  -17552      -8  -21922]
 [ -44616   40815  -22978   29808    1525   13935  -76241   17613     -94   -8162]
 [ -27006  -27015  -21907   -2088  -21662    8327  -80691   61836  -47145   30290]
 [ -47364   14118   19025   44604    -217   36367  -69371  -11492  -59351   24958]
 [  26611   20225  -15413    5324  -44570   35716   30404 -100400   25746   -2171]
 [  31561    5268  -45520   27104   -5697   17375  -65031   29114  -10338     541]
 [-101780   75678  -25576  -11720  -10889   -4890 -133734   40950  -23597   25618]
 [  36605   33274   31571    6512  -20364    4591   23367  -52093   -7198  -21197]
 [  25342  -15739   75619   48828  -63118   38155   55486  -79791   57665  -56485]
 [  73303  -70096  -38773    3424  -46932   27816   32429    9267    9188   -3580]
 [ -31195   -9543  -64980   -9872   14711   15657  -51474   36713    7355   34755]
 [  47982  -13845   17342  -18925    4765  -24196   50864   29978  -51236    4818]
 [ -25850   52609   76227    6441   -4435  -10541   27746  -32898  -28746  -45133]
 [  19380   25730   71304   -4060  -34147   39426  -49598  -61328   -2415    9681]
 [ -17352  -29335  -36188   45958   -2045  -12372   26829   -7979    6437   -8873]
 [  60915  -33675    5158   -9065   -2853  -55722   22947   34328  -43001   -1310]
 [ -38971   77193   71040  -30061   16866  -27213   -5775  -35608  -29929    3004]]

