=== Layer 5 Weights ===
[[ 9.74621177e-02  4.54249352e-01  8.00537229e-01  1.06485337e-01  5.64559884e-02 -1.68367302e+00 -1.29897463e+00  7.90903509e-01 -4.75529194e-01 -7.48533607e-01]
 [-1.06959619e-01  5.56630492e-01  4.77206260e-01  2.57743090e-01  3.53491073e-03 -4.35673088e-01 -7.52539635e-02 -6.03414714e-01  2.56231964e-01  5.98240018e-01]
 [ 2.49151021e-01 -1.30371606e+00 -1.14328898e-01  5.33795916e-02 -2.41540298e-01 -4.40646648e-01  2.73356438e-01  4.88456726e-01  3.35226685e-01  8.38334203e-01]
 [ 3.93582612e-01 -9.13502991e-01 -7.90432394e-01 -1.16788065e+00  6.18090093e-01 -6.35237023e-02 -4.58583415e-01  2.36979455e-01  3.05059999e-01  5.85499287e-01]
 [-5.30263066e-01 -9.28648829e-01  4.53258097e-01  6.49541080e-01  2.14356050e-01 -4.07307416e-01 -2.87109685e+00  5.77076018e-01 -2.82927305e-01 -7.53222764e-01]
 [ 3.17549944e-01 -2.82279402e-01  5.41861713e-01 -2.94675529e-01  1.71354592e-01 -5.37607729e-01 -1.53141454e-01 -8.63065660e-01  2.71913499e-01  3.42009187e-01]
 [ 9.16841090e-01 -2.53647208e-01 -2.46993661e-01 -2.42071152e-01 -1.80890405e+00 -1.12400204e-01 -2.71211922e-01 -1.94402635e-01  4.09462512e-01  1.83328021e+00]
 [ 5.82439780e-01  8.28086555e-01 -5.31269014e-01 -7.14230955e-01 -2.67831057e-01 -3.09409201e-01 -2.50359535e-01 -2.89751381e-01 -2.40727663e-01  6.48900807e-01]
 [-1.51072815e-01 -1.77831769e+00  1.19172595e-01  2.84405828e-01 -6.90353155e-01  3.93700689e-01 -1.66326404e+00  7.71914124e-01 -2.62351066e-01 -5.34340799e-01]
 [ 7.62808919e-02  2.08860219e-01  1.63770780e-01 -5.12000740e-01  7.47597575e-01 -3.23299229e-01  8.11150134e-01 -1.38859463e+00  2.07666457e-01 -9.45679247e-01]
 [ 3.66084516e-01 -1.73531622e-01 -4.54798549e-01 -6.04322016e-01 -1.83634531e+00  8.84026706e-01 -3.78888510e-02  2.67257214e-01  5.89994490e-01  6.90205455e-01]
 [-1.33662969e-01  4.83033806e-01 -7.89196610e-01 -9.85204160e-01  6.22760713e-01  1.12486426e-02  1.18047786e+00 -2.45848581e-01 -4.16809857e-01  8.97824299e-03]
 [ 4.32507902e-01 -8.93102705e-01  4.02127475e-01  3.36360037e-02 -8.78937840e-01  1.48928180e-01  8.70114565e-02  4.91336137e-01 -5.15037179e-01  3.72128785e-01]
 [-3.14116061e-01  5.71609974e-01 -4.65005100e-01 -4.72005010e-01  1.29660904e+00  2.79649887e-02  6.57501519e-01 -7.49473125e-02 -1.82303905e-01 -8.31907809e-01]
 [-5.31671792e-02 -4.96366560e-01 -6.57956481e-01 -8.35293293e-01 -4.80710447e-01  1.17436147e+00  5.37167966e-01  1.91806406e-01  8.06277096e-02  4.47280295e-02]
 [-7.32407391e-01  1.81624508e+00 -5.76526046e-01 -9.17489290e-01  1.00676978e+00 -2.43097469e-01  6.23313129e-01  1.24072231e-01 -6.04778230e-01 -4.63028312e-01]
 [ 3.94796915e-02 -1.54590929e+00 -4.33487773e-01 -5.26407540e-01 -5.48125565e-01  7.13401735e-02  3.35246533e-01  1.04657698e+00  8.11517388e-02  5.15701771e-01]
 [-1.85880437e-01  1.24126099e-01 -5.83211601e-01 -6.08878791e-01  1.82026422e+00 -1.16498865e-01 -9.86591578e-02 -2.26270482e-01 -3.41277346e-02 -1.21217966e+00]
 [-4.00559127e-01 -6.20965183e-01 -1.55437124e+00 -1.01778555e+00  3.40714157e-02  1.34859240e+00  1.16984701e+00 -1.31598085e-01 -6.28581345e-02 -5.06719232e-01]
 [-2.46033873e-02 -8.99754614e-02 -1.79139510e-01 -5.28905630e-01  9.28348303e-01 -3.41928378e-02 -6.13349497e-01  4.51053858e-01  2.35234022e-01  1.58899743e-03]
 [-2.10838223e+00  3.34178537e-01  1.22012997e+00  1.32009625e+00 -2.15302134e+00 -6.77545309e-01 -3.10532522e+00  1.14235675e+00 -5.90199530e-01 -2.31647849e+00]
 [-2.22845390e-01 -1.32427469e-01  1.46574914e-01  6.83069944e-01 -4.33722101e-02 -5.56006968e-01 -9.09664690e-01 -3.81158412e-01  5.67452312e-01 -1.21807776e-01]
 [ 8.50788295e-01 -5.49775600e-01  1.21116368e-02 -2.75710315e-01  7.06776559e-01 -3.74818325e-01  4.67328519e-01  3.20294917e-01 -3.47751677e-01 -4.76511836e-01]
 [ 2.85491705e-01  3.82382959e-01  2.00927138e-01  3.96525800e-01 -5.37984408e-02 -4.61380869e-01  9.51159894e-02 -3.29971284e-01 -6.92552626e-01 -3.15370023e-01]
 [-1.07459545e+00 -9.46712434e-01  1.16898227e+00  9.05355811e-01 -2.08383822e+00 -4.63786602e-01 -3.95147681e+00  1.02435577e+00 -8.61388445e-01 -6.01061344e-01]
 [-4.61223662e-01 -9.70947862e-01 -1.59820259e-01  1.73193797e-01  5.77190928e-02  5.37045486e-02 -6.65704429e-01 -2.89134562e-01  4.15781230e-01  8.70553374e-01]
 [-5.52829690e-02  1.31736708e+00  2.20277697e-01  1.65732220e-01 -8.06403399e-01 -6.71415031e-01 -7.36312509e-01  4.81034845e-01 -3.78234461e-02  2.00471058e-01]
 [-5.33130646e-01  3.01615238e-01 -1.44189566e-01  9.45238054e-01  3.41590375e-01 -8.86412680e-01  8.28474402e-01 -1.16747282e-01 -1.22211492e+00 -4.26902264e-01]
 [-3.92760873e-01 -1.52717853e+00  1.81970313e-01  3.64802778e-02 -1.81823981e+00  1.00592589e+00 -1.05031395e+00  2.96517491e-01  2.72083104e-01  2.64642294e-03]
 [ 8.44375551e-01 -3.89640749e-01 -5.00041358e-02  7.24787474e-01 -5.07818699e-01 -3.80004585e-01 -6.45392358e-01 -1.78806037e-01  1.09486580e-01  1.66213363e-01]
 [-4.09287354e-03  2.07106650e-01 -2.89654672e-01  1.78131342e-01 -7.19804287e-01 -1.35228410e-01 -1.18435510e-01  3.94597411e-01 -5.56724705e-02  1.82551876e-01]
 [-1.43821025e+00  5.13352334e-01  5.27987480e-01 -1.99510738e-01  6.45057023e-01 -4.20542330e-01  1.73278749e+00 -6.69375181e-01 -6.22029603e-01 -2.00493574e-01]
 [-2.68340319e-01 -4.33870330e-02 -9.58827317e-01 -7.43751824e-01 -2.11163735e+00  1.72871315e+00  9.10635114e-01 -8.62111568e-01 -1.67383552e-01 -9.99248400e-02]
 [ 2.44932711e-01 -8.41769040e-01 -1.84429809e-01  1.05494194e-01  1.02141750e+00 -6.49076939e-01 -1.05205369e+00  5.24567604e-01  2.27753296e-01  2.38327518e-01]
 [ 9.23635885e-02 -3.60479563e-01 -8.65759909e-01  3.31606299e-01 -6.70708179e-01  9.66706157e-01  8.68279934e-01 -3.60082760e-02  2.64261276e-01 -1.36261016e-01]
 [-1.17520678e+00  1.04756284e+00 -8.47488791e-02 -2.95109987e-01  5.62267452e-02 -5.08634508e-01  1.61739552e+00 -1.79736972e-01  1.04554258e-01 -3.42071354e-01]
 [-8.54611158e-01 -1.77259052e+00 -1.24642277e+00 -2.55947739e-01 -6.66472554e-01  2.07949400e+00  1.83645785e+00 -3.64879906e-01 -8.32139969e-01 -2.74222672e-01]
 [ 6.02891624e-01 -7.96438575e-01  3.83958340e-01 -3.66237432e-01  6.44279957e-01 -4.19751346e-01 -1.49584365e+00  3.95222217e-01  3.09597909e-01 -3.82715538e-02]
 [-8.39861333e-01  1.15311861e-01 -8.06375384e-01 -5.93285263e-02 -2.83945382e-01  1.25634265e+00  1.62898526e-01 -3.01254123e-01  2.07181439e-01 -7.09185004e-01]
 [-3.16556782e-01  2.73396280e-02 -3.17364335e-01 -3.10765028e-01  6.50130212e-01 -8.20487663e-02  3.56750250e-01 -3.64240855e-01 -4.49959576e-01  5.01397662e-02]
 [-3.83064866e+00  6.29244387e-01  4.49461848e-01  1.70767176e+00 -9.88755465e-01  9.28214729e-01 -5.07203197e+00  5.42171121e-01 -9.61153626e-01 -1.17032564e+00]
 [-6.91010058e-02 -1.01649415e+00 -1.09680653e-01 -4.33429360e-01  2.79496580e-01 -5.89178860e-01 -5.77561736e-01 -1.13738872e-01  5.55431962e-01  2.72068739e-01]
 [ 1.34089261e-01 -7.53187001e-01  6.72333181e-01 -1.11881483e+00  2.46732622e-01 -6.52875543e-01 -8.10618773e-02  5.50706089e-01  1.02917135e+00 -3.58590782e-01]
 [-1.02680051e+00  1.24143176e-01  1.73665786e+00  1.09423411e+00 -1.04447651e+00 -3.12502414e-01 -1.27983344e+00  3.39216709e-01 -2.44387493e-01 -1.81116807e+00]
 [-1.61008024e+00 -3.82450432e-01 -2.84743607e-01  3.01628798e-01 -2.66466707e-01  2.80917943e-01 -2.48615193e+00  1.01946935e-01 -7.91346908e-01  8.91252577e-01]
 [ 2.02071443e-01 -1.17631269e+00 -3.56248975e-01  3.83666813e-01  5.41421175e-01  3.34531099e-01 -2.29573846e-01 -3.12699944e-01  2.87819956e-03 -1.18077762e-01]
 [-1.15197361e+00  3.32068563e-01  7.39257157e-01 -6.39492810e-01  1.28939882e-01 -1.19089887e-01 -3.02624196e-01 -4.89292324e-01  5.97953558e-01 -3.23254585e-01]
 [-1.19828038e-01  3.70696247e-01  1.04196382e+00  3.44357401e-01 -1.45180511e+00 -8.29901218e-01 -6.85743332e-01  1.69247568e+00 -8.27643633e-01 -9.05759275e-01]
 [-2.39917099e-01 -2.28622222e+00 -8.13442051e-01  5.45172513e-01 -3.42420936e-01  8.72886837e-01 -1.05656767e+00 -2.96688169e-01 -9.95557547e-01  2.06600159e-01]
 [-1.10996246e+00  1.08749437e+00 -9.08193469e-01  9.98892784e-01 -1.06562889e+00 -3.20720255e-01  9.46257189e-02 -3.78790826e-01  2.66703159e-01  5.00029266e-01]
 [-1.05373716e+00 -6.98532090e-02 -7.85777494e-02  2.58417070e-01  6.16901457e-01 -1.11401880e+00 -5.18929601e-01 -2.90143937e-01  3.67370129e-01  1.15401649e+00]
 [ 1.85260761e+00 -1.14021015e+00  2.71876276e-01 -6.73285604e-01 -8.06149304e-01 -3.00469488e-01 -4.73401248e-02  1.70701134e+00 -1.71200705e+00 -9.52830911e-01]
 [ 7.77696669e-02 -1.04243505e+00 -7.38543808e-01  4.93709534e-01 -2.20975065e+00  1.61504388e+00  1.79880118e+00 -9.31496024e-01 -3.69536430e-01 -1.68184543e+00]
 [ 5.36125481e-01 -4.78335321e-02  2.86124758e-02 -3.63735437e-01  6.02372289e-01 -6.51062787e-01 -1.02499640e+00  1.83467522e-01  2.02230960e-01  3.14698160e-01]
 [-1.33310243e-01 -1.33217275e+00  9.63248536e-02  4.99860436e-01  2.21990258e-01 -4.60384756e-01  1.70488045e-01 -4.24387127e-01  5.71156621e-01 -1.57064572e-01]
 [ 7.41135776e-01  7.00056374e-01  3.01710069e-01 -2.79037297e-01 -4.60490227e-01  2.30334979e-02 -2.26884987e-02 -4.54716057e-01  1.94928437e-01 -5.01096547e-01]
 [-3.16476274e+00 -6.45381153e-01 -3.89063090e-01  7.46362150e-01 -6.63770288e-02  9.03325379e-01  1.92302436e-01  1.22988433e-01  8.72888982e-01 -9.28035617e-01]
 [ 8.91632438e-01  2.23368838e-01  2.57663310e-01 -1.44883227e+00  1.69113189e-01 -7.34883785e-01  5.68397760e-01 -3.83087963e-01 -2.31023375e-02  2.02682912e-01]
 [ 1.14846125e-01 -9.69148949e-02  3.17152768e-01 -7.37238586e-01  5.78106999e-01 -6.79097474e-02 -7.79344499e-01 -1.63319662e-01  6.12502098e-01 -2.04290956e-01]
 [-7.51569271e-01 -6.29514307e-02  8.09912384e-01  2.56261349e-01 -1.20953068e-01  2.82972395e-01 -6.10720992e-01 -1.66507155e-01  2.91398257e-01 -7.45843768e-01]
 [-2.26240206e+00  1.21911037e+00 -1.02611983e+00  8.22016180e-01  6.58021212e-01  6.08202696e-01 -1.46143115e+00  3.27962279e-01 -1.90131164e+00  6.84135258e-02]
 [-1.34838685e-01 -1.46182132e+00  2.47410256e-02 -5.81405163e-01  2.28847593e-01 -1.35006141e-02  1.24373525e-01  5.13066471e-01  1.56794116e-01  8.65608677e-02]
 [-4.56730425e-01  3.11552167e-01  5.13430834e-01  1.52831059e-02  2.11672876e-02  5.37775338e-01 -6.58229113e-01  1.14791557e-01 -1.61489397e-01 -1.25905901e-01]
 [-1.85948265e+00  1.64946043e+00 -4.31610167e-01  9.80753899e-01 -6.59011245e-01  6.03493989e-01 -1.48248482e+00  5.73221147e-01 -6.32261857e-02 -1.04133534e+00]
 [-1.31732118e+00 -8.40304613e-01 -1.30372226e+00  1.23807168e+00  1.96983188e-01  1.10477567e+00 -2.15360475e+00 -1.79980505e+00 -1.35921896e+00  1.30774057e+00]
 [ 1.18849508e-01 -1.01374125e+00  7.03957796e-01 -2.17109382e-01 -2.37662137e-01 -5.04806280e-01  2.21200392e-01 -1.07620299e+00  1.25749409e+00 -1.10725962e-01]
 [-3.83670211e-01  1.80767417e-01  4.73045588e-01  6.81780502e-02  5.51082909e-01 -6.72431365e-02 -4.08000141e-01 -4.05982018e-01 -2.40517735e-01  1.07038617e-01]
 [-5.93762934e-01 -1.82932422e-01 -4.32720482e-01  2.98819035e-01  2.99615841e-02  3.04611623e-01 -1.72365201e+00  1.08082902e+00 -7.80997038e-01 -8.71004164e-02]
 [-1.45530790e-01 -1.99921942e+00 -4.28912133e-01  7.93235540e-01  2.47989744e-01  5.28782487e-01  1.66564077e-01 -1.81633985e+00 -1.26311410e-04  2.13091776e-01]
 [-7.60518253e-01  3.58197093e-01  7.27844000e-01 -1.08547837e-01  6.82309091e-01 -6.80032611e-01  1.66576505e-01 -6.41379952e-01  4.22317803e-01 -1.98015068e-02]
 [ 1.01411697e-02  1.90661654e-01  4.76237666e-03 -8.05795193e-02  2.09746242e-01 -2.88195372e-01  1.63104981e-01  4.27852497e-02 -9.81682390e-02  3.29928137e-02]
 [ 1.57937181e+00  3.07032354e-02 -2.01807559e-01  2.80851007e-01 -9.40214336e-01  3.04087728e-01 -2.49070644e-01 -2.03786492e-01 -4.37099189e-01 -8.94564688e-01]
 [-6.02457106e-01 -4.20851529e-01  1.89715102e-01  4.63166803e-01 -5.32718301e-01  3.11616242e-01 -2.50071138e-01 -2.67975718e-01  6.20506465e-01 -2.52888536e+00]
 [ 4.47418004e-01 -1.29932940e+00  6.42167181e-02 -1.76658288e-01  1.00434301e-02 -9.20099020e-02  5.99726498e-01  1.38229027e-01 -9.88745093e-02  1.61830574e-01]
 [ 3.86313617e-01 -2.42623389e-01  4.79783773e-01 -4.15585637e-01  6.81837857e-01 -6.76240146e-01  2.05593452e-01  6.03011429e-01 -2.84354776e-01 -5.92809804e-02]
 [-1.44923478e-01  7.05949008e-01 -4.44110623e-03 -3.75261098e-01 -7.02860132e-02  8.50530714e-02 -6.12024426e-01 -2.62193948e-01  4.28053021e-01  1.41036749e-01]
 [-2.07441664e+00  5.23549259e-01  1.85671639e+00 -5.00510857e-02  5.98448925e-02 -1.21682036e+00 -2.31236354e-01 -2.67131999e-02  5.15540600e-01 -1.04672337e+00]
 [ 6.59475088e-01 -6.33061588e-01  1.84828237e-01  4.44304608e-02 -1.82419226e-01  1.68238342e-01  4.90729094e-01 -2.29599014e-01 -1.80748597e-01 -8.53734791e-01]
 [ 2.28941843e-01  8.51934683e-03  6.78059638e-01 -1.17014277e+00  1.03962386e+00 -1.45919633e+00 -4.62953709e-02  1.40845323e+00 -8.42030644e-01 -1.03622830e+00]
 [-3.98175478e-01  1.03605199e+00  6.14398360e-01 -9.75428343e-01  1.72245294e-01 -5.77812374e-01 -2.15769440e-01 -9.01323199e-01  1.14035621e-01  1.44110918e-01]
 [-7.12150156e-01  3.39066207e-01 -1.88997105e-01 -1.51969135e-01  1.05810046e+00  3.79321933e-01 -1.51212260e-01 -9.46894050e-01 -7.68236041e-01 -7.98953474e-02]
 [ 8.33416224e-01 -5.64956784e-01  1.66489221e-02 -5.82913876e-01 -3.80266994e-01  5.28651476e-01  6.23412132e-01 -8.03399682e-01 -5.35183810e-02  1.30468130e-03]
 [-5.14577210e-01 -1.71699792e-01 -1.69042088e-02  1.03945744e+00 -4.45863456e-01  6.06011212e-01 -1.05251408e+00  2.05023456e-02 -6.73494339e-01  6.23514354e-01]
 [-1.77362061e+00 -7.32034087e-01 -1.46134388e+00 -3.17267537e-01  1.55539858e+00  1.36444375e-01 -3.97240907e-01  1.18365872e+00 -1.39824510e+00  9.41549301e-01]
 [-1.20839380e-01 -6.23512447e-01  6.35518357e-02  8.12998042e-02 -2.40670025e-01  3.06445420e-01  1.01992953e+00 -1.70287776e+00 -1.10328090e+00  4.67130631e-01]
 [ 2.41908342e-01  2.42181614e-01 -4.52516049e-01 -2.66428053e-01 -1.29560709e-01 -4.60955232e-01  6.92225456e-01 -8.28781724e-01  1.20119743e-01  1.40120074e-01]
 [ 1.18311656e+00 -1.05543387e+00 -4.83780295e-01  7.56036997e-01 -1.19182599e+00  1.17540240e+00  7.33641744e-01 -1.07065833e+00  4.09031332e-01 -8.19749236e-01]
 [-2.37653637e+00  2.57199327e-03 -1.17142594e+00  8.71667147e-01  1.75540924e-01  1.45763770e-01 -2.40052319e+00  1.00749707e+00 -1.77275908e+00  8.57662082e-01]
 [-2.34360948e-01  7.93332994e-01  3.34852487e-01  5.26459515e-01 -2.26491615e-01  8.49512592e-02  9.27163661e-01 -2.12279129e+00 -2.82122701e-01 -6.00161374e-01]
 [ 4.97503608e-01 -4.76063907e-01 -2.04778612e-01  1.94272533e-01  4.11517203e-01 -1.57568544e-01  2.98699647e-01 -2.17956513e-01  3.45196694e-01 -2.81030774e-01]
 [ 1.82709897e+00 -7.89414823e-01  4.69758101e-02  9.84073699e-01 -1.25287735e+00  5.96146822e-01  1.26148295e+00 -1.35236132e+00  4.65395778e-01 -1.10428083e+00]
 [-2.19902173e-01  2.21781701e-01  2.29076579e-01  2.04471096e-01 -1.35901213e-01 -8.02657101e-03 -8.45595121e-01  1.31472036e-01 -5.77415943e-01  3.36064841e-03]
 [ 6.60647750e-01  6.58609629e-01  6.74696803e-01 -2.14057386e-01 -5.09197533e-01 -3.25636774e-01  8.55534613e-01  1.11469507e-01 -6.36052907e-01 -1.00679207e+00]
 [-9.46380734e-01  2.56279975e-01 -1.72290504e-01 -1.30863011e-01  5.06902993e-01  1.29262120e-01 -3.56995493e-01  1.94004625e-02  3.92286777e-01 -1.61224559e-01]
 [ 4.59676653e-01  8.83213639e-01  8.92394781e-01  6.81280047e-02 -4.33540851e-01 -1.61319122e-01  1.00555146e+00 -1.31789052e+00 -3.61325800e-01 -7.84536898e-01]
 [ 3.44617032e-02 -4.41413254e-01 -2.87356019e-01 -6.60743177e-01  1.57027692e-03 -4.97968346e-01  7.88367018e-02  4.79134202e-01 -4.39039499e-01  6.26207218e-02]
 [-3.63134116e-01  7.13080406e-01  1.46973550e+00 -5.86519659e-01  1.52663216e-01 -1.55022800e+00  3.54063541e-01 -2.07252532e-01 -1.39388180e+00  5.85595779e-02]
 [-6.39750361e-01  6.53301299e-01  3.43731493e-02 -5.28081477e-01  3.96499425e-01 -1.16637811e-01 -5.87515235e-01 -6.01115406e-01  4.80630100e-01  6.59455657e-01]
 [ 3.45055312e-02  7.32105911e-01  1.26351774e+00 -5.96112370e-01  1.49486354e-02 -7.57152736e-01  4.45790112e-01  1.52063519e-01 -5.47795415e-01 -7.50857592e-01]
 [-5.31921208e-01  2.65927732e-01 -7.27609694e-01 -4.45858479e-01  3.51300150e-01 -5.51526248e-01 -3.92374247e-01  1.01279509e+00 -1.97548479e-01  6.21182323e-01]]

