=== Layer 2 Weights ===
[[[[ 0.10199495 -0.09368277  0.05398377 -0.04548597]
   [ 0.1830653  -0.25586206 -0.16032039 -0.19855669]]

  [[-0.12886965  0.04954087  0.08758831  0.01886998]
   [ 0.00082597 -0.08534835  0.05375015 -0.3994903 ]]

  [[ 0.14610222  0.54363847  0.13480683 -0.18255061]
   [ 0.09772697 -0.1401265   0.04122359 -0.45295072]]]


 [[[-0.09914825  0.05363439  0.41177073  0.15946211]
   [ 0.00625153 -0.0859222  -0.28576556 -0.04999148]]

  [[-0.340752    0.10207158  0.33435628  0.01814305]
   [ 0.3163358  -0.27151442 -0.0778202   0.01365227]]

  [[-0.27372655  0.15401469  0.10799544 -0.17773408]
   [-0.18757206 -0.42254436 -0.06419653 -0.08422367]]]


 [[[-0.10858572 -0.03408445  0.09795661 -0.00591838]
   [ 0.03605787 -0.0067523  -0.22144608  0.206776  ]]

  [[ 0.04408037 -0.04319448  0.06536637 -0.00859984]
   [-0.09424119 -0.0463594  -0.08072808  0.24062608]]

  [[ 0.27152604  0.05401507  0.21973254 -0.1556219 ]
   [-0.79618543  0.14262086 -0.07187714  0.08707716]]]]

