=== Layer 2 Weights ===
[[[[-0.29548678  0.47231448  0.08735626  0.06402546]
   [ 0.35462496 -0.36649838 -0.11046104  0.02653597]]

  [[-0.54969215 -0.09960243 -0.18681    -0.30033624]
   [-0.41824675 -0.07453528 -0.04907923  0.20545952]]

  [[-0.3839543   0.05195044  0.00551112  0.36033136]
   [-0.2684111  -0.13307953  0.07134321  0.20974348]]]


 [[[-0.16980258  0.07365937 -0.30955362 -0.04118821]
   [ 0.1127761  -0.03460072  0.35392466  0.06185995]]

  [[ 0.09180012  0.0429157  -0.16643937  0.07786972]
   [ 0.05822422  0.5727908   0.15101565  0.12465639]]

  [[ 0.09660918  0.04883073  0.07233324  0.41604155]
   [ 0.05289735  0.40980414  0.31457594 -0.068829  ]]]


 [[[ 0.27086002 -0.11169103 -0.25301823 -0.05728281]
   [ 0.04749738  0.10113018  0.04141526 -0.516459  ]]

  [[ 0.04921823 -0.20838946  0.00509249 -0.12504508]
   [ 0.1969074  -0.17687926  0.4286969  -0.64814043]]

  [[ 0.1338165   0.01268189  0.03019526  0.27193385]
   [-0.00982847  0.0367732   0.2657206  -0.5453746 ]]]]

