=== Layer 2 Weights ===
[[[[ 0.10961597 -0.3848117  -0.2760579   0.01133767]
   [-0.29038742  0.64770913 -0.22998977 -0.2273914 ]]

  [[ 0.19125184  0.3366376  -0.08990858 -0.47625348]
   [-0.4979493  -0.10798264 -0.39768076 -0.42738113]]

  [[ 0.175717   -0.17724693 -0.3882838  -0.32045984]
   [-0.22977836 -0.04765759 -0.5066793  -0.22028188]]]


 [[[ 0.46938443 -0.4753967  -0.1385695  -0.36475623]
   [ 0.02987771  0.3370538   0.23769979  0.07809409]]

  [[ 0.60352325 -0.39679986  0.22304413 -0.6617105 ]
   [ 0.00617304 -0.22708727  0.12497729 -0.34420648]]

  [[ 0.4241765  -0.13627897 -0.02260694 -0.08871736]
   [-0.5027727  -0.502405   -0.28324276 -0.04456178]]]


 [[[ 0.12318689 -0.06071965  0.72527516 -0.36364982]
   [-0.03183986  0.13890031 -0.03905715  0.00145982]]

  [[ 0.52606744  0.16169977  0.4895434  -0.24090244]
   [ 0.05747322 -0.43421185  0.14282311  0.13036755]]

  [[-0.28833008 -0.03321078  0.15814628  0.16290952]
   [ 0.15380603  0.20346771 -0.0105184   0.6400943 ]]]]

