=== Layer 5 Weights ===
[[-2.32556835e-01 -1.03711285e-01 -7.53426626e-02  1.46968991e-01  4.69983071e-01 -5.96047521e-01  1.18996406e+00  5.32951951e-01 -1.14164412e-01 -5.82354307e-01]
 [ 4.76590425e-01 -7.39062011e-01  1.10829569e-01  1.10041849e-01  2.26311013e-02 -5.11340499e-01 -1.53267786e-01  2.07130238e-01 -5.51602915e-02  5.87259054e-01]
 [-1.11168206e-01  8.34021717e-02  4.13647853e-02  6.65872872e-01  5.23336112e-01 -4.19095010e-01 -9.16180432e-01  9.07301843e-01 -3.25620264e-01 -3.44163775e-01]
 [ 3.97872627e-01  4.54202712e-01 -4.89753336e-02 -4.90848392e-01  8.11632872e-02 -4.77439642e-01 -1.58340603e-01  1.25206769e-01  9.99452639e-03  3.45104605e-01]
 [-2.25006625e-01 -4.85632241e-01  5.49308777e-01 -1.52460203e-01  2.71776617e-01 -2.59521246e-01  8.17737207e-02  1.57463521e-01 -1.95616558e-02 -4.93760377e-01]
 [ 4.74502504e-01 -4.08783495e-01 -2.32543960e-01  1.54360756e-01 -6.31572008e-01  3.96397524e-03 -3.50375772e-01  3.25488657e-01 -8.57937988e-03  5.42981386e-01]
 [ 2.30662316e-01 -2.21165478e-01 -5.09485193e-02  5.10774612e-01 -9.35312919e-03 -2.13178068e-01 -1.51257145e+00  8.60152721e-01 -7.58923367e-02 -3.83109927e-01]
 [-1.67989582e-02 -1.94134504e-01 -3.56048718e-02 -4.90714431e-01  2.89996285e-02  1.07671700e-01 -3.22169691e-01  3.17024529e-01 -2.18373165e-01  2.06199005e-01]
 [ 2.70958453e-01  2.98153698e-01  1.43567249e-01  3.29421349e-02 -4.87426817e-02 -3.74905735e-01 -7.65659735e-02 -2.93586791e-01 -7.33655915e-02 -3.36289078e-01]
 [ 1.87957779e-01 -5.18632233e-01  1.07923131e-02  1.58199042e-01 -9.01604176e-01  4.59060282e-01 -5.34447849e-01  2.32938126e-01  2.69452989e-01  5.52947283e-01]
 [ 5.31375110e-02 -2.45273352e-01  4.16393310e-01  2.40777358e-02  1.52869681e-02  2.89878692e-03 -1.51043534e+00  5.11666954e-01  4.61772203e-01  6.11519851e-02]
 [-5.53561211e-01  3.24236602e-02  1.86435223e-01 -1.71850696e-01  6.65049493e-01  5.80793582e-02  4.93042409e-01  1.51666969e-01 -3.87905568e-01 -6.81140497e-02]
 [-1.22357078e-01  1.79025665e-01 -3.68040860e-01 -2.99882650e-01  3.05367142e-01  7.98044950e-02  8.12350750e-01  1.20142408e-01 -2.11800650e-01 -5.84455192e-01]
 [ 2.47583717e-01 -1.58035767e+00  1.83639929e-01  2.60719419e-01 -1.16556132e+00  3.30460846e-01 -7.29298711e-01  6.96119517e-02  4.15697813e-01  8.03461850e-01]
 [ 3.20364118e-01  5.34288473e-02  2.76514083e-01 -2.44683638e-01 -1.86260507e-01 -1.34946853e-01 -7.37199903e-01  2.75294036e-02  1.01723269e-01  2.23815590e-01]
 [-1.84073851e-01  7.20632136e-01  2.23320216e-01 -6.84248388e-01  5.30925274e-01 -5.96002340e-01  1.89727955e-02 -7.76597857e-02 -4.91875231e-01  3.29857409e-01]
 [-9.95177567e-01  3.68815720e-01 -1.50049269e+00 -1.52404404e+00  4.79117781e-01  1.47673571e+00  2.07963896e+00 -1.72890976e-01 -2.76096556e-02 -1.61582828e+00]
 [ 1.15383819e-01 -7.17905402e-01 -7.20546424e-01 -2.15728566e-01 -1.05913794e+00  1.16719186e+00 -2.67574966e-01  1.79962248e-01  3.04491311e-01  5.74082956e-02]
 [ 6.43681526e-01 -1.20036408e-01 -3.59572358e-02 -3.05313826e-01 -1.31090090e-01 -2.80787423e-02 -4.28691596e-01  4.20069844e-02  1.93776920e-01  3.17972690e-01]
 [ 1.87412590e-01  3.54103506e-01  1.03822067e-01  2.91103963e-02  2.00614974e-01 -7.87763715e-01 -2.52316684e-01  1.21805094e-01 -1.73463807e-01  3.39794427e-01]
 [ 4.95128959e-01  9.00481790e-02 -5.13240874e-01  1.21028058e-01 -1.71493262e-01 -2.12527469e-01  7.00779319e-01  2.81328857e-02 -4.32670163e-03  8.05438384e-02]
 [ 9.25938487e-02  1.15874052e-01  3.70082438e-01 -2.37872630e-01  2.55096883e-01 -5.55294871e-01 -2.05143958e-01  8.87854695e-01 -3.18094969e-01 -3.52948397e-01]
 [-7.08600402e-01  4.94364649e-01  1.45852172e+00  1.13187599e+00 -6.02920771e-01 -8.84927154e-01 -1.37677157e+00  5.56108236e-01 -2.51969308e-01 -1.25210154e+00]
 [ 4.09003049e-01  7.20618427e-01  1.06983662e+00 -3.36418211e-01  4.00772363e-01 -2.52902389e-01 -5.45252681e-01 -3.79525423e-01 -4.91604328e-01 -6.57871544e-01]
 [ 3.15449208e-01 -4.16949809e-01 -1.87518746e-01 -6.77589834e-01  6.46352708e-01 -5.50365187e-02  1.76896274e-01  1.57915622e-01 -3.88857275e-01  3.07723969e-01]
 [-6.25821725e-02  4.60382760e-01  1.63746178e-01  4.06688778e-03 -1.30549729e+00 -5.04835369e-03  3.80527303e-02  7.79547334e-01 -2.77383626e-01 -2.67266750e-01]
 [-3.47134441e-01  6.76105842e-02  4.34029698e-01  3.51015776e-01 -2.40540892e-01 -2.47323155e-01 -8.73959124e-01  1.44110397e-01  8.78261961e-03 -3.13391089e-01]
 [ 2.76203513e-01  2.16213509e-01  8.40109110e-01  8.29924941e-01 -1.26181796e-01 -5.20129144e-01 -4.52290237e-01  2.78025150e-01 -1.23999059e+00 -8.95512342e-01]
 [ 7.14946032e-01  7.72443771e-01 -1.62518509e-02  7.32632950e-02 -2.99854934e-01 -1.13554262e-02 -4.64007556e-01 -3.20786297e-01 -1.03120722e-01  2.32305110e-01]
 [-5.98897785e-02 -1.75962165e-01 -3.43386292e-01 -3.10703844e-01 -1.24729395e+00  5.30924976e-01 -2.85466462e-01  1.02539194e+00 -8.86225030e-02  2.08569363e-01]
 [-2.19926089e-01 -6.13443971e-01 -5.44676423e-01 -3.14426303e-01 -1.09863929e-01  5.77557445e-01  8.06930065e-02  2.72113740e-01  3.84495318e-01 -2.45232478e-01]
 [-2.93438911e-01 -2.09307656e-01  6.76466763e-01  1.20474505e+00 -9.56605017e-01 -1.06804907e+00  1.24142818e-01  7.79781461e-01  1.89590782e-01 -7.28074312e-02]
 [-6.08117022e-02 -7.00449586e-01 -7.14351088e-02  1.86160356e-01  4.33547080e-01 -4.09556478e-01  3.70703228e-02  2.20449835e-01  5.20931818e-02  3.22918519e-02]
 [ 5.69557071e-01 -8.18193197e-01 -2.80902237e-01  1.36518016e-01 -1.22933638e+00  3.94623548e-01 -1.92751959e-01  3.77888292e-01  3.23460400e-01  5.82391500e-01]
 [-1.94528371e-01 -1.04511164e-01 -7.11047828e-01  1.11425936e-01 -3.84172469e-01  3.91023636e-01  6.42042398e-01  2.60169387e-01  5.67626894e-01  2.16203555e-02]
 [-7.10391849e-02  9.71759902e-04  8.16032469e-01 -1.48046583e-01 -1.45680594e+00 -2.54315108e-01  2.26856321e-01  2.98950374e-01 -4.63022649e-01  1.00041062e-01]
 [-6.93955421e-01 -1.50033653e-01 -2.66165793e-01 -8.06311071e-02  7.10368097e-01  2.61854321e-01 -3.69659305e-01  5.31029925e-02  6.66158617e-01 -6.31272197e-01]
 [ 5.65428555e-01 -1.29277349e+00  2.38588620e-02 -3.79363090e-01 -1.04245770e+00  6.35878682e-01  4.63758528e-01 -1.07305653e-01  5.69950163e-01  1.55710783e-02]
 [-9.91980825e-03 -3.56957883e-01 -4.12266791e-01 -1.99319094e-01 -2.68878669e-01  9.16434899e-02  2.04397678e-01  9.10882577e-02 -1.08666360e-01  6.02012649e-02]
 [ 3.14655066e-01  1.56206235e-01  2.97814384e-02 -5.02194948e-02 -3.15663010e-01 -2.04610720e-01  4.40946698e-01 -2.63137847e-01 -5.56299567e-01  6.84855998e-01]
 [ 4.31091934e-01 -1.10439397e-01 -5.44736981e-01 -1.40753478e-01  9.61672813e-02 -6.93586469e-02  2.89219588e-01 -2.66547322e-01 -2.47321829e-01  1.54893640e-02]
 [-7.68816531e-01 -2.30128020e-02  4.42067087e-01 -3.34384561e-01 -3.46434653e-01 -2.11870432e-01 -1.17366898e+00  8.75245184e-02  6.88235402e-01  3.71859558e-02]
 [-2.20484376e+00  1.49878338e-01  2.91566700e-01  7.79106438e-01 -3.17754686e-01  1.01113230e-01 -1.68839765e+00  5.57805479e-01  2.12481748e-02 -5.63924849e-01]
 [-1.23547304e+00  8.05875063e-01  9.57818449e-01  6.35708511e-01 -8.50457013e-01 -3.88556831e-02 -1.73293734e+00 -1.92560270e-01  1.65597469e-01 -1.24104977e+00]
 [ 6.52617395e-01 -1.47128075e-01 -6.47891343e-01  1.16402552e-01  8.15758646e-01  2.22721294e-01  3.37769002e-01 -3.19025129e-01 -6.09770678e-02  3.92984860e-02]
 [-7.16612577e-01 -3.36617291e-01  5.33563852e-01 -1.17082226e+00  2.84887999e-01  2.08273884e-02 -4.08149183e-01 -1.61749840e-01  4.46867198e-01  4.21065181e-01]
 [ 2.76348386e-02 -8.79356086e-01 -7.32113868e-02  1.77323267e-01  2.52165705e-01 -2.17955858e-01 -3.50721240e-01  3.48141901e-02 -2.54660189e-01  5.05705476e-01]
 [ 6.77026138e-02 -2.42466226e-01  6.29757464e-01  6.30302951e-02 -6.70258582e-01 -2.67160177e-01 -9.24267113e-01  9.69107568e-01 -1.31210193e-01 -1.01767872e-02]
 [-9.34966147e-01  1.10798132e+00 -6.42643929e-01  4.58371401e-01 -1.96375564e-01  1.26265921e-02  7.12539107e-02 -5.91974080e-01 -8.80370215e-02 -1.22744344e-01]
 [-3.97661567e-01 -4.08933818e-01  9.63810757e-02 -2.18589157e-01 -2.22834557e-01  6.23260736e-01  4.35136974e-01 -1.17718363e+00  5.83273768e-01  9.89232808e-02]
 [-4.35012817e-01 -1.48260832e+00 -4.00896430e-01 -3.16347480e-01  6.63244963e-01  1.88547149e-01  5.91949284e-01 -1.05894005e+00  2.74488002e-01  8.49490702e-01]
 [ 6.48158312e-01 -4.92167532e-01 -2.37806052e-01  2.30366126e-01 -9.64272693e-02 -1.08928598e-01 -9.92398620e-01  6.21952891e-01 -1.28136143e-01  5.58428206e-02]
 [-5.13979018e-01  1.06142238e-01  8.42097700e-02  3.94388214e-02  8.93102050e-01 -1.49130690e+00 -6.45975292e-01  5.23674548e-01  7.64931202e-01  2.10759804e-01]
 [-2.73065567e-01 -2.96785176e-01 -5.17277122e-01  1.80179626e-01 -2.58653194e-01  7.41688430e-01  7.36480236e-01 -1.57541707e-01 -1.97001472e-02 -9.29431990e-02]
 [-8.66539121e-01 -4.43212032e-01 -3.23004454e-01  1.03138432e-01  4.98485029e-01  3.26119214e-01  5.74056327e-01 -1.43217528e+00  9.11798835e-01 -2.37922460e-01]
 [ 3.29883695e-01  6.85419261e-01 -1.11928955e-01 -1.11096501e-02 -7.31377959e-01  6.01597011e-01 -1.69288348e-02 -8.23494941e-02 -4.44484711e-01  1.55187935e-01]
 [ 8.32217574e-01 -6.16517007e-01  1.21576786e+00 -8.31061542e-01  7.35249221e-01 -2.28480268e+00 -5.90993948e-02  7.14965025e-03  3.71627927e-01 -1.48826912e-01]
 [-4.42811437e-02 -7.80416429e-01 -1.22751959e-01  2.07613900e-01  6.09432578e-01 -4.41254288e-01  8.00059259e-01  6.39951468e-01 -5.43565273e-01 -5.19760907e-01]
 [-5.54368198e-01 -6.29856408e-01 -4.99360353e-01  9.18145254e-02  2.62057215e-01  1.35668591e-01  6.18744016e-01 -2.22881779e-01  4.83178832e-02 -7.22045526e-02]
 [-3.63790393e-01  2.31664658e-01 -9.96796548e-01  2.55795926e-01 -3.55732478e-02  1.77185819e-01 -1.99699938e-01  1.16965763e-01  8.16940889e-02  7.82335773e-02]
 [ 4.31331769e-02 -8.36535156e-01  3.24338943e-01 -2.24902853e-01  3.94284815e-01 -4.52187061e-01  1.01295426e-01  4.19904768e-01  3.07869390e-02 -1.59351006e-01]
 [-3.87969106e-01  9.36322287e-02 -4.45481032e-01  4.56407934e-01 -4.37082313e-02  2.45977432e-01 -4.94736463e-01 -2.51888067e-01 -3.58326018e-01  9.03338313e-01]
 [-1.39032602e+00  2.17752889e-01 -1.22154152e+00  7.54304945e-01  2.77267665e-01  1.04571044e+00 -8.29203725e-01  4.75908130e-01 -1.62786746e+00  6.92642510e-01]
 [-2.05924463e+00  5.57802320e-01 -6.85698986e-01  8.50809693e-01  3.86032969e-01  2.87284017e-01 -1.28553188e+00 -1.52298689e-01 -4.11998957e-01  1.72358930e-01]
 [ 3.64808947e-01 -2.91687459e-01 -1.02512188e-01 -5.55237472e-01  3.67965847e-01 -1.27868995e-01  3.76422495e-01 -5.22970269e-03  1.00557245e-01 -1.49410944e-02]
 [-4.57852148e-02 -1.35723859e-01 -2.35626653e-01 -2.23630235e-01  4.47888762e-01  1.17384329e-01 -5.71345568e-01 -1.75453454e-01 -5.19993007e-01  4.15136516e-01]
 [-7.87623301e-02  1.93162262e-01 -3.56026024e-01  6.93177164e-01 -2.71518230e-01  7.17030406e-01 -5.53734541e-01  1.20251633e-01 -1.01215494e+00  3.75547200e-01]
 [-7.87044466e-01 -9.49579775e-02 -5.70205271e-01  3.96158159e-01  4.69791681e-01  7.24677682e-01 -1.53247225e+00  1.06841944e-01 -3.24566454e-01  2.69282162e-01]
 [-4.24105853e-01  1.15272927e+00  2.53403127e-01 -6.48906469e-01 -3.37093845e-02 -3.94203365e-01  6.93283916e-01 -5.72059214e-01  4.30873454e-01 -8.12654123e-02]
 [ 3.56555074e-01 -5.20058870e-01 -1.62476040e-02  1.39059737e-01  1.61295533e-01  3.62673551e-01 -6.90626577e-02 -5.67644775e-01  3.57676953e-01 -1.72431350e-01]
 [ 5.99189460e-01 -1.06121027e+00  3.76144886e-01 -3.25183988e-01 -1.81267515e-01  3.22434694e-01  6.81348741e-01 -7.84812868e-01 -1.78236827e-01 -2.98796326e-01]
 [-7.78916478e-01 -3.11639726e-01 -3.69226992e-01  2.38780558e-01  4.33125645e-01  2.89997697e-01 -1.16725278e+00 -9.98917520e-01  3.79976332e-01  8.58112872e-01]
 [-1.71124026e-01 -2.35085517e-01  4.44706738e-01 -2.40443021e-01  5.34761548e-01 -7.16627538e-01 -3.99073660e-02  7.31903374e-01 -2.87714005e-01  1.28566138e-02]
 [-1.83850184e-01 -4.20822203e-02  4.40789372e-01  3.14541668e-01 -2.53916025e-01 -8.04846361e-02  3.37918282e-01 -2.63983667e-01  7.06158578e-01 -1.20303249e+00]
 [-1.68947265e-01  5.92279211e-02  5.58184505e-01 -3.85247841e-02 -7.90923163e-02  6.62360457e-04  2.10831240e-01 -6.38436198e-01  3.11115652e-01 -8.59805286e-01]
 [-1.32104373e+00  4.68579978e-02 -7.43473947e-01  2.94355601e-01  2.93577671e-01  2.14073777e-01 -3.44336927e-01 -6.72454953e-01  4.87303168e-01  6.68724000e-01]
 [ 8.25492322e-01 -8.14213276e-01  7.31571615e-01 -5.73935866e-01  3.81592959e-01 -6.06157541e-01  3.43958020e-01  6.32476568e-01 -9.86035824e-01 -4.75237191e-01]
 [-7.41737604e-01  3.51315379e-01  9.38752234e-01  9.74945799e-02  3.46491277e-01 -3.66224825e-01 -2.41910577e-01  2.65930176e-01 -4.16635752e-01 -9.66941953e-01]
 [-4.16888773e-01 -4.35445428e-01  9.25680637e-01  3.50723833e-01 -1.16687112e-01 -1.89186018e-02  4.59488511e-01 -5.99524498e-01  3.31927016e-02 -5.97846806e-01]
 [-4.27608788e-01  3.79910618e-01 -7.46593833e-01  2.35319123e-01  5.12139201e-01  1.32531241e-01 -4.61384170e-02  3.42023037e-02  6.60782516e-01  7.11378292e-04]
 [ 6.82461560e-01  6.98525682e-02  1.24734628e+00 -3.22320402e-01 -6.87759221e-01 -9.42818522e-02  2.80621171e-01 -8.55683565e-01  7.81444460e-02 -5.92948318e-01]
 [-1.46364614e-01  7.03577921e-02 -7.00610280e-01  4.61426407e-01 -3.33029300e-01  4.24980104e-01 -4.00970690e-02  1.83431625e-01 -3.70076150e-01  4.40745056e-01]
 [-2.50486791e-01 -3.96098495e-01 -1.14239585e-02  4.37548220e-01 -4.62024480e-01  7.02729106e-01  2.60081977e-01 -1.09142721e+00 -7.23126352e-01 -5.10325097e-02]
 [-1.32589459e-01  2.37990506e-02 -8.63779783e-01 -3.09106022e-01  6.64644778e-01  1.40739128e-01  8.13863277e-01  1.70953557e-01 -6.58204734e-01  2.57258505e-01]
 [ 6.55819118e-01  6.87231421e-01  1.53751045e-01 -7.67631948e-01  4.34405869e-03 -3.48146617e-01  3.84147644e-01 -1.59859434e-01  3.80334198e-01 -5.51476419e-01]
 [ 3.22890252e-01 -4.88988549e-01 -5.66759109e-01  4.65997487e-01 -7.55775213e-01  3.32482308e-01  1.85207069e-01 -3.60441566e-01 -6.45778403e-02  2.05015391e-01]
 [ 3.73940855e-01 -2.25421801e-01 -2.65256524e-01  6.29864991e-01 -9.91199911e-01  6.98708832e-01  5.78765452e-01 -1.54156804e+00  1.51680529e-01 -6.22865558e-01]
 [-4.49253917e-01  3.27550501e-01  4.87987369e-01 -9.30087641e-02  3.31113338e-01  2.90777206e-01  8.54605585e-02 -4.74605829e-01 -8.97076607e-01  2.92651266e-01]
 [-1.50941655e-01  4.03661311e-01 -4.05451685e-01 -4.47448015e-01  7.03731239e-01 -3.26305449e-01 -2.93070376e-01  7.59629250e-01 -3.97730678e-01 -2.93777257e-01]
 [ 1.60857946e-01 -3.21883976e-01 -1.56193180e-02  1.44811317e-01 -7.85830081e-01 -2.10048571e-01  8.31133187e-01 -7.31751323e-01  7.24147141e-01 -1.41598359e-01]
 [ 7.63868868e-01 -5.83320677e-01  2.45593876e-01  4.03493762e-01 -6.76972151e-01  4.22926992e-01  1.89453617e-01 -1.76586819e+00  3.62281889e-01 -1.18617606e+00]
 [-1.77400514e-01 -1.70625404e-01  1.71783447e-01 -1.90527707e-01  8.16446394e-02 -1.20516261e-03  3.62365842e-01 -4.79016043e-02 -3.20677996e-01  1.99830294e-01]
 [-1.77245408e-01 -2.77929217e-01 -4.53242987e-01  5.89877069e-01  2.46590078e-01 -1.53917059e-01 -5.31585038e-01  2.46978313e-01 -3.82106930e-01  3.03386420e-01]
 [-1.47699952e-01  6.50137365e-01  8.81220341e-01 -5.22935927e-01 -4.35452193e-01 -4.94730681e-01  2.14742750e-01  3.07007935e-02  1.02352180e-01 -7.79656887e-01]
 [ 3.65618825e-01  4.64477599e-01 -2.73138463e-01 -8.57784227e-02 -7.01346099e-01 -1.06603839e-01  1.58032030e-01 -4.42097366e-01  6.73724949e-01 -6.50426209e-01]
 [-9.76883918e-02  5.45390964e-01 -2.95637816e-01  1.60703987e-01 -3.42254974e-02 -3.58314514e-01  6.71187460e-01  2.04455882e-01 -3.56743604e-01  1.54007338e-02]
 [-2.45773830e-02  4.11922395e-01  3.50589901e-02  1.72969356e-01 -3.67402077e-01  3.15627009e-01  5.51687703e-02 -4.88329470e-01 -3.54608409e-02 -8.88765678e-02]
 [-1.34018147e+00  7.79746711e-01  9.50913191e-01 -7.00837493e-01  7.15611875e-01 -5.37095189e-01 -5.13875544e-01 -8.76484454e-01 -6.18912399e-01  7.30820835e-01]
 [-5.17258525e-01  3.90098572e-01  3.31437171e-01 -5.56140482e-01  4.53300804e-01 -2.02083409e-01 -3.58106583e-01 -2.70341963e-01 -1.28535315e-01  6.57784224e-01]
 [ 4.35087867e-02  8.78169060e-01  8.26383233e-02 -1.22715786e-01  2.13951141e-01 -7.56601691e-01  2.52544165e-01  1.43907011e-01 -1.95686504e-01 -4.51001704e-01]]

